{
  "active": {
    "version": 1,
    "generation": 191,
    "fitness": 4.591083310998392,
    "w1": [
      2689.8360868304935,
      -705.5242239580756,
      3746.498500247539,
      -342.66728380997125,
      -584.0535796379738,
      5571.143899573091,
      -3373.974632633094,
      900.831108234908,
      -1843.0727163365486,
      6449.958505227822,
      3429.9587914298627,
      13059.603055489397,
      3682.4964396041496,
      -727.5955782468267,
      -0.3038283164249429,
      11934.87051041744,
      4045.891681353985,
      5674.905315046636,
      13145.253795153003,
      13754.659343006448,
      182.5839213469273,
      2685.4299004512504,
      -706.2562232741625,
      3745.624002263181,
      -344.8715480687071,
      -586.4056931000855,
      5562.496996247424,
      -3362.7523282911043,
      901.9381296007531,
      -1839.1172040954098,
      6438.706748136741,
      3427.844815909332,
      13037.859849295368,
      3676.8989595030507,
      -728.6711304488912,
      -0.11445808204934943,
      11917.116191139641,
      4042.043144605065,
      5661.1070471594685,
      13121.788202356249,
      13733.313950685024,
      183.84098411438012,
      -2679.2753605668236,
      702.6804289848469,
      -3734.423681413356,
      341.98365284006906,
      578.8510132188967,
      -5552.252886410839,
      3361.1890252979792,
      -902.5059699409336,
      1833.8050127205765,
      -6424.082452447514,
      -3413.228351788348,
      -13005.779949487607,
      -3665.0502134403996,
      731.1407741144928,
      -0.20970602400220922,
      -11887.93716722869,
      -4029.5108588460776,
      -5658.51321550664,
      -13089.261064933238,
      -13698.53787189782,
      -183.2525433291149,
      2680.5650803378153,
      -706.3432677038204,
      3737.8899830718437,
      -341.5866075342102,
      -581.4883319719885,
      5556.781860297174,
      -3363.8765677482534,
      902.2932904608919,
      -1835.3711592997606,
      6432.591424623768,
      3415.5902193037987,
      13021.970136764912,
      3670.017172072286,
      -731.927646815814,
      0.06657476447186993,
      11901.74891588035,
      4033.254506736492,
      5667.149658822832,
      13103.586535284281,
      13714.993503342794,
      184.51656528225266,
      2684.062709354299,
      -704.2879941105856,
      3744.31919898226,
      -343.81326225624497,
      -581.8545289075503,
      5560.064391956871,
      -3359.1732985449835,
      902.8551627556368,
      -1837.3635597348498,
      6438.056413821481,
      3428.113916669453,
      13038.53791361658,
      3677.4730368757064,
      -727.0459417828307,
      0.31875483254313247,
      11916.203546275305,
      4041.1696916792603,
      5660.8283455616565,
      13120.944439571427,
      13732.320885316622,
      183.44828403449105,
      2700.853041245925,
      -740.1675491634613,
      3760.18245096176,
      -356.3943328766037,
      -592.9570161533927,
      5593.5813087111455,
      -3422.5829701354533,
      893.5305292325176,
      -1830.4793672904316,
      6490.349315332198,
      3438.683011657078,
      13135.355145793546,
      3682.6491858939316,
      -746.3907573506847,
      0.22173826053366807,
      11990.291156307947,
      4057.5969419086978,
      5741.719369180838,
      13210.568156935986,
      13836.200658572456,
      191.7785602424922,
      -2677.536562411046,
      699.442012000899,
      -3732.6653374905027,
      341.69857906429286,
      579.1636158633776,
      -5549.070394912882,
      3355.382258284916,
      -901.5034780543149,
      1833.1300363230082,
      -6418.729473586718,
      -3413.8414862799063,
      -12996.381801242824,
      -3662.512727484338,
      727.8925606659875,
      -0.1135554678798929,
      -11878.18019598976,
      -4026.9629449140803,
      -5652.343262853334,
      -13079.25082238904,
      -13689.615673557055,
      -182.9852166150144,
      -2685.884335922881,
      704.4560264519644,
      -3751.196693378842,
      346.42440525025575,
      583.6745083183636,
      -5567.332370366753,
      3357.2431433459797,
      -905.1858841877796,
      1844.6666429134575,
      -6449.2969317643365,
      -3442.357851519511,
      -13064.165734752374,
      -3689.300233062164,
      726.3035150968121,
      0.28289172382324923,
      -11943.327012960759,
      -4050.7539904215564,
      -5661.15870091374,
      -13148.182731272303,
      -13758.899808259728,
      -182.60441432580944,
      -2702.4090792614993,
      755.0461291158105,
      -3763.503264295111,
      360.60028687828094,
      598.644637745152,
      -5601.060953332231,
      3449.22831595142,
      -896.7350992009509,
      1806.0298074250086,
      -6509.374544362665,
      -3440.515447946364,
      -13185.9098791691,
      -3689.976561546184,
      747.6786822876259,
      0.27780393180686547,
      -12014.884222945513,
      -4061.155255645012,
      -5765.257945696898,
      -13248.052306732006,
      -13887.698400797768,
      -193.68237893198162,
      -2683.4486736237827,
      704.5528118868306,
      -3742.1272521700553,
      344.6200608739979,
      580.3939184396439,
      -5557.360751233415,
      3360.2547970091573,
      -901.3084932475386,
      1835.2933138951757,
      -6434.7498003289875,
      -3423.2350477757573,
      -13030.868208317712,
      -3674.16188362665,
      729.714812363859,
      -0.13792442247403172,
      -11908.397743521924,
      -4038.712071784308,
      -5660.532484913724,
      -13114.173303586427,
      -13724.799861683743,
      -183.54385236218224,
      2677.9967009809347,
      -704.6652833594287,
      3733.114874303759,
      -341.99002613667585,
      -579.2306166907205,
      5551.343763701945,
      -3365.962868670501,
      902.4454030625444,
      -1837.2055320682166,
      6423.009911801148,
      3409.823278508106,
      13003.5557504596,
      3663.535509352277,
      -730.4295028801534,
      0.33097584198029684,
      11885.252582001292,
      4028.8493450647134,
      5662.236452259575,
      13085.061037499749,
      13695.698612762484,
      184.30105172666285,
      2682.3410459560814,
      -704.2253445793112,
      3736.613191377781,
      -341.86097141904713,
      -580.4116327756869,
      5554.294949823336,
      -3364.764306504388,
      900.1790930708634,
      -1833.4380235642998,
      6428.8958774841685,
      3412.8765499177316,
      13012.20573954704,
      3666.012753672526,
      -734.8200737360158,
      0.12154507328240334,
      11894.379781302676,
      4032.464824128197,
      5663.529090222258,
      13097.008099855291,
      13706.271779308427,
      183.24861190269795,
      2673.9786932267616,
      -697.9734871510141,
      3729.510520437518,
      -340.4074144642491,
      -578.7261783540753,
      5542.36474063959,
      -3351.869900283131,
      901.166238227601,
      -1836.3441122439908,
      6405.261466444082,
      3410.7172204121025,
      12974.101390013124,
      3655.329717012905,
      -725.2426960584966,
      -0.21838676136005702,
      11856.141039159076,
      4022.1867640750033,
      5640.9017818886,
      13055.505867216416,
      13665.026494039159,
      182.05612015801202,
      2700.5250243685296,
      -752.3417496604162,
      3759.709241205075,
      -358.97886684128474,
      -598.1277503458363,
      5602.592442925565,
      -3439.5427878693104,
      896.670758101488,
      -1813.7342919563544,
      6502.07394154378,
      3437.054176254077,
      13168.769118853099,
      3686.702293427174,
      -744.4286889617736,
      -0.2523267114422253,
      12004.461935074025,
      4058.5440822220435,
      5757.075013082167,
      13232.913876961891,
      13869.112520545406,
      194.01186414389034,
      -2684.6076131890063,
      712.5715600043966,
      -3743.806249428264,
      345.18032942008057,
      582.84847052113,
      -5563.312174743665,
      3368.771075500187,
      -901.3550384376011,
      1836.34425152978,
      -6442.798231112389,
      -3421.6691029783597,
      -13044.347091380023,
      -3676.321094795182,
      731.8204444419778,
      -0.3569177969299923,
      -11918.762377581523,
      -4040.8633992245095,
      -5674.9556403512315,
      -13124.27023098734,
      -13739.218089960319,
      -185.68927898339052,
      2686.6664989959063,
      -707.1122089575147,
      3749.8176540091617,
      -347.2905565627857,
      -586.1286450661445,
      5569.200518867972,
      -3364.17862790784,
      904.1102008203372,
      -1841.9189248467615,
      6453.449772656433,
      3436.3257544907724,
      13067.099958462077,
      3687.399143194464,
      -725.4447553474251,
      0.41664525159432175,
      11941.238496482694,
      4048.7241022943467,
      5672.474342369367,
      13147.778221080367,
      13762.204981528968,
      184.46341341723124,
      2703.7594277099142,
      -749.4484254588351,
      3765.1037860481947,
      -360.3706949984487,
      -593.483538310949,
      5596.814856620372,
      -3448.5158426887624,
      889.007780192733,
      -1792.7848347355682,
      6504.002532965484,
      3447.701397757325,
      13181.815208048876,
      3686.957096466147,
      -743.8828878476394,
      -0.14378413387609265,
      12005.466427219075,
      4060.914713241608,
      5761.911780861914,
      13255.85248512119,
      13887.763229036656,
      187.29111049676962,
      -2703.1698244215086,
      750.4171154287476,
      -3760.9584348957214,
      358.7262055408139,
      596.9512912324201,
      -5601.877034476316,
      3440.5418478924926,
      -892.4504233339994,
      1811.8304508519045,
      -6503.385010561605,
      -3436.90722194486,
      -13168.04342909919,
      -3686.016826985846,
      750.0069335801205,
      0.11126563032401891,
      -12006.853089125914,
      -4059.53704316132,
      -5757.363857118902,
      -13235.260671388205,
      -13869.027413692655,
      -192.42113296493136,
      -2701.8022040106543,
      738.8847483122681,
      -3763.818927969421,
      355.98777530749635,
      590.6501188925005,
      -5588.129059179293,
      3419.8014912915046,
      -894.1300751806967,
      1833.2140500840733,
      -6487.6102057655735,
      -3438.058040806769,
      -13126.987321661107,
      -3681.1365167174795,
      748.3907855949608,
      -0.14252110954072592,
      -11985.753400597592,
      -4058.585292379138,
      -5737.210644167054,
      -13206.039323729583,
      -13828.144505418959,
      -193.80187493971027,
      2682.298655724973,
      -709.2055007252532,
      3745.6367686517187,
      -347.3734863293251,
      -585.4178682032767,
      5563.439524936799,
      -3361.8846379435045,
      907.3350352728196,
      -1840.4550836211056,
      6443.096068364495,
      3428.7195772024174,
      13047.11117170105,
      3681.085157505877,
      -723.7327622761084,
      -0.44665886685572687,
      11921.3216776089,
      4042.7333518299015,
      5667.082966983225,
      13125.687222495728,
      13740.939078201605,
      186.19630291656205,
      -2699.57110798381,
      753.7948892646006,
      -3759.4816500867414,
      359.35210120612726,
      597.2275953373213,
      -5596.685745252661,
      3441.2914499072494,
      -896.1630480575783,
      1804.8273645001705,
      -6500.523682900138,
      -3435.218034491091,
      -13167.914017224823,
      -3685.0990226942627,
      748.2122267902506,
      0.0783399900839611,
      -12001.812422408748,
      -4057.071221325131,
      -5753.886405415471,
      -13229.20271901278,
      -13868.365132297939,
      -194.4696757624124,
      -2673.682975603142,
      703.3740177974471,
      -3731.2706229201467,
      341.21061144457065,
      583.1048609050258,
      -5546.3647747776595,
      3355.6011577577883,
      -904.9446813456243,
      1835.4460362882123,
      -6414.712400545452,
      -3411.5608101108764,
      -12990.301164567165,
      -3661.172037756658,
      726.906059317212,
      -0.20499257104536417,
      -11874.680549031582,
      -4025.7352945659004,
      -5652.054351080706,
      -13070.731081721795,
      -13681.690584425603,
      -184.5568545407008,
      2702.46500179503,
      -738.9091194477896,
      3765.378753669839,
      -355.8774233703676,
      -592.1481474338359,
      5593.88971738933,
      -3422.450006682703,
      895.7311142499071,
      -1835.3329600879492,
      6492.935051743201,
      3440.7570629247684,
      13138.749455791527,
      3684.8452205302774,
      -745.6077778065704,
      -0.08517664877683737,
      11994.253388416135,
      4060.4936469108743,
      5741.666795835795,
      13216.469097804507,
      13839.65583316998,
      193.6319934708323,
      -2685.474349576557,
      702.3737915568807,
      -3740.4960372348824,
      340.86704032118433,
      582.0163140214527,
      -5560.692918508139,
      3362.800875058713,
      -897.0171678464114,
      1835.4414690900044,
      -6435.499501732718,
      -3421.098029156373,
      -13031.14934113541,
      -3673.219242509389,
      732.044806619547,
      0.23968708856773488,
      -11910.180025061327,
      -4037.7231904374457,
      -5666.4464369693915,
      -13116.652052384607,
      -13724.940755256073,
      -181.04633260041174,
      2683.6668336139483,
      -711.530085046591,
      3743.111213462396,
      -343.6752696126226,
      -585.2777231024307,
      5562.296464968225,
      -3368.1290132918593,
      901.8534403685484,
      -1837.8137010960306,
      6438.656046017066,
      3420.444480702917,
      13036.545585977978,
      3673.2711689980833,
      -731.4862904399045,
      0.14842625407562027,
      11913.05827342646,
      4039.270030471024,
      5669.2258158321565,
      13118.20351474825,
      13730.989782947348,
      185.2245495758133,
      -2683.7689105446093,
      705.3354385467078,
      -3742.9073866373255,
      345.21654799205635,
      579.7960907762683,
      -5557.121784258601,
      3361.8893562426033,
      -901.8397821625093,
      1836.0376900612405,
      -6436.081759513177,
      -3424.3146434422715,
      -13032.198283930928,
      -3674.4108118207982,
      729.3138588782052,
      0.41773069123596956,
      -11910.333671421211,
      -4038.751391375124,
      -5661.808394246955,
      -13115.628760584084,
      -13726.293198893578,
      -183.3713453719346,
      2686.11318727312,
      -704.9819175564646,
      3739.9846374213184,
      -341.87539972881393,
      -583.4615418080751,
      5564.37691632175,
      -3364.502069603448,
      898.5390439382996,
      -1834.8457066320734,
      6438.968319381986,
      3419.461814501013,
      13038.139922556587,
      3673.6189207878706,
      -731.3720811144324,
      -0.3660846466198894,
      11914.781007911628,
      4038.123056398682,
      5668.536500164037,
      13122.046245874502,
      13732.170030433073,
      180.7150922791585,
      -2707.1519820346293,
      722.6441319919104,
      -3761.920414848145,
      354.41320394005356,
      592.785017282784,
      -5600.780169489151,
      3400.559857217995,
      -898.911465795118,
      1831.3291831989006,
      -6493.20932288564,
      -3451.1011500655413,
      -13140.847619193577,
      -3698.4510990460267,
      732.2443905007117,
      0.1914895380386613,
      -11998.520624437833,
      -4065.020912986529,
      -5708.618456251322,
      -13224.888952092037,
      -13842.171707497699,
      -184.32927637082568,
      2685.147673291184,
      -703.0120776274473,
      3750.7646863193663,
      -347.16259079599917,
      -581.4319633158755,
      5560.867539710964,
      -3361.354087714892,
      906.0723727526965,
      -1847.852123479638,
      6441.875159385794,
      3439.832415737722,
      13046.134041039924,
      3684.8360486090273,
      -723.9681552588085,
      -0.29977854235351975,
      11928.939252269825,
      4047.763752549994,
      5659.432455134252,
      13131.01589818763,
      13741.215849301003,
      185.92749923256662,
      2684.6612073369315,
      -705.8767967691226,
      3740.771559035114,
      -343.6034192282551,
      -581.8984039453665,
      5560.968262172358,
      -3369.9772261998114,
      901.0182315235601,
      -1837.9729154118882,
      6438.424853949744,
      3418.249372924686,
      13031.894634439383,
      3671.227588552857,
      -733.980846809228,
      0.028291926261874236,
      11911.978980359858,
      4037.1605710718777,
      5670.564130955207,
      13116.241553473894,
      13726.905665692693,
      184.38003383854056,
      -2702.0531732801246,
      749.0457432487655,
      -3763.2180284917195,
      358.6404937982766,
      591.8718912098878,
      -5592.043745194182,
      3446.6048077505043,
      -887.0266454005392,
      1795.0597657713074,
      -6502.205017961561,
      -3445.142463808553,
      -13175.305391782354,
      -3686.2799935100106,
      746.2821144868341,
      0.16038547080826185,
      -12003.251654303189,
      -4059.6441372803606,
      -5764.149103028519,
      -13249.765375455085,
      -13881.117076719622,
      -189.36239182254275,
      2686.4712209305417,
      -704.5308611913778,
      3738.808844699241,
      -341.08931780886394,
      -583.4717520904246,
      5564.510993034068,
      -3367.817897815138,
      901.5052500914144,
      -1834.8528123180322,
      6439.656299610804,
      3418.446693364946,
      13035.028673905339,
      3672.1613945454797,
      -733.4161312183109,
      -0.03661929647635981,
      11914.578786275493,
      4037.9262768313315,
      5666.999773428402,
      13120.45836833357,
      13730.771047191383,
      181.23685458869946
    ],
    "b1": [
      11206.84920239674,
      11187.554577716312,
      -11156.867634087732,
      11169.671812335087,
      11189.489714402458,
      11244.309572466294,
      -11149.983068983367,
      -11217.287182062231,
      -11267.37107240706,
      -11178.902099453066,
      11154.887074279923,
      11159.263309847443,
      11130.618617156433,
      11260.493836833863,
      -11187.206441765737,
      11214.587767740937,
      11262.055831424317,
      -11257.193138291299,
      -11237.51467491622,
      11197.169761735657,
      -11253.228273936074,
      -11147.354292563683,
      11248.671833773096,
      -11178.102568131973,
      11181.79957076427,
      -11180.656924762383,
      11182.742979990519,
      -11266.34891509977,
      11204.550595522494,
      11178.625777561268,
      -11256.483888916644,
      11181.33779984277
    ],
    "w2": [
      -20.38449840641518,
      -19.87473951993584,
      20.23602014944818,
      -20.111527491320402,
      -20.320176954294354,
      -19.94789084960741,
      20.57318655135692,
      19.822043159826997,
      19.95598430807768,
      20.14885936519693,
      -20.363689603820045,
      -20.524016046370075,
      -20.777645228257,
      -20.318824254767346,
      19.9213748310298,
      -20.172856389441524,
      -20.73809852807642,
      20.848629758869027,
      20.267020021938997,
      -20.078851659527125,
      20.61532852406652,
      20.119303895864626,
      -20.672719570493626,
      20.121371797652486,
      -20.68015195849974,
      20.53980608023753,
      -20.265755542776773,
      20.47621963500015,
      -20.07113134854407,
      -20.032173886441594,
      20.55264169348107,
      -20.39589487937105,
      -20.374854233580333,
      -20.83209025353631,
      20.130167566377697,
      -19.93410537625023,
      -20.478218280625825,
      -20.62457154664658,
      20.39280800043634,
      20.12544383331845,
      20.803127788639397,
      20.356513243390722,
      -19.928767546980826,
      -20.376831327607842,
      -20.18120650596625,
      -20.70451449459994,
      20.13711652535674,
      -20.808209479808674,
      -20.940192820276163,
      20.818833262351827,
      20.39988190432735,
      -20.601894432355486,
      20.799533095917567,
      20.208725873093048,
      -20.771273463755126,
      19.867263782497687,
      -20.439492585495103,
      20.468655372942674,
      -20.2504915519756,
      20.28801470011401,
      -20.046038452228377,
      -20.27569472580055,
      20.72673663122655,
      -20.186094419645826,
      20.220487074806577,
      19.862778690298086,
      -20.604943586226717,
      20.137015549609515,
      20.665364722027284,
      20.475318453625572,
      -20.089512078407576,
      -20.080869370144015,
      -20.19677714289463,
      -20.480829806661642,
      20.411145338252165,
      20.709615423490334,
      20.12247849045331,
      20.43016485528799,
      -20.03014301274709,
      19.763835524278715,
      20.32456936131659,
      -19.98407071021085,
      -20.620909191565193,
      19.750645799285426,
      -20.19188113328662,
      -19.83966418624729,
      20.37132442887231,
      -20.157944991797322,
      20.725663440017218,
      -20.71146525406836,
      20.02614695434276,
      -20.308599244972438,
      20.35156407627519,
      20.132640155000253,
      -20.68893956859862,
      20.811109217035607,
      -20.788504628135804,
      -20.003570709744864,
      20.46816485621898,
      -20.095977836412978,
      -20.720922934991076,
      -20.57470019808367,
      20.49534758708157,
      20.501894500149227,
      20.04123321828351,
      20.76207236744706,
      -20.286651752004374,
      -19.984506841042997,
      -20.259237643804024,
      -20.293186985718243,
      20.593700491318817,
      -20.484299062507972,
      -20.587938183706942,
      20.672554992794034,
      20.632553740356364,
      -19.737250462386097,
      20.465354296177267,
      19.84429095604166,
      -20.31417324852928,
      20.687204939209494,
      -20.324291507544746,
      20.255232157751255,
      -20.640746331115906,
      20.18557288197336,
      -19.70475314456547,
      -20.022916201937775,
      20.250489986477696,
      -19.986782032293164,
      -20.05348622368476,
      -20.358159460802888,
      20.424024690878575,
      -19.81398932101235,
      -20.162799031370962,
      -20.722559182833265,
      20.115069274575113,
      20.536960860466937,
      20.765369739481855,
      20.389048460141186,
      -20.28042961691653,
      -20.416807922879762,
      -19.68239059397834,
      -20.688799770717498,
      20.65140599260922,
      -20.600969240746828,
      -20.7814933472514,
      20.433232279743322,
      20.524487464123617,
      -20.942178299861226,
      20.868026733037617,
      20.55738235452827,
      -20.51980412159792,
      19.939025195220708,
      -20.04096318231179,
      20.193769323923206,
      -19.985585839380036,
      20.727548374896408,
      -20.178834471078726,
      -20.226306656458757,
      20.776222470096815,
      -20.163348522347082,
      -21.56999643195663,
      -20.811242490504707,
      21.207118357619066,
      -20.815439082131395,
      -20.96339633726999,
      -21.051442975885703,
      20.996717345793922,
      21.133698690960202,
      21.15726828628088,
      20.801453237125685,
      -20.475843271196247,
      -21.154459854825728,
      -21.326710789448864,
      -21.08281803762183,
      20.90668884467081,
      -21.15569056062579,
      -21.562835487120765,
      21.559138473333864,
      20.650489999617946,
      -20.657311801411534,
      21.330803571686086,
      21.51155330855388,
      -21.396759038463642,
      21.939483780121467,
      -20.916316174156215,
      20.88122219833557,
      -21.741116462160207,
      21.547788530766283,
      -20.609228675008232,
      -21.022008243570326,
      21.27232189988809,
      -21.788071437475747,
      -20.48124431688024,
      -20.301273659176744,
      20.419459560255454,
      -20.605779636190892,
      -20.072724540374992,
      -20.650613662779058,
      19.781314078462742,
      20.332552010191502,
      20.96122547210436,
      19.834967133693382,
      -20.2591938688625,
      -19.659373152862074,
      -19.75837688478997,
      -20.77918362544122,
      20.20981161697316,
      -20.51093130204827,
      -20.927228466586634,
      20.592314769839685,
      20.838671111071363,
      -20.30188727534595,
      20.819325904776495,
      20.448035001197276,
      -20.62480869965465,
      20.166380610448993,
      -20.449266962651738,
      20.59337199457426,
      -20.4665007316685,
      20.73956730658614,
      -20.56390332569941,
      -20.409591698951314,
      20.696380748322962,
      -19.857052426023763,
      20.440222199422408,
      20.640391526170312,
      -19.804458100838975,
      20.26454625503675,
      20.07993173882335,
      20.702250376811996,
      -20.061286991020282,
      -20.52709269124447,
      -20.58086946773539,
      -20.687368010388067,
      19.942808791756846,
      19.79353104564144,
      19.775649574926483,
      20.490747023865744,
      -20.096309801589545,
      20.103263724129718,
      20.795655367500075,
      -20.6012272249269,
      -20.660536060582224,
      20.93899744162018,
      -20.72814567708616,
      -20.001153603470545,
      20.354100129274272,
      -20.292594927649695,
      20.116741400040514,
      -20.34159229844444,
      20.48581968464733,
      -20.63241159359542,
      20.707890252655464,
      20.369392550375643,
      -20.68235779305052,
      19.823599185068392,
      20.332633774788647,
      20.523729962467314,
      -19.92619604125573,
      20.323935343671742,
      20.070331779304006,
      20.115088757138793,
      -19.821916929262727,
      -20.504064321427613,
      -20.78945200930491,
      -19.846272897622917,
      20.157322569251377,
      20.315441186154374,
      20.349826959075656,
      20.980221389993286,
      -20.309473481390253,
      20.454411142044677,
      20.168824703686006,
      -20.17766178047562,
      -20.465060301591503,
      20.59928387416807,
      -21.01239503345891,
      -20.039523596329694,
      20.245423779846575,
      -20.07968908525211,
      20.565914754341414,
      -19.870103501075647,
      19.90986204282161,
      -20.667785329067385,
      20.474663979830716,
      20.06466204820133,
      -20.35146681039564,
      20.41832121416342,
      20.029375917041754,
      20.50937687294102,
      -19.674001737694343,
      20.260865801480698,
      19.921795278953258,
      20.888916812854106,
      -19.818413211188123,
      -20.840670711424387,
      -20.963691536889417,
      -20.21727540952949,
      19.791099333732692,
      19.843713197210153,
      19.759273346041077,
      20.622159098927188,
      -20.61035159715502,
      20.505852237976416,
      20.53518843647317,
      -20.389986371569382,
      -20.228672527711986,
      20.49673513664619,
      -20.154234951786144,
      -20.30392012460184,
      20.11991781501732,
      -20.234757758435084,
      20.06140883751148,
      -20.132644220351004,
      19.836493413801847,
      -20.259717045192843,
      20.891593667988822,
      20.1799638801812,
      -20.782500022437628,
      20.0414634661116,
      -20.04508293099421,
      -19.96775584191374,
      20.037871310493216,
      -20.658025622616776,
      -20.05197936830069,
      -20.53991225114707,
      20.39165868117792,
      20.202298118814685,
      20.663230386415773,
      20.002907217665424,
      -20.506980756554725,
      -19.949239278280018,
      -19.947408058704333,
      -20.206532508280127,
      20.05273614017889,
      -19.740513032932995,
      -20.394513166535585,
      20.686436677017095,
      20.09644530301464,
      -20.085891832155255,
      20.11506679496291,
      19.907483858497883,
      -20.572414227582353,
      20.442841300023574,
      -20.022621575243733,
      20.0639518774575,
      -20.797262262800494,
      20.7344182273486,
      -19.71578425902716,
      -20.866529785695107,
      20.478644775013336,
      -20.346507452721696,
      -20.12150256725556,
      -20.704242124307733,
      19.999730233585925,
      -20.38559718610767,
      -20.681937899700564,
      -20.210808971912037,
      19.861969775241338,
      20.441494721564105,
      20.999880885604064,
      20.414233171612544,
      -20.308287087056453,
      -20.2914865235024,
      -19.760635479786348,
      -20.785004784453424,
      20.52522645524258,
      -20.85759503297754,
      -20.827265588480284,
      20.48418293482497,
      20.902792418640164,
      -20.278294721307454,
      20.14408270238886,
      20.33128289517387,
      -20.768597811391214,
      20.03258462837999,
      -20.13228589797016,
      19.83231960925643,
      -19.775314773865823,
      20.5834407408684,
      -20.83060115032889,
      -20.25130177594213,
      20.836044551365163,
      -20.323766472250995
    ],
    "b2": [
      -24.796639107284825,
      -24.855825401845856,
      24.752624962454508,
      -24.802787444943256,
      -24.931126808720613,
      -24.68000334626125,
      -24.844033102764303,
      24.844657990119646,
      24.758477353156515,
      24.73398595698452,
      -24.85617697538825,
      -24.839955598926238
    ]
  },
  "best": {
    "version": 1,
    "generation": 5,
    "fitness": 28.546559334281394,
    "w1": [
      -0.3994062542915344,
      -0.7651268243789673,
      0.027291148900985718,
      0.2632771134376526,
      -0.5696856379508972,
      -1.0257360935211182,
      -2.4400763511657715,
      1.7589471340179443,
      -0.5726681351661682,
      -0.05611296743154526,
      0.18609847128391266,
      1.977664828300476,
      1.1056756973266602,
      2.3877525329589844,
      -0.3164556324481964,
      -0.04775293171405792,
      0.11506146937608719,
      -0.31928345561027527,
      0.41629576683044434,
      0.5707927346229553,
      0.20740234851837158,
      0.1835007220506668,
      0.585716724395752,
      0.17859700322151184,
      1.5125523805618286,
      -1.3438777923583984,
      0.9239645004272461,
      0.1378546953201294,
      0.19513633847236633,
      -1.350600242614746,
      -0.7154653668403625,
      -1.705404281616211,
      -0.18228289484977722,
      0.08067061007022858,
      -0.23639798164367676,
      0.3812035322189331,
      0.3404809534549713,
      0.9443739056587219,
      -0.0724421963095665,
      0.3536253869533539,
      -0.17346492409706116,
      0.5327463746070862,
      2.525367259979248,
      -1.5392717123031616,
      0.5737177133560181,
      -0.4241286814212799,
      0.34573718905448914,
      -1.897196888923645,
      -1.1173779964447021,
      -2.454632520675659,
      0.020663268864154816,
      0.3411136865615845,
      -0.8943453431129456,
      -0.20799264311790466,
      -0.5914196372032166,
      -0.6758168339729309,
      -0.01452596765011549,
      -0.5235717296600342,
      -0.17328453063964844,
      -0.014098551124334335,
      -1.2323319911956787,
      1.4019337892532349,
      -0.7317596077919006,
      0.6160705089569092,
      -0.3419733941555023,
      1.19796621799469,
      1.0799022912979126,
      1.941423773765564,
      -0.16385643184185028,
      -0.011687973514199257,
      -0.0360308438539505,
      0.11482211947441101,
      -0.3280123472213745,
      0.44787418842315674,
      0.4011639654636383,
      -0.29282888770103455,
      0.5095741152763367,
      0.14946070313453674,
      0.8278957009315491,
      0.08648776262998581,
      0.3316192626953125,
      0.12818408012390137,
      0.8438039422035217,
      0.08133652061223984,
      -0.21666742861270905,
      -0.5728370547294617,
      0.3937201201915741,
      -0.12386290729045868,
      -0.18814803659915924,
      0.378500759601593,
      -0.122168630361557,
      -0.8199781179428101,
      0.302386611700058,
      0.0789140909910202,
      0.020081983879208565,
      0.22849883139133453,
      -1.1966185569763184,
      0.7685020565986633,
      0.1094309538602829,
      -0.16236111521720886,
      0.4520258605480194,
      0.8965368866920471,
      0.6727986931800842,
      1.2037599086761475,
      -0.33482426404953003,
      0.38458892703056335,
      0.2686537206172943,
      -0.2433357834815979,
      -0.1896751970052719,
      -0.37865495681762695,
      -0.07360304147005081,
      0.16604188084602356,
      -0.047524601221084595,
      0.13196666538715363,
      -0.7956483960151672,
      0.36519190669059753,
      -0.40615811944007874,
      0.3751595616340637,
      0.24685324728488922,
      0.7625869512557983,
      0.25584277510643005,
      0.6448165774345398,
      -0.3804982900619507,
      0.31607770919799805,
      0.3043707609176636,
      0.041897933930158615,
      -0.0480947382748127,
      0.02185891382396221,
      0.2883450388908386,
      0.2392721325159073,
      -0.05852622166275978,
      0.1551152467727661,
      -0.09117774665355682,
      -0.19776104390621185,
      -0.1235552579164505,
      -0.4050866663455963,
      -0.339387983083725,
      -0.1285354644060135,
      0.2583138644695282,
      -0.04594196006655693,
      -0.16186587512493134,
      -0.14081250131130219,
      0.3600705862045288,
      -0.38950079679489136,
      0.4675583243370056,
      0.9954923987388611,
      -0.42523807287216187,
      -0.10124769061803818,
      -0.20893554389476776,
      0.47495806217193604,
      1.6065361499786377,
      -1.6186366081237793,
      -0.23774266242980957,
      -0.2858012318611145,
      -0.43995773792266846,
      -1.7342876195907593,
      -0.3807825744152069,
      -1.4101427793502808,
      -0.6084129810333252,
      -0.04399770498275757,
      -0.7383806705474854,
      0.5947549939155579,
      0.32456037402153015,
      0.9751483798027039,
      -0.7125570774078369,
      0.3784295320510864,
      0.2784693241119385,
      0.7685738801956177,
      2.1493515968322754,
      -1.3428335189819336,
      0.9067649245262146,
      -0.005968289449810982,
      0.313984215259552,
      -1.8145368099212646,
      -1.204524040222168,
      -1.9925405979156494,
      -0.4195702373981476,
      -0.44232988357543945,
      0.02298126555979252,
      0.03252558037638664,
      0.47062036395072937,
      0.0008800419745966792,
      0.20897194743156433,
      -0.2688475549221039,
      -0.2417793720960617,
      0.046465277671813965,
      0.25650259852409363,
      0.321302592754364,
      0.3886432349681854,
      -0.18749694526195526,
      -0.18463380634784698,
      -0.5301935076713562,
      -0.12907128036022186,
      0.1588553935289383,
      0.43448203802108765,
      -0.36267414689064026,
      0.31488037109375,
      -0.29018735885620117,
      0.3625762462615967,
      1.0390729904174805,
      -0.48843133449554443,
      -0.08145701885223389,
      -0.022286122664809227,
      0.5805952548980713,
      2.8283135890960693,
      -1.9788508415222168,
      0.43404650688171387,
      -0.04503921419382095,
      -0.14534831047058105,
      -2.0990309715270996,
      -1.1813420057296753,
      -2.31000018119812,
      0.09047763794660568,
      -0.18138760328292847,
      -0.7904905080795288,
      0.24174632132053375,
      0.04445222020149231,
      1.1022322177886963,
      -0.17307789623737335,
      0.31594735383987427,
      0.002606079913675785,
      0.5076795816421509,
      1.5713142156600952,
      -1.7387832403182983,
      0.5121618509292603,
      0.2867869436740875,
      0.3740190267562866,
      -1.4309723377227783,
      -1.0418583154678345,
      -1.6690109968185425,
      0.04825489968061447,
      0.2502528429031372,
      -0.026178615167737007,
      0.37206047773361206,
      0.1802382618188858,
      -0.49190306663513184,
      -0.19432805478572845,
      -0.053844064474105835,
      0.2816537320613861,
      -0.16460150480270386,
      -0.010068635456264019,
      -0.15233662724494934,
      0.39944374561309814,
      0.2981308400630951,
      0.4393652677536011,
      -0.20345130562782288,
      -0.30000025033950806,
      0.2142476588487625,
      -0.18624508380889893,
      0.017597053200006485,
      0.08837942034006119,
      -0.2087855488061905,
      -0.5439894199371338,
      -1.1600924730300903,
      0.12109817564487457,
      0.44704246520996094,
      -0.3694704473018646,
      -0.47547218203544617,
      -1.3574228286743164,
      1.2985355854034424,
      -0.3872162401676178,
      -0.27144375443458557,
      -0.13495606184005737,
      1.997359037399292,
      0.6930831074714661,
      2.062978982925415,
      -0.3115842044353485,
      -0.07872191816568375,
      -0.024484749883413315,
      -0.2011047750711441,
      0.7525861263275146,
      0.2889418601989746,
      -0.5453870892524719,
      -0.38118869066238403,
      -0.17521043121814728,
      0.5764999389648438,
      1.6433244943618774,
      -1.277115821838379,
      0.2906423509120941,
      0.32126784324645996,
      0.037555892020463943,
      -1.3600506782531738,
      -1.0091078281402588,
      -1.0418967008590698,
      0.3547966778278351,
      0.06841542571783066,
      -0.5647748112678528,
      0.29758700728416443,
      -0.6751107573509216,
      -0.44719424843788147,
      0.209178164601326,
      -0.16552235186100006,
      -0.6964843273162842,
      -0.2707652151584625,
      -2.1384549140930176,
      1.0210469961166382,
      -0.6817641854286194,
      0.06318582594394684,
      -0.058014191687107086,
      1.2195364236831665,
      0.5230585932731628,
      1.9522161483764648,
      0.007845924235880375,
      0.16164326667785645,
      0.7414644956588745,
      -0.2938985228538513,
      -0.32708311080932617,
      -0.48978790640830994,
      -0.03312945365905762,
      0.6392363905906677,
      0.40532469749450684,
      0.2273963838815689,
      -0.9200951457023621,
      1.246115803718567,
      -0.7579906582832336,
      0.28355973958969116,
      0.3300584554672241,
      1.5605859756469727,
      0.4982398748397827,
      1.5571900606155396,
      -0.4290953576564789,
      0.2573361098766327,
      0.43880248069763184,
      -0.14573657512664795,
      0.8728733062744141,
      1.0261507034301758,
      -0.05628909543156624,
      -0.17960168421268463,
      0.5742394328117371,
      0.7803587913513184,
      2.5511467456817627,
      -1.430766224861145,
      1.2028419971466064,
      -0.14541871845722198,
      -0.3343532681465149,
      -1.5988013744354248,
      -1.321529507637024,
      -2.3917455673217773,
      0.347072958946228,
      0.25480130314826965,
      -0.4904164671897888,
      0.25432106852531433,
      -0.27366524934768677,
      -0.6672435402870178,
      0.5750869512557983,
      0.02514675073325634,
      -0.054028674960136414,
      -0.35160642862319946,
      -2.039630651473999,
      1.5980918407440186,
      -0.7089014649391174,
      0.13142913579940796,
      -0.45974838733673096,
      1.3951431512832642,
      1.1510244607925415,
      1.8172225952148438,
      -0.35300660133361816,
      0.28507566452026367,
      -0.017108812928199768,
      -0.4462277293205261
    ],
    "b1": [
      2.2568483352661133,
      -1.6524220705032349,
      -2.2271509170532227,
      1.5751274824142456,
      -0.41015493869781494,
      1.1597343683242798,
      0.78263920545578,
      0.05407709255814552,
      -1.7210179567337036,
      -1.9446985721588135,
      -0.060709428042173386,
      -2.473588228225708,
      -1.6444655656814575,
      0.11289023607969284,
      2.0389044284820557,
      -1.4018104076385498,
      1.814719319343567,
      1.2520055770874023,
      -2.1201274394989014,
      2.26900053024292
    ],
    "w2": [
      -0.6934899687767029,
      0.4938284158706665,
      0.8971662521362305,
      -0.3524320721626282,
      0.15138128399848938,
      -0.3612721264362335,
      -0.6338327527046204,
      0.11141952127218246,
      0.4134312570095062,
      0.9414479732513428,
      0.14334537088871002,
      0.548052191734314,
      0.4797624945640564,
      0.42101114988327026,
      -1.1070499420166016,
      0.8208234310150146,
      -0.6604495048522949,
      -0.6810213923454285,
      0.5495132207870483,
      -0.8190319538116455,
      0.48306265473365784,
      -0.05304813012480736,
      -0.4191417396068573,
      0.10720919817686081,
      -0.4834662973880768,
      -0.28318193554878235,
      0.050266388803720474,
      -0.08554960787296295,
      -0.6059390902519226,
      -0.6053386926651001,
      0.1565587818622589,
      -0.7876685857772827,
      -0.09279804676771164,
      -0.5450547337532043,
      0.13480620086193085,
      -0.6300139427185059,
      0.4267284870147705,
      0.6378585696220398,
      -0.2931648790836334,
      0.6709885597229004,
      1.150865912437439,
      -1.0148097276687622,
      -1.1891450881958008,
      1.053492546081543,
      0.2354196012020111,
      0.8889941573143005,
      0.17230117321014404,
      -0.16852793097496033,
      -0.921829879283905,
      -0.7725739479064941,
      -0.3725583553314209,
      -1.1716676950454712,
      -0.9814938902854919,
      0.08228915184736252,
      0.9316682815551758,
      -0.6462266445159912,
      0.5214474201202393,
      0.5361721515655518,
      -1.288611650466919,
      0.8147151470184326,
      -1.1685105562210083,
      1.0344973802566528,
      1.3169808387756348,
      -1.1353461742401123,
      0.2266768366098404,
      -0.6589767336845398,
      -0.8003031015396118,
      -0.5585968494415283,
      0.8028956055641174,
      1.2056491374969482,
      -0.1651608645915985,
      1.1848561763763428,
      1.1812201738357544,
      -0.15729111433029175,
      -0.8436658978462219,
      0.6536636352539062,
      -0.9984987378120422,
      -0.9710839986801147,
      1.3229771852493286,
      -0.8493071794509888
    ],
    "b2": [
      -0.7917055487632751,
      0.49916091561317444,
      1.1365119218826294,
      -1.2629605531692505
    ]
  },
  "totalMatches": 128,
  "totalGoalEvents": 723,
  "totalSyncs": 854,
  "updatedAt": "2026-07-22T23:58:03.712Z",
  "progressLog": [
    {
      "ts": "2026-07-03T06:58:45.034Z",
      "generation": 116,
      "fitness": 18.154324026731437,
      "botDelta": 1,
      "aerialTouches": 0
    },
    {
      "ts": "2026-07-03T06:58:45.042Z",
      "generation": 117,
      "fitness": 18.78113447134728,
      "botDelta": 1,
      "aerialTouches": 0
    },
    {
      "ts": "2026-07-03T06:58:45.101Z",
      "generation": 118,
      "fitness": 19.34112032456239,
      "botDelta": 1,
      "aerialTouches": 0
    },
    {
      "ts": "2026-07-03T07:09:32.663Z",
      "generation": 120,
      "fitness": 21.675333841812936,
      "botDelta": 1,
      "aerialTouches": 0
    },
    {
      "ts": "2026-07-03T07:09:32.665Z",
      "generation": 121,
      "fitness": 21.827428400033632,
      "botDelta": 1,
      "aerialTouches": 0
    },
    {
      "ts": "2026-07-03T07:09:32.666Z",
      "generation": 122,
      "fitness": 21.89419426082312,
      "botDelta": 1,
      "aerialTouches": 0
    },
    {
      "ts": "2026-07-03T07:19:12.664Z",
      "generation": 124,
      "fitness": 22.549146070020868,
      "botDelta": 1,
      "aerialTouches": 0
    },
    {
      "ts": "2026-07-03T07:19:12.685Z",
      "generation": 125,
      "fitness": 22.598813618426753,
      "botDelta": 1,
      "aerialTouches": 0
    },
    {
      "ts": "2026-07-03T07:19:12.726Z",
      "generation": 126,
      "fitness": 22.64318608335627,
      "botDelta": 1,
      "aerialTouches": 0
    },
    {
      "ts": "2026-07-03T08:27:55.264Z",
      "generation": 127,
      "fitness": 25.098529826071257,
      "botDelta": -3,
      "aerialTouches": 0
    },
    {
      "ts": "2026-07-03T08:27:55.265Z",
      "generation": 128,
      "fitness": 25.59601076889895,
      "botDelta": -3,
      "aerialTouches": 0
    },
    {
      "ts": "2026-07-03T08:27:55.324Z",
      "generation": 129,
      "fitness": 26.040455006579705,
      "botDelta": -3,
      "aerialTouches": 0
    },
    {
      "ts": "2026-07-03T08:53:08.001Z",
      "generation": 131,
      "fitness": 24.59140309607783,
      "botDelta": 1,
      "aerialTouches": 0
    },
    {
      "ts": "2026-07-03T08:53:08.004Z",
      "generation": 132,
      "fitness": 24.35956924534234,
      "botDelta": 1,
      "aerialTouches": 0
    },
    {
      "ts": "2026-07-03T08:53:08.080Z",
      "generation": 133,
      "fitness": 24.152451323451576,
      "botDelta": 1,
      "aerialTouches": 0
    },
    {
      "ts": "2026-07-03T10:03:27.791Z",
      "generation": 135,
      "fitness": 20.886596304529792,
      "botDelta": -1,
      "aerialTouches": 0
    },
    {
      "ts": "2026-07-03T10:03:27.805Z",
      "generation": 136,
      "fitness": 19.64624792772172,
      "botDelta": -1,
      "aerialTouches": 0
    },
    {
      "ts": "2026-07-03T10:03:27.845Z",
      "generation": 137,
      "fitness": 18.538133744180087,
      "botDelta": -1,
      "aerialTouches": 0
    },
    {
      "ts": "2026-07-03T10:19:08.485Z",
      "generation": 138,
      "fitness": 24.70089174717817,
      "botDelta": -2,
      "aerialTouches": 0
    },
    {
      "ts": "2026-07-03T10:19:08.488Z",
      "generation": 139,
      "fitness": 25.326024056644435,
      "botDelta": -2,
      "aerialTouches": 0
    },
    {
      "ts": "2026-07-03T10:19:08.493Z",
      "generation": 140,
      "fitness": 25.6004421373247,
      "botDelta": -2,
      "aerialTouches": 0
    },
    {
      "ts": "2026-07-03T10:35:24.736Z",
      "generation": 142,
      "fitness": 24.360422263996224,
      "botDelta": 1,
      "aerialTouches": 0
    },
    {
      "ts": "2026-07-03T10:35:24.745Z",
      "generation": 143,
      "fitness": 24.16087887849416,
      "botDelta": 1,
      "aerialTouches": 0
    },
    {
      "ts": "2026-07-03T10:35:24.783Z",
      "generation": 144,
      "fitness": 23.982608918343303,
      "botDelta": 1,
      "aerialTouches": 0
    },
    {
      "ts": "2026-07-03T14:39:48.492Z",
      "generation": 146,
      "fitness": 20.180579222989284,
      "botDelta": -1.3333333333333333,
      "aerialTouches": 0
    },
    {
      "ts": "2026-07-03T15:28:07.271Z",
      "generation": 148,
      "fitness": 21.98001718091728,
      "botDelta": 1,
      "aerialTouches": 0
    },
    {
      "ts": "2026-07-03T15:28:07.273Z",
      "generation": 149,
      "fitness": 22.09488981161723,
      "botDelta": 1,
      "aerialTouches": 0
    },
    {
      "ts": "2026-07-03T15:28:07.274Z",
      "generation": 150,
      "fitness": 22.145316139551362,
      "botDelta": 1,
      "aerialTouches": 0
    },
    {
      "ts": "2026-07-03T16:25:56.367Z",
      "generation": 151,
      "fitness": 25.102417642302434,
      "botDelta": -2.2,
      "aerialTouches": 0
    },
    {
      "ts": "2026-07-03T16:43:22.008Z",
      "generation": 154,
      "fitness": 21.989006741826337,
      "botDelta": -0.6,
      "aerialTouches": 0
    },
    {
      "ts": "2026-07-04T12:40:59.868Z",
      "generation": 156,
      "fitness": 23.013185806896633,
      "botDelta": 1,
      "aerialTouches": 0
    },
    {
      "ts": "2026-07-04T12:40:59.919Z",
      "generation": 157,
      "fitness": 22.998410279241035,
      "botDelta": 1,
      "aerialTouches": 0
    },
    {
      "ts": "2026-07-04T21:12:51.098Z",
      "generation": 158,
      "fitness": 25.13426355876082,
      "botDelta": -5,
      "aerialTouches": 0
    },
    {
      "ts": "2026-07-04T21:12:51.109Z",
      "generation": 159,
      "fitness": 25.62027311578558,
      "botDelta": -5,
      "aerialTouches": 0
    },
    {
      "ts": "2026-07-04T21:12:51.183Z",
      "generation": 160,
      "fitness": 26.05446893814142,
      "botDelta": -5,
      "aerialTouches": 0
    },
    {
      "ts": "2026-07-04T21:34:42.792Z",
      "generation": 162,
      "fitness": 22.733452960968613,
      "botDelta": 0,
      "aerialTouches": 0
    },
    {
      "ts": "2026-07-04T21:34:42.798Z",
      "generation": 163,
      "fitness": 21.9933899541997,
      "botDelta": 0,
      "aerialTouches": 0
    },
    {
      "ts": "2026-07-04T21:34:42.888Z",
      "generation": 164,
      "fitness": 21.33222545408927,
      "botDelta": 0,
      "aerialTouches": 0
    },
    {
      "ts": "2026-07-04T22:08:43.249Z",
      "generation": 166,
      "fitness": 23.187634858231657,
      "botDelta": 1,
      "aerialTouches": 0
    },
    {
      "ts": "2026-07-04T22:08:43.254Z",
      "generation": 167,
      "fitness": 23.15726183202158,
      "botDelta": 1,
      "aerialTouches": 0
    },
    {
      "ts": "2026-07-04T22:08:43.339Z",
      "generation": 168,
      "fitness": 23.130126890121556,
      "botDelta": 1,
      "aerialTouches": 0
    },
    {
      "ts": "2026-07-05T00:42:20.088Z",
      "generation": 169,
      "fitness": 24.98388685024326,
      "botDelta": -3,
      "aerialTouches": 0
    },
    {
      "ts": "2026-07-05T00:42:20.095Z",
      "generation": 170,
      "fitness": 25.518170939743158,
      "botDelta": -3,
      "aerialTouches": 0
    },
    {
      "ts": "2026-07-05T00:42:20.097Z",
      "generation": 171,
      "fitness": 25.75270883221546,
      "botDelta": -3,
      "aerialTouches": 0
    },
    {
      "ts": "2026-07-05T00:51:30.464Z",
      "generation": 172,
      "fitness": 25.227660845301912,
      "botDelta": -5,
      "aerialTouches": 0
    },
    {
      "ts": "2026-07-05T00:51:30.472Z",
      "generation": 173,
      "fitness": 25.6836876318121,
      "botDelta": -5,
      "aerialTouches": 0
    },
    {
      "ts": "2026-07-05T00:51:30.524Z",
      "generation": 174,
      "fitness": 26.091097162598338,
      "botDelta": -5,
      "aerialTouches": 0
    },
    {
      "ts": "2026-07-09T21:07:06.808Z",
      "generation": 176,
      "fitness": 23.310576527556336,
      "botDelta": 1,
      "aerialTouches": 0
    },
    {
      "ts": "2026-07-09T21:07:06.811Z",
      "generation": 177,
      "fitness": 23.264991878039815,
      "botDelta": 1,
      "aerialTouches": 0
    },
    {
      "ts": "2026-07-09T21:07:06.879Z",
      "generation": 178,
      "fitness": 23.22426703200017,
      "botDelta": 1,
      "aerialTouches": 0
    },
    {
      "ts": "2026-07-10T22:14:58.224Z",
      "generation": 183,
      "fitness": 2.8220975111030153,
      "botDelta": -1.3333333333333333,
      "aerialTouches": 0
    },
    {
      "ts": "2026-07-11T17:56:01.606Z",
      "generation": 185,
      "fitness": 2.9771056940685723,
      "botDelta": -1,
      "aerialTouches": 0
    },
    {
      "ts": "2026-07-11T17:56:01.612Z",
      "generation": 186,
      "fitness": 2.032488956204192,
      "botDelta": -1,
      "aerialTouches": 0
    },
    {
      "ts": "2026-07-11T17:56:01.679Z",
      "generation": 187,
      "fitness": 1.4868783284137266,
      "botDelta": -1,
      "aerialTouches": 0
    },
    {
      "ts": "2026-07-11T19:33:53.088Z",
      "generation": 189,
      "fitness": 1.816506839981664,
      "botDelta": -1,
      "aerialTouches": 0
    },
    {
      "ts": "2026-07-11T19:33:53.091Z",
      "generation": 190,
      "fitness": 1.2387622410797927,
      "botDelta": -1,
      "aerialTouches": 0
    },
    {
      "ts": "2026-07-11T19:33:53.117Z",
      "generation": 191,
      "fitness": 0.9851462280322452,
      "botDelta": -1,
      "aerialTouches": 0
    }
  ],
  "githubPushedAt": "2026-07-22T23:58:04.595Z",
  "githubPushReason": "goal"
}