{
  "active": {
    "version": 1,
    "generation": 179,
    "fitness": 4.557077625570776,
    "w1": [
      -0.23579484224319458,
      0.20887716114521027,
      -0.2312323898077011,
      0.3176538646221161,
      0.1947677880525589,
      -0.12567436695098877,
      -0.0009800174739211798,
      -0.2512796223163605,
      -0.40378159284591675,
      0.33213600516319275,
      -0.3911816477775574,
      -0.30453619360923767,
      -0.0016783662140369415,
      0.1297837346792221,
      -0.3164556324481964,
      0.31070417165756226,
      -0.023846451193094254,
      -0.1010909229516983,
      0.33924561738967896,
      -0.37927618622779846,
      0.4322609603404999,
      -0.12973538041114807,
      0.2263282835483551,
      0.0951465293765068,
      0.08946537971496582,
      -0.022958310320973396,
      0.43217557668685913,
      -0.047148171812295914,
      0.002124110935255885,
      -0.2518618404865265,
      -0.19699563086032867,
      0.2679869532585144,
      -0.2813393473625183,
      -0.0820697695016861,
      0.43027275800704956,
      -0.23486097157001495,
      0.3531772792339325,
      -0.19588954746723175,
      -0.028049319982528687,
      -0.18227028846740723,
      0.3489621579647064,
      0.03015490435063839,
      -0.09603341668844223,
      0.088695228099823,
      -0.35829657316207886,
      -0.3060184717178345,
      -0.37785783410072327,
      -0.3224860429763794,
      0.2552228271961212,
      -0.19063743948936462,
      -0.3600720763206482,
      -0.03735583648085594,
      -0.3124585449695587,
      -0.1283467411994934,
      -0.44774776697158813,
      0.15343432128429413,
      -0.22991015017032623,
      -0.17560045421123505,
      0.06079570949077606,
      0.19056877493858337,
      -0.09212470799684525,
      0.12838712334632874,
      -0.3189955949783325,
      -0.2408890724182129,
      -0.36658143997192383,
      0.05969442427158356,
      0.3761533796787262,
      0.40320658683776855,
      -0.3677271902561188,
      -0.011687973514199257,
      -0.3112262487411499,
      -0.04349005967378616,
      -0.3770633041858673,
      0.11389090120792389,
      0.2647555470466614,
      0.22739489376544952,
      -0.20102500915527344,
      0.06018213927745819,
      0.39043858647346497,
      -0.3969862461090088,
      0.1661583036184311,
      0.3547305464744568,
      -0.41199547052383423,
      0.06126625835895538,
      0.4324350357055664,
      -0.15461532771587372,
      0.4394818842411041,
      -0.19525869190692902,
      -0.2664521038532257,
      0.4301856756210327,
      -0.26532304286956787,
      -0.3443063497543335,
      0.20210732519626617,
      0.10219771414995193,
      0.06334297358989716,
      0.2761184871196747,
      -0.2870654761791229,
      -0.36415788531303406,
      0.2969001829624176,
      -0.09801411628723145,
      -0.13751348853111267,
      -0.13370198011398315,
      0.13001900911331177,
      -0.19430170953273773,
      -0.33482426404953003,
      0.038531992584466934,
      0.07737907767295837,
      -0.27416718006134033,
      -0.3256033957004547,
      -0.17248113453388214,
      0.14591659605503082,
      -0.07176867127418518,
      0.061071742326021194,
      -0.2437833547592163,
      -0.272127628326416,
      -0.2124992460012436,
      -0.19246995449066162,
      0.36285778880119324,
      -0.3150466978549957,
      0.10298594832420349,
      -0.10047053545713425,
      -0.20588065683841705,
      -0.2810806334018707,
      0.38827773928642273,
      0.12423671036958694,
      -0.37426549196243286,
      -0.3510907292366028,
      -0.3016813099384308,
      0.006976539734750986,
      0.13710814714431763,
      -0.05918356776237488,
      -0.11683114618062973,
      0.244563028216362,
      -0.20850138366222382,
      -0.24097128212451935,
      -0.41750553250312805,
      0.3180254399776459,
      0.39832866191864014,
      0.03584355115890503,
      -0.10015849769115448,
      -0.10745897889137268,
      -0.14081250131130219,
      0.3788715898990631,
      -0.27924296259880066,
      0.1373874843120575,
      -0.37591302394866943,
      -0.4382590651512146,
      0.2638207972049713,
      0.4237273633480072,
      0.20953404903411865,
      -0.33158501982688904,
      -0.021350793540477753,
      -0.41696301102638245,
      -0.24501772224903107,
      -0.21356439590454102,
      -0.17006519436836243,
      0.33399245142936707,
      0.019224558025598526,
      -0.4305950701236725,
      -0.3684168756008148,
      0.4106252193450928,
      0.14328989386558533,
      -0.08598218113183975,
      -0.3799901306629181,
      0.049559496343135834,
      0.1314065009355545,
      -0.07804234325885773,
      0.08066067099571228,
      -0.08085548877716064,
      0.22659391164779663,
      0.34196779131889343,
      0.16681599617004395,
      -0.20170651376247406,
      -0.31755366921424866,
      -0.3875885605812073,
      -0.025256259366869926,
      0.43784236907958984,
      -0.44232988357543945,
      0.349632203578949,
      0.26426202058792114,
      -0.4377596080303192,
      -0.015062651596963406,
      0.25242799520492554,
      -0.16122546792030334,
      0.19438540935516357,
      -0.30938130617141724,
      0.11795071512460709,
      -0.17615890502929688,
      0.2114160805940628,
      0.3669573962688446,
      -0.21065589785575867,
      0.008345895446836948,
      -0.23572640120983124,
      -0.17675279080867767,
      -0.11956743150949478,
      -0.36267414689064026,
      0.418845534324646,
      0.36757683753967285,
      0.34777313470840454,
      -0.02947838604450226,
      -0.19849584996700287,
      -0.3042967915534973,
      -0.19461682438850403,
      -0.1542862057685852,
      0.15685175359249115,
      0.18861620128154755,
      -0.29754337668418884,
      0.010906738229095936,
      -0.049514345824718475,
      -0.15464279055595398,
      -0.2906193733215332,
      -0.1855774074792862,
      -0.025405030697584152,
      0.3026541471481323,
      -0.31763413548469543,
      -0.23303210735321045,
      -0.1607978194952011,
      0.11793538182973862,
      0.4020023047924042,
      0.31473541259765625,
      -0.3431384265422821,
      0.21728511154651642,
      0.006053484044969082,
      -0.012396425008773804,
      0.3536272644996643,
      0.034902479499578476,
      0.361801415681839,
      -0.08850383758544922,
      -0.1358967423439026,
      -0.004372697323560715,
      0.04825489968061447,
      0.2989645004272461,
      -0.2066119760274887,
      0.11709456890821457,
      0.3435335159301758,
      -0.04294507950544357,
      -0.44627392292022705,
      0.03308038413524628,
      0.4377399981021881,
      0.1765238642692566,
      0.20867919921875,
      -0.3353981375694275,
      -0.2833667993545532,
      0.19146312773227692,
      -0.017370494082570076,
      -0.009666677564382553,
      -0.01358537096530199,
      0.4233977198600769,
      -0.38157278299331665,
      -0.007098468020558357,
      -0.16505950689315796,
      0.24891899526119232,
      -0.009004568681120872,
      -0.4173777997493744,
      -0.3503277897834778,
      -0.2450847625732422,
      -0.1902957260608673,
      -0.3747594654560089,
      0.037677571177482605,
      -0.12953728437423706,
      -0.33267268538475037,
      0.32523807883262634,
      0.01799526996910572,
      -0.010560967028141022,
      0.018392352387309074,
      0.3412684500217438,
      -0.21832479536533356,
      -0.3770780861377716,
      -0.205260768532753,
      0.1352846771478653,
      0.4398069977760315,
      0.04543547332286835,
      -0.10890267789363861,
      -0.2180798202753067,
      -0.29515060782432556,
      0.32410678267478943,
      -0.22150512039661407,
      -0.3103136420249939,
      -0.22442719340324402,
      0.34479501843452454,
      0.02831300161778927,
      0.31054890155792236,
      -0.17907212674617767,
      0.274255633354187,
      0.3547966778278351,
      -0.16055423021316528,
      -0.3168480396270752,
      -0.37759751081466675,
      0.10883520543575287,
      -0.06969121098518372,
      0.24542675912380219,
      0.19372990727424622,
      0.28082484006881714,
      -0.01984817162156105,
      -0.36560097336769104,
      0.3419574201107025,
      -0.004574190359562635,
      0.3577878475189209,
      -0.04712295904755592,
      -0.3330402374267578,
      -0.39397355914115906,
      0.07873738557100296,
      -0.13698448240756989,
      0.21804437041282654,
      0.22172681987285614,
      -0.14710921049118042,
      -0.13469885289669037,
      0.3926392197608948,
      -0.3753455579280853,
      0.05648712441325188,
      -0.35634854435920715,
      0.4444531798362732,
      0.06042443960905075,
      -0.3950282633304596,
      0.3719395101070404,
      0.04017157852649689,
      0.4095567762851715,
      0.12829533219337463,
      -0.09774313122034073,
      0.0287493783980608,
      0.37266311049461365,
      0.27521705627441406,
      -0.41977277398109436,
      0.11236461997032166,
      0.42721545696258545,
      0.2981737554073334,
      0.2576834261417389,
      -0.3669056296348572,
      0.4387095868587494,
      0.39527827501296997,
      0.3980203866958618,
      -0.08562399446964264,
      0.03403547406196594,
      -0.08899068087339401,
      0.39453598856925964,
      -0.3786841034889221,
      -0.43013298511505127,
      0.22215481102466583,
      0.347072958946228,
      0.02890857309103012,
      -0.14611588418483734,
      -0.03942791372537613,
      0.36727407574653625,
      0.41222822666168213,
      -0.09836101531982422,
      0.24932673573493958,
      0.10776304453611374,
      -0.0023443778045475483,
      0.33687978982925415,
      0.053772952407598495,
      -0.16443638503551483,
      -0.26079750061035156,
      -0.4318564236164093,
      -0.2258622795343399,
      0.19506964087486267,
      0.10899624973535538,
      -0.20056873559951782,
      -0.0688285157084465,
      -0.16912169754505157,
      0.31598711013793945,
      -0.3422226011753082,
      0.021427705883979797,
      0.1657991260290146,
      0.09194066375494003,
      -0.05447341874241829,
      0.14373376965522766,
      -0.14564870297908783,
      0.008777902461588383,
      -0.24987025558948517,
      0.12341583520174026,
      0.35706180334091187,
      0.11632547527551651,
      -0.03072776086628437,
      0.08584015816450119,
      0.20587675273418427,
      -0.3854614198207855,
      0.03414658457040787,
      0.3558332026004791,
      -0.14400145411491394,
      -0.40074098110198975,
      -0.0613178089261055,
      -0.3154568374156952,
      -0.35553863644599915,
      0.34557095170021057,
      0.10754462331533432,
      0.030305635184049606,
      -0.2992427349090576,
      0.11781670153141022,
      -0.03928307816386223,
      0.24507524073123932,
      0.07982590049505234,
      0.02033531852066517,
      -0.1425246000289917,
      -0.0570133812725544,
      -0.3872804343700409,
      -0.17201374471187592,
      -0.37242749333381653,
      -0.047393471002578735,
      0.2952568829059601,
      -0.3394792973995209,
      -0.2775607109069824,
      0.37943997979164124,
      -0.0400228425860405,
      0.08986307680606842,
      0.444219708442688,
      0.23025277256965637,
      0.3017079830169678,
      -0.20563480257987976,
      0.3354496657848358,
      0.07577281445264816,
      -0.04794137179851532,
      -0.0009044472826644778,
      0.43719297647476196,
      -0.4466669261455536,
      0.1231517419219017,
      -0.033773697912693024,
      -0.25155311822891235,
      -0.26398181915283203,
      0.16590583324432373,
      0.4245803654193878,
      -0.15537044405937195,
      -0.08012231439352036,
      0.2131810188293457,
      -0.3475987911224365,
      -0.06203770264983177,
      0.20576800405979156,
      0.40310055017471313,
      -0.44759219884872437,
      -0.11244146525859833,
      -0.12261408567428589,
      -0.0971393808722496,
      -0.31680288910865784,
      0.09203249216079712,
      -0.19794411957263947,
      0.07834098488092422,
      -0.26394298672676086,
      0.02243991196155548,
      0.20583383738994598,
      0.17982882261276245,
      -0.3287484645843506,
      0.07836318761110306,
      -0.2005101591348648,
      0.23916837573051453,
      -0.4471585154533386,
      -0.02504633739590645,
      -0.24306784570217133,
      -0.0013510558055713773,
      0.4461026191711426,
      -0.30625665187835693,
      0.07263519614934921,
      0.016943544149398804,
      -0.13339586555957794,
      0.2550387978553772,
      0.34963399171829224,
      -0.37758904695510864,
      -0.20499050617218018,
      -0.0052907089702785015,
      0.19464735686779022,
      0.1090734526515007,
      -0.4033372104167938,
      0.25318238139152527,
      0.021892722696065903,
      0.19558294117450714,
      0.410022497177124,
      0.4094586670398712,
      -0.3078453838825226,
      -0.2075122445821762,
      0.0930054560303688,
      0.2179587185382843,
      -0.1613302081823349,
      0.4481127858161926,
      0.3413035571575165,
      -0.26898542046546936,
      0.15639100968837738,
      0.06836539506912231,
      0.11773557215929031,
      -0.08518175035715103,
      -0.043807502835989,
      0.4307796061038971,
      0.15669652819633484,
      0.09163965284824371,
      0.2105790674686432,
      0.33811113238334656,
      0.33276739716529846,
      0.26612675189971924,
      0.24246183037757874,
      -0.31820452213287354,
      -0.19245262444019318,
      0.41850006580352783,
      0.43356266617774963,
      0.31058210134506226,
      0.19377128779888153,
      -0.12754566967487335,
      0.05401024967432022,
      -0.27534323930740356,
      -0.3992253243923187,
      0.07057961076498032,
      0.23968984186649323,
      -0.05943555012345314,
      -0.14963097870349884,
      -0.08488550037145615,
      -0.131090447306633,
      0.09724591672420502,
      -0.12281026691198349,
      0.05684378743171692,
      0.21494556963443756,
      0.09849977493286133,
      -0.14742089807987213,
      0.3399532437324524,
      0.27602866291999817,
      -0.3878170847892761,
      0.2960670590400696,
      0.03565383329987526,
      0.009334650821983814,
      0.37146180868148804,
      -0.43648794293403625,
      -0.07761192321777344,
      0.12054137885570526,
      0.1484268605709076,
      -0.37403541803359985,
      0.09543081372976303,
      -0.11448558419942856,
      0.29538285732269287,
      -0.32168421149253845,
      0.21369712054729462,
      0.1056843027472496,
      0.37412747740745544,
      -0.35820603370666504,
      0.11656966060400009,
      -0.37632235884666443,
      0.41853052377700806,
      -0.15062911808490753,
      -0.1314418613910675,
      0.1507645696401596,
      0.10072676092386246,
      -0.37185898423194885,
      0.3146032392978668,
      0.1826852560043335,
      -0.40376588702201843,
      0.41773584485054016,
      0.05383763834834099,
      0.40541768074035645,
      -0.03168947622179985,
      0.3888358175754547,
      0.264616459608078,
      0.017449304461479187,
      0.216861292719841,
      0.15084250271320343,
      0.23862987756729126,
      -0.3798846900463104,
      0.06220991164445877,
      -0.2372267246246338,
      0.006910223979502916,
      -0.4474343955516815,
      -0.2409554272890091,
      -0.11355867236852646,
      -0.3344539999961853,
      -0.12707681953907013,
      0.16085299849510193,
      0.34598320722579956,
      -0.36608436703681946,
      0.31219661235809326,
      0.18015798926353455,
      0.38279664516448975,
      0.0032530243042856455,
      -0.3474912643432617,
      -0.1851336508989334,
      -0.2800491750240326,
      0.058357905596494675,
      -0.3937956988811493,
      0.03604353219270706,
      -0.22486795485019684,
      0.180262953042984,
      -0.40260088443756104,
      0.0574265792965889,
      0.08618690073490143,
      -0.43732941150665283,
      -0.3274671137332916,
      -0.06801217794418335,
      -0.36167436838150024,
      -0.40002819895744324,
      0.1914888173341751,
      0.44586190581321716,
      0.40704819560050964,
      -0.370340496301651,
      -0.22415830194950104,
      -0.2950514256954193,
      -0.14414459466934204,
      -0.16305126249790192,
      0.4157976806163788,
      0.4345037341117859,
      -0.14719223976135254,
      0.254416823387146,
      0.06238790228962898,
      -0.06296872347593307,
      0.2949945032596588,
      0.31447502970695496,
      0.05647849664092064,
      -0.3212117850780487,
      -0.04502484202384949,
      0.03748520463705063,
      0.07115945219993591,
      -0.299784392118454,
      0.2882564961910248,
      -0.3366668224334717,
      0.2690750062465668,
      -0.02939225733280182,
      0.0658668652176857,
      0.15927179157733917,
      0.0012577882735058665,
      0.4323320984840393,
      0.42109084129333496,
      0.06184598430991173,
      -0.3009704351425171,
      -0.19508735835552216,
      -0.37557342648506165,
      -0.36428770422935486,
      0.23553068935871124,
      -0.25571125745773315,
      0.32582804560661316,
      0.15716558694839478,
      -0.34155890345573425,
      -0.4224373698234558,
      0.028295425698161125,
      -0.14481493830680847,
      0.02045511268079281,
      0.3585473895072937,
      -0.3181249499320984,
      -0.03218747302889824,
      0.3590727746486664,
      0.3144283890724182,
      -0.18786753714084625,
      0.39667508006095886,
      -0.19773006439208984,
      -0.021149571985006332,
      -0.2778395414352417,
      -0.23253516852855682,
      -0.09839010238647461,
      0.43174317479133606,
      0.23218481242656708,
      -0.3708118498325348,
      0.019358843564987183,
      -0.10880260914564133,
      -0.154169961810112,
      0.1499970257282257,
      -0.37883228063583374,
      0.427704393863678,
      -0.34289196133613586,
      0.09241485595703125,
      -0.04911690577864647,
      -0.10392861068248749,
      0.1371917873620987,
      -0.32423070073127747,
      -0.41095075011253357,
      0.20532503724098206,
      0.16503654420375824,
      -0.24135532975196838,
      0.22166435420513153,
      0.2719157636165619,
      -0.10908854752779007,
      -0.0008335961028933525,
      -0.42924702167510986,
      -0.1734645962715149,
      0.2469036877155304,
      -0.2240700125694275,
      -0.036682501435279846,
      -0.030139390379190445,
      0.24345771968364716,
      -0.42261311411857605,
      0.04023086652159691,
      0.09753455221652985,
      -0.28398770093917847
    ],
    "b1": [
      -0.02388884127140045,
      0.0736963152885437,
      0.008822082541882992,
      0.024621685966849327,
      0.057884905487298965,
      -0.07768978178501129,
      0.06342042982578278,
      -0.061365582048892975,
      -0.0972387045621872,
      -0.004397360607981682,
      -0.06952991336584091,
      -0.03725741431117058,
      -0.05274553224444389,
      -0.008915462531149387,
      0.03686642274260521,
      -0.07062578946352005,
      0.051673877984285355,
      -0.09103461354970932,
      0.05825742334127426,
      -0.017524585127830505,
      -0.0633888840675354,
      0.07023179531097412,
      0.02281562238931656,
      0.020296066999435425,
      -0.04209670051932335,
      0.03492141515016556,
      0.017549164593219757,
      0.0711832270026207,
      -0.08930202573537827,
      -0.00128278904594481,
      0.012776893563568592,
      -0.09449256956577301
    ],
    "w2": [
      0.014601054601371288,
      0.4319413900375366,
      -0.1332337111234665,
      0.16581039130687714,
      -0.040329232811927795,
      0.39326950907707214,
      0.2319425642490387,
      -0.3800082504749298,
      -0.3962835669517517,
      -0.17910747230052948,
      -0.047947946935892105,
      -0.14476490020751953,
      -0.3920091986656189,
      0.08725541830062866,
      -0.2597953677177429,
      -0.07454704493284225,
      -0.4101022779941559,
      0.4398858845233917,
      -0.02789023332297802,
      0.023156924173235893,
      0.2910892963409424,
      -0.16647055745124817,
      -0.3867933750152588,
      -0.34597575664520264,
      -0.26879289746284485,
      0.22566330432891846,
      0.21971993148326874,
      0.12249965965747833,
      -0.04491916671395302,
      0.4369516968727112,
      0.23395423591136932,
      0.09249479323625565,
      -0.19380375742912292,
      -0.3967948853969574,
      0.11913885176181793,
      0.21224786341190338,
      -0.21575479209423065,
      -0.22959403693675995,
      0.4041360914707184,
      -0.28259408473968506,
      0.26957035064697266,
      0.10936304181814194,
      0.1333252638578415,
      -0.3486078083515167,
      -0.17768339812755585,
      -0.24844245612621307,
      -0.158024862408638,
      -0.33287858963012695,
      -0.4108976721763611,
      0.3727429211139679,
      -0.09758315980434418,
      -0.10087522864341736,
      0.27502259612083435,
      -0.1241389587521553,
      -0.288669615983963,
      -0.17985199391841888,
      -0.036203280091285706,
      0.24983751773834229,
      -0.18654324114322662,
      -0.2787156105041504,
      0.3938732147216797,
      -0.19418184459209442,
      0.28204837441444397,
      -0.12029454857110977,
      -0.17669616639614105,
      -0.38259053230285645,
      -0.2986297011375427,
      -0.09694812446832657,
      0.341200053691864,
      0.21648554503917694,
      0.22156473994255066,
      0.06454700231552124,
      0.10858377814292908,
      -0.07887609302997589,
      0.08119136095046997,
      0.3678954839706421,
      -0.26355472207069397,
      0.09723260998725891,
      0.21775580942630768,
      -0.3939703404903412,
      0.033820562064647675,
      0.3804314136505127,
      -0.3884609043598175,
      -0.3972339332103729,
      0.0837007537484169,
      0.40974926948547363,
      0.1330401450395584,
      0.2514345049858093,
      0.32958611845970154,
      -0.35029923915863037,
      -0.410655677318573,
      -0.01045753713697195,
      0.2804970145225525,
      -0.2976961135864258,
      -0.41026991605758667,
      0.37353697419166565,
      -0.4327456057071686,
      0.2356017827987671,
      0.17582634091377258,
      0.1427268385887146,
      -0.3921576142311096,
      -0.3197490870952606,
      0.18663334846496582,
      0.38642728328704834,
      -0.2353346049785614,
      0.37073808908462524,
      0.05371919274330139,
      0.3533899486064911,
      0.10151209682226181,
      0.032788895070552826,
      0.34690457582473755,
      -0.3324194848537445,
      -0.3269607722759247,
      0.3435300290584564,
      0.4157484769821167,
      0.4393664300441742,
      0.2045871913433075,
      -0.38403192162513733,
      -0.10285308212041855,
      0.28617721796035767,
      0.04514024779200554,
      -0.11565271019935608,
      -0.21564224362373352,
      -0.09829982370138168,
      0.40124377608299255,
      0.3919484317302704,
      -0.022236479446291924,
      0.4376734793186188,
      0.18469101190567017,
      0.10789195448160172,
      0.3626852035522461,
      0.38733965158462524,
      0.13179190456867218,
      -0.27549272775650024,
      0.08455917984247208,
      0.08462141454219818,
      0.17703638970851898,
      0.11183112859725952,
      -0.18320989608764648,
      -0.34191688895225525,
      0.38896480202674866,
      -0.1692027896642685,
      0.34159186482429504,
      -0.0962606817483902,
      -0.19894233345985413,
      -0.06832016259431839,
      -0.010870516300201416,
      -0.43422597646713257,
      0.29545778036117554,
      0.18935389816761017,
      0.005274253431707621,
      -0.16076789796352386,
      0.42233654856681824,
      -0.048066187649965286,
      0.1432846188545227,
      0.13374629616737366,
      0.26271745562553406,
      -0.09564615041017532,
      0.29972535371780396,
      -0.037638451904058456,
      -0.032430775463581085,
      0.3734523355960846,
      -0.06006240099668503,
      0.44451966881752014,
      0.030980678275227547,
      0.12612226605415344,
      -0.11662796884775162,
      0.037266649305820465,
      -0.11976952850818634,
      -0.16290904581546783,
      0.44409793615341187,
      0.033744990825653076,
      -0.3094363808631897,
      0.22789086401462555,
      0.04680054634809494,
      -0.40696609020233154,
      -0.2425123155117035,
      0.40358448028564453,
      -0.43642091751098633,
      -0.10960053652524948,
      0.08440091460943222,
      0.338805615901947,
      -0.1581418216228485,
      0.30201759934425354,
      0.36836495995521545,
      -0.010320417582988739,
      -0.08127498626708984,
      0.3632320761680603,
      -0.10816538333892822,
      0.33318468928337097,
      0.042004749178886414,
      -0.13558976352214813,
      -0.2468428909778595,
      0.16051776707172394,
      0.34338676929473877,
      -0.42654114961624146,
      0.19365336000919342,
      -0.22397391498088837,
      -0.26608583331108093,
      -0.10093732923269272,
      0.40409383177757263,
      -0.4217318892478943,
      -0.18285095691680908,
      0.433708131313324,
      0.31838133931159973,
      -0.2752343714237213,
      -0.059673942625522614,
      -0.059445418417453766,
      -0.37274640798568726,
      0.10701005905866623,
      0.3288067579269409,
      0.17321594059467316,
      0.26981744170188904,
      0.08728469908237457,
      -0.1258527636528015,
      0.04251469671726227,
      -0.014272082597017288,
      0.37386631965637207,
      -0.32890844345092773,
      0.1692713052034378,
      -0.16417577862739563,
      -0.2638320028781891,
      0.2238033562898636,
      0.28719112277030945,
      0.22403524816036224,
      0.1863856315612793,
      0.26664844155311584,
      0.0849115327000618,
      -0.2216329127550125,
      0.2792114019393921,
      -0.03015960194170475,
      -0.09872830659151077,
      -0.02621486969292164,
      -0.3938244879245758,
      -0.17473772168159485,
      -0.28713250160217285,
      -0.2951967716217041,
      -0.013820146210491657,
      0.23277629911899567,
      -0.4220457971096039,
      0.24059222638607025,
      -0.12121480703353882,
      -0.1676655411720276,
      0.42575907707214355,
      -0.1795792430639267,
      0.3718150556087494,
      -0.14779753983020782,
      -0.1947331726551056,
      -0.32775962352752686,
      -0.0801616907119751,
      0.36860930919647217,
      -0.06745975464582443,
      0.2622278034687042,
      0.23509331047534943,
      -0.2028646618127823,
      -0.2993616759777069,
      0.10809668898582458,
      0.057415809482336044,
      0.16115079820156097,
      0.1411946415901184,
      -0.1860085427761078,
      -0.3452666103839874,
      0.20761799812316895,
      -0.048281583935022354,
      -0.19022440910339355,
      0.430688738822937,
      0.06556898355484009,
      0.22768068313598633,
      0.30252698063850403,
      0.4409542977809906,
      -0.0324283204972744,
      -0.03655189275741577,
      -0.42694711685180664,
      0.3448009788990021,
      0.07949667423963547,
      0.11112699657678604,
      -0.4247632622718811,
      0.3434830904006958,
      -0.2911026179790497,
      0.011379948817193508,
      0.12102976441383362,
      0.38200223445892334,
      -0.21268408000469208,
      -0.06472233682870865,
      0.058899328112602234,
      -0.08418729901313782,
      0.1468273401260376,
      0.30124837160110474,
      -0.221452996134758,
      0.06903063505887985,
      0.43613460659980774,
      0.05618755519390106,
      -0.4002913534641266,
      0.43570971488952637,
      0.24652673304080963,
      -0.3652099370956421,
      -0.37215110659599304,
      0.10074570029973984,
      -0.35698699951171875,
      -0.26383233070373535,
      -0.31543710827827454,
      0.08197227865457535,
      -0.2790548801422119,
      -0.018185889348387718,
      -0.05450263246893883,
      0.12001106888055801,
      0.333440363407135,
      -0.056019626557826996,
      0.4436037540435791,
      0.06743776798248291,
      -0.44008198380470276,
      -0.14147748053073883,
      -0.37946397066116333,
      0.15382736921310425,
      -0.2889385521411896,
      0.3612848222255707,
      0.4340053200721741,
      0.028240716084837914,
      -0.3094814419746399,
      -0.08791959285736084,
      0.35390427708625793,
      0.30571499466896057,
      -0.34134694933891296,
      -0.40466782450675964,
      0.3050132393836975,
      -0.23067940771579742,
      0.06865892559289932,
      0.011436311528086662,
      0.33910125494003296,
      -0.3956530690193176,
      -0.1296493113040924,
      0.3979109525680542,
      0.4442337453365326,
      0.1661795973777771,
      -0.19805797934532166,
      0.4443925619125366,
      -0.07589997351169586,
      0.3084315359592438,
      -0.1848749816417694,
      0.09054234623908997,
      -0.19482728838920593,
      -0.37710949778556824,
      -0.296237051486969,
      0.02092551440000534,
      0.3545116186141968,
      -0.3321545720100403,
      -0.3684915006160736,
      0.39592549204826355,
      0.4160248041152954,
      -0.41364559531211853,
      0.17866061627864838,
      0.08275597542524338,
      0.09799902886152267,
      -0.2589837610721588,
      -0.04642810299992561,
      -0.22436709702014923,
      -0.430287629365921,
      0.21680866181850433,
      -0.16108065843582153,
      0.01916939578950405,
      0.4499413073062897,
      0.1685553938150406,
      -0.23184910416603088,
      -0.2259444147348404,
      0.2951747179031372,
      -0.2854154407978058,
      0.2524202764034271,
      -0.41091373562812805,
      -0.27965232729911804,
      0.0031410108786076307,
      0.40332260727882385,
      0.16859854757785797,
      -0.39009302854537964,
      0.0031151887960731983,
      -0.2782568335533142,
      -0.050617631524801254,
      0.30202147364616394,
      -0.40434932708740234,
      0.3481321930885315,
      0.02612597681581974,
      -0.4462507665157318,
      -0.13180668652057648,
      0.3945176899433136,
      -0.21054084599018097
    ],
    "b2": [
      -0.040005698800086975,
      -0.03610128536820412,
      -0.04365125671029091,
      0.03681258484721184,
      -0.08801651000976562,
      -0.03256019949913025,
      -0.02110549993813038,
      0.016014225780963898,
      -0.07509104907512665,
      -0.07566742599010468,
      -0.0744900107383728,
      -0.03837575763463974
    ]
  },
  "best": {
    "version": 1,
    "generation": 179,
    "fitness": 4.557077625570776,
    "w1": [
      -0.23579484224319458,
      0.20887716114521027,
      -0.2312323898077011,
      0.3176538646221161,
      0.1947677880525589,
      -0.12567436695098877,
      -0.0009800174739211798,
      -0.2512796223163605,
      -0.40378159284591675,
      0.33213600516319275,
      -0.3911816477775574,
      -0.30453619360923767,
      -0.0016783662140369415,
      0.1297837346792221,
      -0.3164556324481964,
      0.31070417165756226,
      -0.023846451193094254,
      -0.1010909229516983,
      0.33924561738967896,
      -0.37927618622779846,
      0.4322609603404999,
      -0.12973538041114807,
      0.2263282835483551,
      0.0951465293765068,
      0.08946537971496582,
      -0.022958310320973396,
      0.43217557668685913,
      -0.047148171812295914,
      0.002124110935255885,
      -0.2518618404865265,
      -0.19699563086032867,
      0.2679869532585144,
      -0.2813393473625183,
      -0.0820697695016861,
      0.43027275800704956,
      -0.23486097157001495,
      0.3531772792339325,
      -0.19588954746723175,
      -0.028049319982528687,
      -0.18227028846740723,
      0.3489621579647064,
      0.03015490435063839,
      -0.09603341668844223,
      0.088695228099823,
      -0.35829657316207886,
      -0.3060184717178345,
      -0.37785783410072327,
      -0.3224860429763794,
      0.2552228271961212,
      -0.19063743948936462,
      -0.3600720763206482,
      -0.03735583648085594,
      -0.3124585449695587,
      -0.1283467411994934,
      -0.44774776697158813,
      0.15343432128429413,
      -0.22991015017032623,
      -0.17560045421123505,
      0.06079570949077606,
      0.19056877493858337,
      -0.09212470799684525,
      0.12838712334632874,
      -0.3189955949783325,
      -0.2408890724182129,
      -0.36658143997192383,
      0.05969442427158356,
      0.3761533796787262,
      0.40320658683776855,
      -0.3677271902561188,
      -0.011687973514199257,
      -0.3112262487411499,
      -0.04349005967378616,
      -0.3770633041858673,
      0.11389090120792389,
      0.2647555470466614,
      0.22739489376544952,
      -0.20102500915527344,
      0.06018213927745819,
      0.39043858647346497,
      -0.3969862461090088,
      0.1661583036184311,
      0.3547305464744568,
      -0.41199547052383423,
      0.06126625835895538,
      0.4324350357055664,
      -0.15461532771587372,
      0.4394818842411041,
      -0.19525869190692902,
      -0.2664521038532257,
      0.4301856756210327,
      -0.26532304286956787,
      -0.3443063497543335,
      0.20210732519626617,
      0.10219771414995193,
      0.06334297358989716,
      0.2761184871196747,
      -0.2870654761791229,
      -0.36415788531303406,
      0.2969001829624176,
      -0.09801411628723145,
      -0.13751348853111267,
      -0.13370198011398315,
      0.13001900911331177,
      -0.19430170953273773,
      -0.33482426404953003,
      0.038531992584466934,
      0.07737907767295837,
      -0.27416718006134033,
      -0.3256033957004547,
      -0.17248113453388214,
      0.14591659605503082,
      -0.07176867127418518,
      0.061071742326021194,
      -0.2437833547592163,
      -0.272127628326416,
      -0.2124992460012436,
      -0.19246995449066162,
      0.36285778880119324,
      -0.3150466978549957,
      0.10298594832420349,
      -0.10047053545713425,
      -0.20588065683841705,
      -0.2810806334018707,
      0.38827773928642273,
      0.12423671036958694,
      -0.37426549196243286,
      -0.3510907292366028,
      -0.3016813099384308,
      0.006976539734750986,
      0.13710814714431763,
      -0.05918356776237488,
      -0.11683114618062973,
      0.244563028216362,
      -0.20850138366222382,
      -0.24097128212451935,
      -0.41750553250312805,
      0.3180254399776459,
      0.39832866191864014,
      0.03584355115890503,
      -0.10015849769115448,
      -0.10745897889137268,
      -0.14081250131130219,
      0.3788715898990631,
      -0.27924296259880066,
      0.1373874843120575,
      -0.37591302394866943,
      -0.4382590651512146,
      0.2638207972049713,
      0.4237273633480072,
      0.20953404903411865,
      -0.33158501982688904,
      -0.021350793540477753,
      -0.41696301102638245,
      -0.24501772224903107,
      -0.21356439590454102,
      -0.17006519436836243,
      0.33399245142936707,
      0.019224558025598526,
      -0.4305950701236725,
      -0.3684168756008148,
      0.4106252193450928,
      0.14328989386558533,
      -0.08598218113183975,
      -0.3799901306629181,
      0.049559496343135834,
      0.1314065009355545,
      -0.07804234325885773,
      0.08066067099571228,
      -0.08085548877716064,
      0.22659391164779663,
      0.34196779131889343,
      0.16681599617004395,
      -0.20170651376247406,
      -0.31755366921424866,
      -0.3875885605812073,
      -0.025256259366869926,
      0.43784236907958984,
      -0.44232988357543945,
      0.349632203578949,
      0.26426202058792114,
      -0.4377596080303192,
      -0.015062651596963406,
      0.25242799520492554,
      -0.16122546792030334,
      0.19438540935516357,
      -0.30938130617141724,
      0.11795071512460709,
      -0.17615890502929688,
      0.2114160805940628,
      0.3669573962688446,
      -0.21065589785575867,
      0.008345895446836948,
      -0.23572640120983124,
      -0.17675279080867767,
      -0.11956743150949478,
      -0.36267414689064026,
      0.418845534324646,
      0.36757683753967285,
      0.34777313470840454,
      -0.02947838604450226,
      -0.19849584996700287,
      -0.3042967915534973,
      -0.19461682438850403,
      -0.1542862057685852,
      0.15685175359249115,
      0.18861620128154755,
      -0.29754337668418884,
      0.010906738229095936,
      -0.049514345824718475,
      -0.15464279055595398,
      -0.2906193733215332,
      -0.1855774074792862,
      -0.025405030697584152,
      0.3026541471481323,
      -0.31763413548469543,
      -0.23303210735321045,
      -0.1607978194952011,
      0.11793538182973862,
      0.4020023047924042,
      0.31473541259765625,
      -0.3431384265422821,
      0.21728511154651642,
      0.006053484044969082,
      -0.012396425008773804,
      0.3536272644996643,
      0.034902479499578476,
      0.361801415681839,
      -0.08850383758544922,
      -0.1358967423439026,
      -0.004372697323560715,
      0.04825489968061447,
      0.2989645004272461,
      -0.2066119760274887,
      0.11709456890821457,
      0.3435335159301758,
      -0.04294507950544357,
      -0.44627392292022705,
      0.03308038413524628,
      0.4377399981021881,
      0.1765238642692566,
      0.20867919921875,
      -0.3353981375694275,
      -0.2833667993545532,
      0.19146312773227692,
      -0.017370494082570076,
      -0.009666677564382553,
      -0.01358537096530199,
      0.4233977198600769,
      -0.38157278299331665,
      -0.007098468020558357,
      -0.16505950689315796,
      0.24891899526119232,
      -0.009004568681120872,
      -0.4173777997493744,
      -0.3503277897834778,
      -0.2450847625732422,
      -0.1902957260608673,
      -0.3747594654560089,
      0.037677571177482605,
      -0.12953728437423706,
      -0.33267268538475037,
      0.32523807883262634,
      0.01799526996910572,
      -0.010560967028141022,
      0.018392352387309074,
      0.3412684500217438,
      -0.21832479536533356,
      -0.3770780861377716,
      -0.205260768532753,
      0.1352846771478653,
      0.4398069977760315,
      0.04543547332286835,
      -0.10890267789363861,
      -0.2180798202753067,
      -0.29515060782432556,
      0.32410678267478943,
      -0.22150512039661407,
      -0.3103136420249939,
      -0.22442719340324402,
      0.34479501843452454,
      0.02831300161778927,
      0.31054890155792236,
      -0.17907212674617767,
      0.274255633354187,
      0.3547966778278351,
      -0.16055423021316528,
      -0.3168480396270752,
      -0.37759751081466675,
      0.10883520543575287,
      -0.06969121098518372,
      0.24542675912380219,
      0.19372990727424622,
      0.28082484006881714,
      -0.01984817162156105,
      -0.36560097336769104,
      0.3419574201107025,
      -0.004574190359562635,
      0.3577878475189209,
      -0.04712295904755592,
      -0.3330402374267578,
      -0.39397355914115906,
      0.07873738557100296,
      -0.13698448240756989,
      0.21804437041282654,
      0.22172681987285614,
      -0.14710921049118042,
      -0.13469885289669037,
      0.3926392197608948,
      -0.3753455579280853,
      0.05648712441325188,
      -0.35634854435920715,
      0.4444531798362732,
      0.06042443960905075,
      -0.3950282633304596,
      0.3719395101070404,
      0.04017157852649689,
      0.4095567762851715,
      0.12829533219337463,
      -0.09774313122034073,
      0.0287493783980608,
      0.37266311049461365,
      0.27521705627441406,
      -0.41977277398109436,
      0.11236461997032166,
      0.42721545696258545,
      0.2981737554073334,
      0.2576834261417389,
      -0.3669056296348572,
      0.4387095868587494,
      0.39527827501296997,
      0.3980203866958618,
      -0.08562399446964264,
      0.03403547406196594,
      -0.08899068087339401,
      0.39453598856925964,
      -0.3786841034889221,
      -0.43013298511505127,
      0.22215481102466583,
      0.347072958946228,
      0.02890857309103012,
      -0.14611588418483734,
      -0.03942791372537613,
      0.36727407574653625,
      0.41222822666168213,
      -0.09836101531982422,
      0.24932673573493958,
      0.10776304453611374,
      -0.0023443778045475483,
      0.33687978982925415,
      0.053772952407598495,
      -0.16443638503551483,
      -0.26079750061035156,
      -0.4318564236164093,
      -0.2258622795343399,
      0.19506964087486267,
      0.10899624973535538,
      -0.20056873559951782,
      -0.0688285157084465,
      -0.16912169754505157,
      0.31598711013793945,
      -0.3422226011753082,
      0.021427705883979797,
      0.1657991260290146,
      0.09194066375494003,
      -0.05447341874241829,
      0.14373376965522766,
      -0.14564870297908783,
      0.008777902461588383,
      -0.24987025558948517,
      0.12341583520174026,
      0.35706180334091187,
      0.11632547527551651,
      -0.03072776086628437,
      0.08584015816450119,
      0.20587675273418427,
      -0.3854614198207855,
      0.03414658457040787,
      0.3558332026004791,
      -0.14400145411491394,
      -0.40074098110198975,
      -0.0613178089261055,
      -0.3154568374156952,
      -0.35553863644599915,
      0.34557095170021057,
      0.10754462331533432,
      0.030305635184049606,
      -0.2992427349090576,
      0.11781670153141022,
      -0.03928307816386223,
      0.24507524073123932,
      0.07982590049505234,
      0.02033531852066517,
      -0.1425246000289917,
      -0.0570133812725544,
      -0.3872804343700409,
      -0.17201374471187592,
      -0.37242749333381653,
      -0.047393471002578735,
      0.2952568829059601,
      -0.3394792973995209,
      -0.2775607109069824,
      0.37943997979164124,
      -0.0400228425860405,
      0.08986307680606842,
      0.444219708442688,
      0.23025277256965637,
      0.3017079830169678,
      -0.20563480257987976,
      0.3354496657848358,
      0.07577281445264816,
      -0.04794137179851532,
      -0.0009044472826644778,
      0.43719297647476196,
      -0.4466669261455536,
      0.1231517419219017,
      -0.033773697912693024,
      -0.25155311822891235,
      -0.26398181915283203,
      0.16590583324432373,
      0.4245803654193878,
      -0.15537044405937195,
      -0.08012231439352036,
      0.2131810188293457,
      -0.3475987911224365,
      -0.06203770264983177,
      0.20576800405979156,
      0.40310055017471313,
      -0.44759219884872437,
      -0.11244146525859833,
      -0.12261408567428589,
      -0.0971393808722496,
      -0.31680288910865784,
      0.09203249216079712,
      -0.19794411957263947,
      0.07834098488092422,
      -0.26394298672676086,
      0.02243991196155548,
      0.20583383738994598,
      0.17982882261276245,
      -0.3287484645843506,
      0.07836318761110306,
      -0.2005101591348648,
      0.23916837573051453,
      -0.4471585154533386,
      -0.02504633739590645,
      -0.24306784570217133,
      -0.0013510558055713773,
      0.4461026191711426,
      -0.30625665187835693,
      0.07263519614934921,
      0.016943544149398804,
      -0.13339586555957794,
      0.2550387978553772,
      0.34963399171829224,
      -0.37758904695510864,
      -0.20499050617218018,
      -0.0052907089702785015,
      0.19464735686779022,
      0.1090734526515007,
      -0.4033372104167938,
      0.25318238139152527,
      0.021892722696065903,
      0.19558294117450714,
      0.410022497177124,
      0.4094586670398712,
      -0.3078453838825226,
      -0.2075122445821762,
      0.0930054560303688,
      0.2179587185382843,
      -0.1613302081823349,
      0.4481127858161926,
      0.3413035571575165,
      -0.26898542046546936,
      0.15639100968837738,
      0.06836539506912231,
      0.11773557215929031,
      -0.08518175035715103,
      -0.043807502835989,
      0.4307796061038971,
      0.15669652819633484,
      0.09163965284824371,
      0.2105790674686432,
      0.33811113238334656,
      0.33276739716529846,
      0.26612675189971924,
      0.24246183037757874,
      -0.31820452213287354,
      -0.19245262444019318,
      0.41850006580352783,
      0.43356266617774963,
      0.31058210134506226,
      0.19377128779888153,
      -0.12754566967487335,
      0.05401024967432022,
      -0.27534323930740356,
      -0.3992253243923187,
      0.07057961076498032,
      0.23968984186649323,
      -0.05943555012345314,
      -0.14963097870349884,
      -0.08488550037145615,
      -0.131090447306633,
      0.09724591672420502,
      -0.12281026691198349,
      0.05684378743171692,
      0.21494556963443756,
      0.09849977493286133,
      -0.14742089807987213,
      0.3399532437324524,
      0.27602866291999817,
      -0.3878170847892761,
      0.2960670590400696,
      0.03565383329987526,
      0.009334650821983814,
      0.37146180868148804,
      -0.43648794293403625,
      -0.07761192321777344,
      0.12054137885570526,
      0.1484268605709076,
      -0.37403541803359985,
      0.09543081372976303,
      -0.11448558419942856,
      0.29538285732269287,
      -0.32168421149253845,
      0.21369712054729462,
      0.1056843027472496,
      0.37412747740745544,
      -0.35820603370666504,
      0.11656966060400009,
      -0.37632235884666443,
      0.41853052377700806,
      -0.15062911808490753,
      -0.1314418613910675,
      0.1507645696401596,
      0.10072676092386246,
      -0.37185898423194885,
      0.3146032392978668,
      0.1826852560043335,
      -0.40376588702201843,
      0.41773584485054016,
      0.05383763834834099,
      0.40541768074035645,
      -0.03168947622179985,
      0.3888358175754547,
      0.264616459608078,
      0.017449304461479187,
      0.216861292719841,
      0.15084250271320343,
      0.23862987756729126,
      -0.3798846900463104,
      0.06220991164445877,
      -0.2372267246246338,
      0.006910223979502916,
      -0.4474343955516815,
      -0.2409554272890091,
      -0.11355867236852646,
      -0.3344539999961853,
      -0.12707681953907013,
      0.16085299849510193,
      0.34598320722579956,
      -0.36608436703681946,
      0.31219661235809326,
      0.18015798926353455,
      0.38279664516448975,
      0.0032530243042856455,
      -0.3474912643432617,
      -0.1851336508989334,
      -0.2800491750240326,
      0.058357905596494675,
      -0.3937956988811493,
      0.03604353219270706,
      -0.22486795485019684,
      0.180262953042984,
      -0.40260088443756104,
      0.0574265792965889,
      0.08618690073490143,
      -0.43732941150665283,
      -0.3274671137332916,
      -0.06801217794418335,
      -0.36167436838150024,
      -0.40002819895744324,
      0.1914888173341751,
      0.44586190581321716,
      0.40704819560050964,
      -0.370340496301651,
      -0.22415830194950104,
      -0.2950514256954193,
      -0.14414459466934204,
      -0.16305126249790192,
      0.4157976806163788,
      0.4345037341117859,
      -0.14719223976135254,
      0.254416823387146,
      0.06238790228962898,
      -0.06296872347593307,
      0.2949945032596588,
      0.31447502970695496,
      0.05647849664092064,
      -0.3212117850780487,
      -0.04502484202384949,
      0.03748520463705063,
      0.07115945219993591,
      -0.299784392118454,
      0.2882564961910248,
      -0.3366668224334717,
      0.2690750062465668,
      -0.02939225733280182,
      0.0658668652176857,
      0.15927179157733917,
      0.0012577882735058665,
      0.4323320984840393,
      0.42109084129333496,
      0.06184598430991173,
      -0.3009704351425171,
      -0.19508735835552216,
      -0.37557342648506165,
      -0.36428770422935486,
      0.23553068935871124,
      -0.25571125745773315,
      0.32582804560661316,
      0.15716558694839478,
      -0.34155890345573425,
      -0.4224373698234558,
      0.028295425698161125,
      -0.14481493830680847,
      0.02045511268079281,
      0.3585473895072937,
      -0.3181249499320984,
      -0.03218747302889824,
      0.3590727746486664,
      0.3144283890724182,
      -0.18786753714084625,
      0.39667508006095886,
      -0.19773006439208984,
      -0.021149571985006332,
      -0.2778395414352417,
      -0.23253516852855682,
      -0.09839010238647461,
      0.43174317479133606,
      0.23218481242656708,
      -0.3708118498325348,
      0.019358843564987183,
      -0.10880260914564133,
      -0.154169961810112,
      0.1499970257282257,
      -0.37883228063583374,
      0.427704393863678,
      -0.34289196133613586,
      0.09241485595703125,
      -0.04911690577864647,
      -0.10392861068248749,
      0.1371917873620987,
      -0.32423070073127747,
      -0.41095075011253357,
      0.20532503724098206,
      0.16503654420375824,
      -0.24135532975196838,
      0.22166435420513153,
      0.2719157636165619,
      -0.10908854752779007,
      -0.0008335961028933525,
      -0.42924702167510986,
      -0.1734645962715149,
      0.2469036877155304,
      -0.2240700125694275,
      -0.036682501435279846,
      -0.030139390379190445,
      0.24345771968364716,
      -0.42261311411857605,
      0.04023086652159691,
      0.09753455221652985,
      -0.28398770093917847
    ],
    "b1": [
      -0.02388884127140045,
      0.0736963152885437,
      0.008822082541882992,
      0.024621685966849327,
      0.057884905487298965,
      -0.07768978178501129,
      0.06342042982578278,
      -0.061365582048892975,
      -0.0972387045621872,
      -0.004397360607981682,
      -0.06952991336584091,
      -0.03725741431117058,
      -0.05274553224444389,
      -0.008915462531149387,
      0.03686642274260521,
      -0.07062578946352005,
      0.051673877984285355,
      -0.09103461354970932,
      0.05825742334127426,
      -0.017524585127830505,
      -0.0633888840675354,
      0.07023179531097412,
      0.02281562238931656,
      0.020296066999435425,
      -0.04209670051932335,
      0.03492141515016556,
      0.017549164593219757,
      0.0711832270026207,
      -0.08930202573537827,
      -0.00128278904594481,
      0.012776893563568592,
      -0.09449256956577301
    ],
    "w2": [
      0.014601054601371288,
      0.4319413900375366,
      -0.1332337111234665,
      0.16581039130687714,
      -0.040329232811927795,
      0.39326950907707214,
      0.2319425642490387,
      -0.3800082504749298,
      -0.3962835669517517,
      -0.17910747230052948,
      -0.047947946935892105,
      -0.14476490020751953,
      -0.3920091986656189,
      0.08725541830062866,
      -0.2597953677177429,
      -0.07454704493284225,
      -0.4101022779941559,
      0.4398858845233917,
      -0.02789023332297802,
      0.023156924173235893,
      0.2910892963409424,
      -0.16647055745124817,
      -0.3867933750152588,
      -0.34597575664520264,
      -0.26879289746284485,
      0.22566330432891846,
      0.21971993148326874,
      0.12249965965747833,
      -0.04491916671395302,
      0.4369516968727112,
      0.23395423591136932,
      0.09249479323625565,
      -0.19380375742912292,
      -0.3967948853969574,
      0.11913885176181793,
      0.21224786341190338,
      -0.21575479209423065,
      -0.22959403693675995,
      0.4041360914707184,
      -0.28259408473968506,
      0.26957035064697266,
      0.10936304181814194,
      0.1333252638578415,
      -0.3486078083515167,
      -0.17768339812755585,
      -0.24844245612621307,
      -0.158024862408638,
      -0.33287858963012695,
      -0.4108976721763611,
      0.3727429211139679,
      -0.09758315980434418,
      -0.10087522864341736,
      0.27502259612083435,
      -0.1241389587521553,
      -0.288669615983963,
      -0.17985199391841888,
      -0.036203280091285706,
      0.24983751773834229,
      -0.18654324114322662,
      -0.2787156105041504,
      0.3938732147216797,
      -0.19418184459209442,
      0.28204837441444397,
      -0.12029454857110977,
      -0.17669616639614105,
      -0.38259053230285645,
      -0.2986297011375427,
      -0.09694812446832657,
      0.341200053691864,
      0.21648554503917694,
      0.22156473994255066,
      0.06454700231552124,
      0.10858377814292908,
      -0.07887609302997589,
      0.08119136095046997,
      0.3678954839706421,
      -0.26355472207069397,
      0.09723260998725891,
      0.21775580942630768,
      -0.3939703404903412,
      0.033820562064647675,
      0.3804314136505127,
      -0.3884609043598175,
      -0.3972339332103729,
      0.0837007537484169,
      0.40974926948547363,
      0.1330401450395584,
      0.2514345049858093,
      0.32958611845970154,
      -0.35029923915863037,
      -0.410655677318573,
      -0.01045753713697195,
      0.2804970145225525,
      -0.2976961135864258,
      -0.41026991605758667,
      0.37353697419166565,
      -0.4327456057071686,
      0.2356017827987671,
      0.17582634091377258,
      0.1427268385887146,
      -0.3921576142311096,
      -0.3197490870952606,
      0.18663334846496582,
      0.38642728328704834,
      -0.2353346049785614,
      0.37073808908462524,
      0.05371919274330139,
      0.3533899486064911,
      0.10151209682226181,
      0.032788895070552826,
      0.34690457582473755,
      -0.3324194848537445,
      -0.3269607722759247,
      0.3435300290584564,
      0.4157484769821167,
      0.4393664300441742,
      0.2045871913433075,
      -0.38403192162513733,
      -0.10285308212041855,
      0.28617721796035767,
      0.04514024779200554,
      -0.11565271019935608,
      -0.21564224362373352,
      -0.09829982370138168,
      0.40124377608299255,
      0.3919484317302704,
      -0.022236479446291924,
      0.4376734793186188,
      0.18469101190567017,
      0.10789195448160172,
      0.3626852035522461,
      0.38733965158462524,
      0.13179190456867218,
      -0.27549272775650024,
      0.08455917984247208,
      0.08462141454219818,
      0.17703638970851898,
      0.11183112859725952,
      -0.18320989608764648,
      -0.34191688895225525,
      0.38896480202674866,
      -0.1692027896642685,
      0.34159186482429504,
      -0.0962606817483902,
      -0.19894233345985413,
      -0.06832016259431839,
      -0.010870516300201416,
      -0.43422597646713257,
      0.29545778036117554,
      0.18935389816761017,
      0.005274253431707621,
      -0.16076789796352386,
      0.42233654856681824,
      -0.048066187649965286,
      0.1432846188545227,
      0.13374629616737366,
      0.26271745562553406,
      -0.09564615041017532,
      0.29972535371780396,
      -0.037638451904058456,
      -0.032430775463581085,
      0.3734523355960846,
      -0.06006240099668503,
      0.44451966881752014,
      0.030980678275227547,
      0.12612226605415344,
      -0.11662796884775162,
      0.037266649305820465,
      -0.11976952850818634,
      -0.16290904581546783,
      0.44409793615341187,
      0.033744990825653076,
      -0.3094363808631897,
      0.22789086401462555,
      0.04680054634809494,
      -0.40696609020233154,
      -0.2425123155117035,
      0.40358448028564453,
      -0.43642091751098633,
      -0.10960053652524948,
      0.08440091460943222,
      0.338805615901947,
      -0.1581418216228485,
      0.30201759934425354,
      0.36836495995521545,
      -0.010320417582988739,
      -0.08127498626708984,
      0.3632320761680603,
      -0.10816538333892822,
      0.33318468928337097,
      0.042004749178886414,
      -0.13558976352214813,
      -0.2468428909778595,
      0.16051776707172394,
      0.34338676929473877,
      -0.42654114961624146,
      0.19365336000919342,
      -0.22397391498088837,
      -0.26608583331108093,
      -0.10093732923269272,
      0.40409383177757263,
      -0.4217318892478943,
      -0.18285095691680908,
      0.433708131313324,
      0.31838133931159973,
      -0.2752343714237213,
      -0.059673942625522614,
      -0.059445418417453766,
      -0.37274640798568726,
      0.10701005905866623,
      0.3288067579269409,
      0.17321594059467316,
      0.26981744170188904,
      0.08728469908237457,
      -0.1258527636528015,
      0.04251469671726227,
      -0.014272082597017288,
      0.37386631965637207,
      -0.32890844345092773,
      0.1692713052034378,
      -0.16417577862739563,
      -0.2638320028781891,
      0.2238033562898636,
      0.28719112277030945,
      0.22403524816036224,
      0.1863856315612793,
      0.26664844155311584,
      0.0849115327000618,
      -0.2216329127550125,
      0.2792114019393921,
      -0.03015960194170475,
      -0.09872830659151077,
      -0.02621486969292164,
      -0.3938244879245758,
      -0.17473772168159485,
      -0.28713250160217285,
      -0.2951967716217041,
      -0.013820146210491657,
      0.23277629911899567,
      -0.4220457971096039,
      0.24059222638607025,
      -0.12121480703353882,
      -0.1676655411720276,
      0.42575907707214355,
      -0.1795792430639267,
      0.3718150556087494,
      -0.14779753983020782,
      -0.1947331726551056,
      -0.32775962352752686,
      -0.0801616907119751,
      0.36860930919647217,
      -0.06745975464582443,
      0.2622278034687042,
      0.23509331047534943,
      -0.2028646618127823,
      -0.2993616759777069,
      0.10809668898582458,
      0.057415809482336044,
      0.16115079820156097,
      0.1411946415901184,
      -0.1860085427761078,
      -0.3452666103839874,
      0.20761799812316895,
      -0.048281583935022354,
      -0.19022440910339355,
      0.430688738822937,
      0.06556898355484009,
      0.22768068313598633,
      0.30252698063850403,
      0.4409542977809906,
      -0.0324283204972744,
      -0.03655189275741577,
      -0.42694711685180664,
      0.3448009788990021,
      0.07949667423963547,
      0.11112699657678604,
      -0.4247632622718811,
      0.3434830904006958,
      -0.2911026179790497,
      0.011379948817193508,
      0.12102976441383362,
      0.38200223445892334,
      -0.21268408000469208,
      -0.06472233682870865,
      0.058899328112602234,
      -0.08418729901313782,
      0.1468273401260376,
      0.30124837160110474,
      -0.221452996134758,
      0.06903063505887985,
      0.43613460659980774,
      0.05618755519390106,
      -0.4002913534641266,
      0.43570971488952637,
      0.24652673304080963,
      -0.3652099370956421,
      -0.37215110659599304,
      0.10074570029973984,
      -0.35698699951171875,
      -0.26383233070373535,
      -0.31543710827827454,
      0.08197227865457535,
      -0.2790548801422119,
      -0.018185889348387718,
      -0.05450263246893883,
      0.12001106888055801,
      0.333440363407135,
      -0.056019626557826996,
      0.4436037540435791,
      0.06743776798248291,
      -0.44008198380470276,
      -0.14147748053073883,
      -0.37946397066116333,
      0.15382736921310425,
      -0.2889385521411896,
      0.3612848222255707,
      0.4340053200721741,
      0.028240716084837914,
      -0.3094814419746399,
      -0.08791959285736084,
      0.35390427708625793,
      0.30571499466896057,
      -0.34134694933891296,
      -0.40466782450675964,
      0.3050132393836975,
      -0.23067940771579742,
      0.06865892559289932,
      0.011436311528086662,
      0.33910125494003296,
      -0.3956530690193176,
      -0.1296493113040924,
      0.3979109525680542,
      0.4442337453365326,
      0.1661795973777771,
      -0.19805797934532166,
      0.4443925619125366,
      -0.07589997351169586,
      0.3084315359592438,
      -0.1848749816417694,
      0.09054234623908997,
      -0.19482728838920593,
      -0.37710949778556824,
      -0.296237051486969,
      0.02092551440000534,
      0.3545116186141968,
      -0.3321545720100403,
      -0.3684915006160736,
      0.39592549204826355,
      0.4160248041152954,
      -0.41364559531211853,
      0.17866061627864838,
      0.08275597542524338,
      0.09799902886152267,
      -0.2589837610721588,
      -0.04642810299992561,
      -0.22436709702014923,
      -0.430287629365921,
      0.21680866181850433,
      -0.16108065843582153,
      0.01916939578950405,
      0.4499413073062897,
      0.1685553938150406,
      -0.23184910416603088,
      -0.2259444147348404,
      0.2951747179031372,
      -0.2854154407978058,
      0.2524202764034271,
      -0.41091373562812805,
      -0.27965232729911804,
      0.0031410108786076307,
      0.40332260727882385,
      0.16859854757785797,
      -0.39009302854537964,
      0.0031151887960731983,
      -0.2782568335533142,
      -0.050617631524801254,
      0.30202147364616394,
      -0.40434932708740234,
      0.3481321930885315,
      0.02612597681581974,
      -0.4462507665157318,
      -0.13180668652057648,
      0.3945176899433136,
      -0.21054084599018097
    ],
    "b2": [
      -0.040005698800086975,
      -0.03610128536820412,
      -0.04365125671029091,
      0.03681258484721184,
      -0.08801651000976562,
      -0.03256019949913025,
      -0.02110549993813038,
      0.016014225780963898,
      -0.07509104907512665,
      -0.07566742599010468,
      -0.0744900107383728,
      -0.03837575763463974
    ]
  },
  "totalMatches": 121,
  "totalGoalEvents": 631,
  "totalSyncs": 753,
  "updatedAt": "2026-07-10T13:26:43.538Z",
  "progressLog": [
    {
      "ts": "2026-07-03T06:58:45.034Z",
      "generation": 116,
      "fitness": 18.154324026731437,
      "botDelta": 1,
      "aerialTouches": 0
    },
    {
      "ts": "2026-07-03T06:58:45.042Z",
      "generation": 117,
      "fitness": 18.78113447134728,
      "botDelta": 1,
      "aerialTouches": 0
    },
    {
      "ts": "2026-07-03T06:58:45.101Z",
      "generation": 118,
      "fitness": 19.34112032456239,
      "botDelta": 1,
      "aerialTouches": 0
    },
    {
      "ts": "2026-07-03T07:09:32.663Z",
      "generation": 120,
      "fitness": 21.675333841812936,
      "botDelta": 1,
      "aerialTouches": 0
    },
    {
      "ts": "2026-07-03T07:09:32.665Z",
      "generation": 121,
      "fitness": 21.827428400033632,
      "botDelta": 1,
      "aerialTouches": 0
    },
    {
      "ts": "2026-07-03T07:09:32.666Z",
      "generation": 122,
      "fitness": 21.89419426082312,
      "botDelta": 1,
      "aerialTouches": 0
    },
    {
      "ts": "2026-07-03T07:19:12.664Z",
      "generation": 124,
      "fitness": 22.549146070020868,
      "botDelta": 1,
      "aerialTouches": 0
    },
    {
      "ts": "2026-07-03T07:19:12.685Z",
      "generation": 125,
      "fitness": 22.598813618426753,
      "botDelta": 1,
      "aerialTouches": 0
    },
    {
      "ts": "2026-07-03T07:19:12.726Z",
      "generation": 126,
      "fitness": 22.64318608335627,
      "botDelta": 1,
      "aerialTouches": 0
    },
    {
      "ts": "2026-07-03T08:27:55.264Z",
      "generation": 127,
      "fitness": 25.098529826071257,
      "botDelta": -3,
      "aerialTouches": 0
    },
    {
      "ts": "2026-07-03T08:27:55.265Z",
      "generation": 128,
      "fitness": 25.59601076889895,
      "botDelta": -3,
      "aerialTouches": 0
    },
    {
      "ts": "2026-07-03T08:27:55.324Z",
      "generation": 129,
      "fitness": 26.040455006579705,
      "botDelta": -3,
      "aerialTouches": 0
    },
    {
      "ts": "2026-07-03T08:53:08.001Z",
      "generation": 131,
      "fitness": 24.59140309607783,
      "botDelta": 1,
      "aerialTouches": 0
    },
    {
      "ts": "2026-07-03T08:53:08.004Z",
      "generation": 132,
      "fitness": 24.35956924534234,
      "botDelta": 1,
      "aerialTouches": 0
    },
    {
      "ts": "2026-07-03T08:53:08.080Z",
      "generation": 133,
      "fitness": 24.152451323451576,
      "botDelta": 1,
      "aerialTouches": 0
    },
    {
      "ts": "2026-07-03T10:03:27.791Z",
      "generation": 135,
      "fitness": 20.886596304529792,
      "botDelta": -1,
      "aerialTouches": 0
    },
    {
      "ts": "2026-07-03T10:03:27.805Z",
      "generation": 136,
      "fitness": 19.64624792772172,
      "botDelta": -1,
      "aerialTouches": 0
    },
    {
      "ts": "2026-07-03T10:03:27.845Z",
      "generation": 137,
      "fitness": 18.538133744180087,
      "botDelta": -1,
      "aerialTouches": 0
    },
    {
      "ts": "2026-07-03T10:19:08.485Z",
      "generation": 138,
      "fitness": 24.70089174717817,
      "botDelta": -2,
      "aerialTouches": 0
    },
    {
      "ts": "2026-07-03T10:19:08.488Z",
      "generation": 139,
      "fitness": 25.326024056644435,
      "botDelta": -2,
      "aerialTouches": 0
    },
    {
      "ts": "2026-07-03T10:19:08.493Z",
      "generation": 140,
      "fitness": 25.6004421373247,
      "botDelta": -2,
      "aerialTouches": 0
    },
    {
      "ts": "2026-07-03T10:35:24.736Z",
      "generation": 142,
      "fitness": 24.360422263996224,
      "botDelta": 1,
      "aerialTouches": 0
    },
    {
      "ts": "2026-07-03T10:35:24.745Z",
      "generation": 143,
      "fitness": 24.16087887849416,
      "botDelta": 1,
      "aerialTouches": 0
    },
    {
      "ts": "2026-07-03T10:35:24.783Z",
      "generation": 144,
      "fitness": 23.982608918343303,
      "botDelta": 1,
      "aerialTouches": 0
    },
    {
      "ts": "2026-07-03T14:39:48.492Z",
      "generation": 146,
      "fitness": 20.180579222989284,
      "botDelta": -1.3333333333333333,
      "aerialTouches": 0
    },
    {
      "ts": "2026-07-03T15:28:07.271Z",
      "generation": 148,
      "fitness": 21.98001718091728,
      "botDelta": 1,
      "aerialTouches": 0
    },
    {
      "ts": "2026-07-03T15:28:07.273Z",
      "generation": 149,
      "fitness": 22.09488981161723,
      "botDelta": 1,
      "aerialTouches": 0
    },
    {
      "ts": "2026-07-03T15:28:07.274Z",
      "generation": 150,
      "fitness": 22.145316139551362,
      "botDelta": 1,
      "aerialTouches": 0
    },
    {
      "ts": "2026-07-03T16:25:56.367Z",
      "generation": 151,
      "fitness": 25.102417642302434,
      "botDelta": -2.2,
      "aerialTouches": 0
    },
    {
      "ts": "2026-07-03T16:43:22.008Z",
      "generation": 154,
      "fitness": 21.989006741826337,
      "botDelta": -0.6,
      "aerialTouches": 0
    },
    {
      "ts": "2026-07-04T12:40:59.868Z",
      "generation": 156,
      "fitness": 23.013185806896633,
      "botDelta": 1,
      "aerialTouches": 0
    },
    {
      "ts": "2026-07-04T12:40:59.919Z",
      "generation": 157,
      "fitness": 22.998410279241035,
      "botDelta": 1,
      "aerialTouches": 0
    },
    {
      "ts": "2026-07-04T21:12:51.098Z",
      "generation": 158,
      "fitness": 25.13426355876082,
      "botDelta": -5,
      "aerialTouches": 0
    },
    {
      "ts": "2026-07-04T21:12:51.109Z",
      "generation": 159,
      "fitness": 25.62027311578558,
      "botDelta": -5,
      "aerialTouches": 0
    },
    {
      "ts": "2026-07-04T21:12:51.183Z",
      "generation": 160,
      "fitness": 26.05446893814142,
      "botDelta": -5,
      "aerialTouches": 0
    },
    {
      "ts": "2026-07-04T21:34:42.792Z",
      "generation": 162,
      "fitness": 22.733452960968613,
      "botDelta": 0,
      "aerialTouches": 0
    },
    {
      "ts": "2026-07-04T21:34:42.798Z",
      "generation": 163,
      "fitness": 21.9933899541997,
      "botDelta": 0,
      "aerialTouches": 0
    },
    {
      "ts": "2026-07-04T21:34:42.888Z",
      "generation": 164,
      "fitness": 21.33222545408927,
      "botDelta": 0,
      "aerialTouches": 0
    },
    {
      "ts": "2026-07-04T22:08:43.249Z",
      "generation": 166,
      "fitness": 23.187634858231657,
      "botDelta": 1,
      "aerialTouches": 0
    },
    {
      "ts": "2026-07-04T22:08:43.254Z",
      "generation": 167,
      "fitness": 23.15726183202158,
      "botDelta": 1,
      "aerialTouches": 0
    },
    {
      "ts": "2026-07-04T22:08:43.339Z",
      "generation": 168,
      "fitness": 23.130126890121556,
      "botDelta": 1,
      "aerialTouches": 0
    },
    {
      "ts": "2026-07-05T00:42:20.088Z",
      "generation": 169,
      "fitness": 24.98388685024326,
      "botDelta": -3,
      "aerialTouches": 0
    },
    {
      "ts": "2026-07-05T00:42:20.095Z",
      "generation": 170,
      "fitness": 25.518170939743158,
      "botDelta": -3,
      "aerialTouches": 0
    },
    {
      "ts": "2026-07-05T00:42:20.097Z",
      "generation": 171,
      "fitness": 25.75270883221546,
      "botDelta": -3,
      "aerialTouches": 0
    },
    {
      "ts": "2026-07-05T00:51:30.464Z",
      "generation": 172,
      "fitness": 25.227660845301912,
      "botDelta": -5,
      "aerialTouches": 0
    },
    {
      "ts": "2026-07-05T00:51:30.472Z",
      "generation": 173,
      "fitness": 25.6836876318121,
      "botDelta": -5,
      "aerialTouches": 0
    },
    {
      "ts": "2026-07-05T00:51:30.524Z",
      "generation": 174,
      "fitness": 26.091097162598338,
      "botDelta": -5,
      "aerialTouches": 0
    },
    {
      "ts": "2026-07-09T21:07:06.808Z",
      "generation": 176,
      "fitness": 23.310576527556336,
      "botDelta": 1,
      "aerialTouches": 0
    },
    {
      "ts": "2026-07-09T21:07:06.811Z",
      "generation": 177,
      "fitness": 23.264991878039815,
      "botDelta": 1,
      "aerialTouches": 0
    },
    {
      "ts": "2026-07-09T21:07:06.879Z",
      "generation": 178,
      "fitness": 23.22426703200017,
      "botDelta": 1,
      "aerialTouches": 0
    }
  ]
}