{
  "active": {
    "version": 1,
    "generation": 191,
    "fitness": 4.2121212039438625,
    "w1": [
      2248.987929193646,
      175.43422409554967,
      2638.9200031989067,
      -270.0973580482098,
      896.4422690365584,
      1572.0798066801108,
      -2245.3607341182064,
      -1590.8506804659062,
      -75.69387990971934,
      2207.917741350519,
      1936.1042620669218,
      3579.3826646314546,
      793.8935513735623,
      -2356.0336554419036,
      -0.3025302718701245,
      4326.7361639422525,
      2395.1419321924163,
      1792.0414980026303,
      5426.2208633487335,
      4562.954967160421,
      -45.47439944545907,
      2245.4069750135145,
      172.78038961276184,
      2639.6753872159,
      -272.90374177725755,
      891.8617006523335,
      1569.810601771352,
      -2236.386746531032,
      -1586.16550984672,
      -72.97602017805634,
      2203.845364001047,
      1936.9303090534959,
      3573.722490609396,
      793.5618319990455,
      -2353.4996831138083,
      -0.10208075233726174,
      4320.908996838502,
      2394.286637399786,
      1782.3321671004928,
      5415.490505568711,
      4557.363111871884,
      -43.207031647107115,
      -2240.8228558231476,
      -175.22542395035055,
      -2630.7304653716483,
      270.10900079106335,
      -896.4707487485306,
      -1568.405202039022,
      2236.091320630985,
      1581.0805896239292,
      71.90190682780195,
      -2199.1964700234266,
      -1926.8303196155825,
      -3563.883116364316,
      -789.0401054094278,
      2351.694294105654,
      -0.20762910766032713,
      -4309.850645183298,
      -2385.701156038194,
      -1784.8052150299136,
      -5404.240906090457,
      -4545.055363341282,
      45.05081857817352,
      2241.971038401978,
      174.76939026695297,
      2633.550932673925,
      -269.74535065380815,
      895.1134648659695,
      1568.8328384169433,
      -2236.0252683065296,
      -1582.3893325975023,
      -71.35510638811691,
      2201.8219857231625,
      1929.7883644149465,
      3568.829195540411,
      791.1540400040149,
      -2352.8049444693165,
      0.06723195036350606,
      4314.564495716356,
      2387.9950653584806,
      1786.1751544013528,
      5409.220303076979,
      4550.043292487111,
      -44.8056248097858,
      2244.029342104729,
      173.78519261632027,
      2637.6962274037824,
      -271.7059716835044,
      896.3548539964395,
      1567.908866788744,
      -2234.512100886962,
      -1584.9493333353234,
      -70.99553398534928,
      2203.447286357795,
      1935.4258055596067,
      3574.0431639137682,
      793.1840744478184,
      -2352.671641655711,
      0.3210015273976168,
      4319.270430912093,
      2392.729027747798,
      1783.7544792950916,
      5414.485102368681,
      4556.064675095431,
      -43.88968906316481,
      2259.385651541541,
      174.0266360529342,
      2649.7428154242393,
      -279.11238820100493,
      895.2880801402785,
      1580.8599157753802,
      -2260.4232232179324,
      -1597.2253712729816,
      -76.96652388141491,
      2221.1786637668874,
      1947.897246927374,
      3596.90562524361,
      798.2698670704735,
      -2367.4678267377753,
      0.2339459420212862,
      4349.072213138513,
      2405.685276658272,
      1798.2972944689568,
      5453.831184020631,
      4585.707182375982,
      -46.710697941215216,
      -2239.2921691919714,
      -176.28856899601277,
      -2628.8945320809585,
      269.72575982812083,
      -894.9000074041412,
      -1567.7330343579272,
      2233.1428104299134,
      1581.7872301126235,
      71.87750438840332,
      -2199.317514970255,
      -1925.2435947530962,
      -3563.229785377053,
      -788.5814061709423,
      2351.2064469175225,
      -0.11418218951922532,
      -4308.643517164283,
      -2383.7688225489446,
      -1787.3320783436905,
      -5402.4090482355705,
      -4544.818709766435,
      45.0119750067241,
      -2247.0626452671904,
      -171.68404035073323,
      -2641.1889272462854,
      275.5409704380695,
      -893.8867468649655,
      -1571.5746672542252,
      2238.836653841012,
      1588.3682143758738,
      71.78500674264671,
      -2207.174267517509,
      -1938.9004056288672,
      -3580.2976011280907,
      -795.1430713703514,
      2357.485874361174,
      0.2972426949110912,
      -4326.690985892718,
      -2396.9622309877805,
      -1787.576830149267,
      -5424.727617660361,
      -4563.80459680924,
      45.703802348176794,
      -2258.3427382147784,
      -172.5736343584115,
      -2650.3577161653043,
      277.96678178980375,
      -895.8384799044848,
      -1578.828888245611,
      2261.243965421606,
      1595.2940702927613,
      79.31925493388626,
      -2222.7780416598443,
      -1950.737814317799,
      -3598.2713149328215,
      -799.8927637547562,
      2365.248462376828,
      0.28041259148122766,
      -4351.474567509572,
      -2406.5359079579175,
      -1800.6710748136818,
      -5454.0965756620135,
      -4587.433344378791,
      44.752707065247264,
      -2244.0374607898657,
      -174.2866099706494,
      -2637.095997972511,
      272.7472677795194,
      -897.2738448400896,
      -1567.8786615396516,
      2234.1175843265287,
      1585.31001480124,
      71.306151408099,
      -2202.1219201123386,
      -1933.996758911938,
      -3572.301373681362,
      -792.884274271159,
      2352.240016117253,
      -0.13624247963401612,
      -4317.054889739159,
      -2392.4776132090624,
      -1782.0060933832228,
      -5413.02619214237,
      -4554.605412126826,
      43.6015626557064,
      2239.325957639613,
      175.19712439976357,
      2629.5715562003857,
      -270.4400042172251,
      896.1252891351676,
      1566.884453395261,
      -2238.7020721520175,
      -1580.0589707260247,
      -74.0165103503142,
      2197.4207764123303,
      1925.7021378005074,
      3561.659240352025,
      788.926075079692,
      -2348.6784663631774,
      0.3286472934778983,
      4306.933442080815,
      2385.6560372645426,
      1786.5044763661465,
      5399.433705264182,
      4541.882712410559,
      -43.97753912468271,
      2244.191095893177,
      175.51321127602495,
      2633.554655383657,
      -270.06816200686023,
      894.9962274596572,
      1570.294267384572,
      -2238.271979403558,
      -1582.9059205801368,
      -71.62683292116061,
      2202.3931855585342,
      1928.3330648034312,
      3568.0684040132774,
      790.1585168093015,
      -2353.834049397656,
      0.13503358959809567,
      4314.560670143447,
      2389.1157857946737,
      1786.0946432416017,
      5410.490067104823,
      4550.589013344916,
      -45.461663292557574,
      2235.989249514683,
      175.65804632236728,
      2626.177672754937,
      -268.5841184757405,
      893.192788420773,
      1566.2047225731699,
      -2232.212920322804,
      -1579.9175452946076,
      -75.42882473089082,
      2193.414998595485,
      1922.531571018434,
      3555.2773632925273,
      786.2120544207967,
      -2347.9143960818233,
      -0.21839311957525545,
      4299.638376135755,
      2381.4108098581064,
      1784.5081258939858,
      5391.156527544298,
      4534.4053141000495,
      -45.51954354733083,
      2256.885198564579,
      172.98947695827954,
      2647.8989802827036,
      -278.5946572000416,
      894.6414561247755,
      1578.9255584735104,
      -2258.0656728344134,
      -1596.0593832277987,
      -76.91701360863202,
      2218.347052845043,
      1946.198366536,
      3593.3021665416627,
      796.4919821402117,
      -2365.9092377814063,
      -0.23944897162138185,
      4344.921234786572,
      2403.3313097340674,
      1797.8079237856123,
      5448.274450139448,
      4580.873806961944,
      -46.35812040926922,
      -2245.20383107644,
      -173.15008024406686,
      -2638.2947904889065,
      273.69947305763503,
      -896.2024497704834,
      -1569.181551808785,
      2235.9697952124816,
      1585.7912291260175,
      71.33482809284322,
      -2204.2937833188416,
      -1936.2627803097741,
      -3575.461763940514,
      -794.5414629160398,
      2353.4372104128506,
      -0.3550234430984515,
      -4320.649457094869,
      -2394.0928541165868,
      -1784.7657186133374,
      -5416.18472041719,
      -4558.25509854328,
      43.82211817816456,
      2245.3137701955834,
      172.9325435526338,
      2641.693030123623,
      -275.0829158623689,
      894.3948674189495,
      1569.2403532590154,
      -2237.054466044997,
      -1587.2909149085986,
      -72.52060168209695,
      2208.4520338932493,
      1941.4255023364037,
      3580.9421436899916,
      796.2054473482699,
      -2353.932118600557,
      0.41884175619395825,
      4327.339374876717,
      2396.8144634954547,
      1787.4953514393146,
      5422.743846589989,
      4564.588068342945,
      -43.465658054501546,
      2260.169395439538,
      173.86138434451286,
      2653.324976696437,
      -277.6565165538006,
      896.7823448574333,
      1580.2385492582255,
      -2266.6097121703874,
      -1597.972811768378,
      -80.51810413552975,
      2227.4281517737268,
      1954.3195632568807,
      3605.5987599211726,
      801.5297751146068,
      -2367.6045260702745,
      -0.14166112996835292,
      4358.87543173294,
      2409.010052168112,
      1806.8850179732303,
      5463.774556893079,
      4595.494979113154,
      -45.17807612529167,
      -2260.1297735937233,
      -174.72490084472892,
      -2650.021983795008,
      278.41962596678155,
      -895.2772639598704,
      -1581.7149402868974,
      2260.557777337246,
      1598.4750718059393,
      76.6232073514355,
      -2221.862285874122,
      -1947.4768002437143,
      -3597.469952752369,
      -797.0535947577599,
      2368.852869866246,
      0.11074550811894757,
      -4349.561891960268,
      -2405.4951847140633,
      -1798.9521878975636,
      -5455.306143011653,
      -4585.772945674971,
      47.805925736051776,
      -2261.237791759512,
      -172.79065803171474,
      -2652.3741317194203,
      279.46827567763586,
      -896.1250508231363,
      -1579.5015603840886,
      2261.3698878383457,
      1594.3137421951674,
      75.54512785920198,
      -2220.9617002526998,
      -1949.984354844493,
      -3595.5060865851606,
      -798.6455884854145,
      2365.816473483447,
      -0.14252077852838654,
      -4349.622003284164,
      -2408.4259100694444,
      -1793.5561330090434,
      -5452.238298077791,
      -4585.0472950826515,
      43.776962983564275,
      2241.945484172867,
      171.1455194131458,
      2638.330882969982,
      -275.6668611908864,
      894.1569532454425,
      1566.8266455753167,
      -2233.7097710442295,
      -1582.6594694578623,
      -71.49415051770539,
      2203.082354811145,
      1937.118360246449,
      3573.022487632454,
      794.8678747685794,
      -2349.5594001098175,
      -0.44665810218940516,
      4317.7274420618005,
      2393.361838297313,
      1783.6224524014644,
      5410.8044397834765,
      4555.125546059209,
      -41.626630025428184,
      -2256.3715914983495,
      -173.06571779381605,
      -2647.9517336299614,
      277.89262686198515,
      -895.3514136073869,
      -1577.6505726424061,
      2255.573049912812,
      1594.2976919131238,
      75.03422404320804,
      -2218.659487255677,
      -1946.7971675770796,
      -3593.2861866520225,
      -797.0647777618644,
      2364.973938998587,
      0.07833989608611927,
      -4345.162489796885,
      -2403.711660660381,
      -1794.6781222663026,
      -5446.64264549975,
      -4580.97750857451,
      45.237702899694185,
      -2235.0796644565044,
      -173.2860604481416,
      -2627.1544114339063,
      269.3916598132244,
      -891.1057182499762,
      -1564.0039694567397,
      2231.9753691126757,
      1577.9841792527004,
      74.77253249192657,
      -2192.684186146984,
      -1924.274080403079,
      -3553.9526339160825,
      -786.5071988741233,
      2347.5283799795934,
      -0.20499276810713635,
      -4300.645534688085,
      -2382.1635356223337,
      -1781.4011434740084,
      -5390.379564565512,
      -4533.538522019285,
      43.69468208924398,
      2261.095692666527,
      173.56822629050572,
      2652.3212223486034,
      -279.1868826738345,
      896.1498616262679,
      1580.4732815462148,
      -2262.053269581471,
      -1595.8901499414476,
      -76.4252526192967,
      2222.3092643097903,
      1949.8518288395167,
      3597.6124170700987,
      798.8837546398431,
      -2366.496233158698,
      -0.08517616356540468,
      4350.846458708451,
      2408.154504533926,
      1796.1390108077494,
      5454.354441619283,
      4586.903208679281,
      -44.20301481093216,
      -2246.5137002574834,
      -175.67411052497948,
      -2635.219407835035,
      268.2996171738318,
      -895.2550320192024,
      -1571.6292213847717,
      2237.506474815343,
      1590.2946887180951,
      71.91790212002992,
      -2204.033866372708,
      -1931.101239337666,
      -3574.2769665101087,
      -791.1101460854452,
      2357.429094254473,
      0.2396868265115203,
      -4320.33873474771,
      -2390.713861565369,
      -1788.3762385579987,
      -5419.362581630373,
      -4556.57754113866,
      47.91976775715435,
      2244.3192221438953,
      173.3713669053492,
      2637.6188620362473,
      -272.16302496857844,
      893.2608086543922,
      1568.9917436466023,
      -2236.338537436104,
      -1584.9452350421243,
      -73.55732512107224,
      2200.761283123996,
      1933.9729949309265,
      3568.7275713949994,
      791.4596474331076,
      -2353.110974472853,
      0.1484261976160534,
      4315.520768010771,
      2392.4441493201375,
      1780.868368471882,
      5410.855652376298,
      4551.143710505392,
      -44.092638167218354,
      -2244.2918046896984,
      -173.69342579724275,
      -2637.837553090846,
      273.380469121121,
      -898.0043799762477,
      -1567.3599702647668,
      2235.474451519309,
      1584.729983084436,
      71.7542711191744,
      -2202.992177555984,
      -1935.2127162899676,
      -3572.724497806519,
      -792.9676117459517,
      2351.839495074342,
      0.4177301993756071,
      -4318.377272356936,
      -2392.4559203545214,
      -1782.9565950231981,
      -5413.498420804357,
      -4555.18389668428,
      43.70788018440419,
      2246.674480848214,
      175.67027198359318,
      2635.591146081404,
      -269.08374345391763,
      895.0135891040529,
      1571.3489759223241,
      -2235.2601509021097,
      -1589.8615260558263,
      -70.99071545825629,
      2203.053516873002,
      1930.2626025858692,
      3573.0502925335313,
      790.5236861902118,
      -2356.7405262050806,
      -0.3660846737618887,
      4319.196266360833,
      2390.5592895693835,
      1786.3375228094544,
      5418.051793093725,
      4555.352615201282,
      -48.3810269893317,
      -2261.4370390657673,
      -172.66972999187323,
      -2652.607186118694,
      279.2919724353028,
      -896.3115773548491,
      -1579.9827412126501,
      2260.6783637357557,
      1594.8844892764769,
      75.87209747315802,
      -2221.9638378131103,
      -1950.2782063831683,
      -3596.516091123115,
      -799.0618942838316,
      2365.886427547971,
      0.19148960712598556,
      -4349.555058474622,
      -2407.431493332171,
      -1794.0270642336066,
      -5453.205240077467,
      -4586.046413211422,
      43.93594293613319,
      2246.701244956772,
      172.13805021415504,
      2641.990394524789,
      -276.4537912945304,
      895.1833709149656,
      1568.8786416176413,
      -2244.6156875354914,
      -1585.337579768156,
      -74.45758242825426,
      2207.298179345643,
      1940.6894317131623,
      3579.084650948671,
      796.6263204955868,
      -2351.977797345065,
      -0.29977798588110827,
      4325.756391352487,
      2397.3138411519058,
      1788.888165648656,
      5421.1761332491915,
      4562.83038696295,
      -41.49547483245905,
      2246.1199315903323,
      175.87637088887416,
      2635.663553069992,
      -271.82274258047363,
      895.7705512154441,
      1570.5947495225976,
      -2242.0953790389804,
      -1584.8504111223783,
      -72.99889574348964,
      2204.194506241136,
      1931.0030177818967,
      3570.9114719663758,
      789.6802848827696,
      -2356.4035595835035,
      0.028291593422821865,
      4318.904558246581,
      2390.6604081817577,
      1787.1048794303124,
      5415.283004384088,
      4554.225964010603,
      -45.046964016284676,
      -2259.4601299708233,
      -173.92287536122222,
      -2652.2108037693088,
      275.9827147133564,
      -897.5224749200639,
      -1579.058529663172,
      2268.222862858065,
      1597.1043396875361,
      82.71763680670801,
      -2226.989736426591,
      -1955.634569664664,
      -3605.656747526011,
      -802.2012682062846,
      2365.5408794780924,
      0.16145338999455708,
      -4359.199849596583,
      -2408.8146023783042,
      -1807.9690362045121,
      -5462.265347042983,
      -4595.254954454763,
      43.49016252866625,
      2247.2735480020883,
      175.99893002315144,
      2634.7425304776075,
      -268.12539330155204,
      894.6546932065218,
      1572.3993298205012,
      -2239.7482943058244,
      -1586.8032984513673,
      -71.9106697552433,
      2205.1735352398555,
      1928.7297267360316,
      3572.175159525458,
      789.2318216562437,
      -2359.338592959308,
      -0.03661280300097288,
      4320.367089476148,
      2390.369174193756,
      1786.2690479699934,
      5419.502365659608,
      4556.236380185529,
      -48.180458397160294
    ],
    "b1": [
      1970.3092680140874,
      1966.531805100075,
      -1958.2651972111066,
      1961.651107457039,
      1966.921363410363,
      1982.0269232553208,
      -1957.1451540153007,
      -1969.4799287979686,
      -1986.4446901617318,
      -1965.0799886521054,
      1958.3396813547429,
      1960.4246319335434,
      1951.4211188154004,
      1979.4787602861825,
      -1967.475665833615,
      1972.187012488796,
      1991.771774746297,
      -1981.0608735593255,
      -1983.9928288192464,
      1967.7746521434674,
      -1979.844005733724,
      -1952.705085617648,
      1984.4028192498154,
      -1962.905117989966,
      1962.6267812768392,
      -1966.1761152666759,
      1961.8050131545365,
      -1983.7521040646384,
      1973.3641301292466,
      1963.1725932998422,
      -1993.1903159774306,
      1961.2364447593732
    ],
    "w2": [
      -4.590719935985148,
      -4.090359800784131,
      4.461562440531341,
      -4.313656534685239,
      -4.547737351971043,
      -4.157406140191444,
      4.8266285845555625,
      4.052836105029198,
      4.114585751260899,
      4.367537841490513,
      -4.573217365321312,
      -4.744623853012428,
      -5.06030059667135,
      -4.452507208825654,
      4.104342915000462,
      -4.359960718694214,
      -4.901513696805042,
      5.00075145916225,
      4.483277700405744,
      -4.261238284674997,
      4.759234935825165,
      4.350215164150767,
      -4.872929422964328,
      4.359401098726448,
      -4.885698700411959,
      4.758178343969561,
      -4.47930503082403,
      4.624824437237083,
      -4.300189595274295,
      -4.255585292397287,
      4.736823399764348,
      -4.616909342989234,
      -4.586316452334064,
      -5.089171879291829,
      4.346247605659675,
      -4.14947527441018,
      -4.733578686129967,
      -4.870915326411767,
      4.635170575806584,
      4.40443838349181,
      5.016903141315589,
      4.5939752796936055,
      -4.138522194259791,
      -4.588209765003043,
      -4.448453378537257,
      -4.877477281938979,
      4.360578805751832,
      -5.06340925408364,
      -5.156758960711185,
      5.005698254361616,
      4.6686533831401835,
      -4.855828556951949,
      4.999223251053905,
      4.47014895878513,
      -5.027541145852039,
      4.091107876505791,
      -4.672488742099481,
      4.704345037410645,
      -4.448358395910749,
      4.485894552061293,
      -4.343129585757741,
      -4.487027304998787,
      4.9571323138327585,
      -4.39119483770043,
      4.425875437127957,
      4.071765514041764,
      -4.823971821178414,
      4.334681783306369,
      4.899628029163603,
      4.674826105911109,
      -4.336495155603166,
      -4.305147119204731,
      -4.347050561617455,
      -4.706669099481363,
      4.621469194783165,
      4.925764647245611,
      4.401078031085454,
      4.551926996087273,
      -4.2182748418880625,
      3.954932075287947,
      4.479631916912638,
      -4.128710168410727,
      -4.8281466133868935,
      3.9371680333444825,
      -4.326197891308485,
      -4.065467765190457,
      4.562111166573745,
      -4.3908841190867545,
      4.928346875138835,
      -4.934432729565323,
      4.233282374057083,
      -4.449958183657495,
      4.584650096699723,
      4.351654895157609,
      -4.865174326987821,
      5.026947963920865,
      -4.989647799349163,
      -4.209711938902064,
      4.683100858959449,
      -4.2913933506750706,
      -4.953139267132084,
      -4.772227930692582,
      4.738978927249993,
      4.722688891177092,
      4.184546525420469,
      4.985823321342669,
      -4.494931752024627,
      -4.197903957036071,
      -4.531245538478403,
      -4.4109440405264655,
      4.781945684032158,
      -4.674914409474251,
      -4.733544339403761,
      4.811807364885016,
      4.837540984223223,
      -3.9244164659709244,
      4.594989870093454,
      4.0653213503313586,
      -4.501066749167856,
      4.918211480306601,
      -4.523038578187183,
      4.477035998534603,
      -4.845193355693251,
      4.320896418108088,
      -3.9366477741894705,
      -4.23829394091154,
      4.419382037281903,
      -4.197856081965173,
      -4.2380788600808605,
      -4.586156506079181,
      4.614909851072596,
      -4.003462354977805,
      -4.388566150726529,
      -4.943293615473003,
      4.3291597705119305,
      4.79099343954973,
      4.951169384129599,
      4.597935168250925,
      -4.462898627364217,
      -4.601852221790377,
      -3.9229529848312037,
      -4.835792121887479,
      4.846856306026326,
      -4.826807613030521,
      -4.969151954562173,
      4.593936079462833,
      4.765617515607637,
      -5.165649204082614,
      5.039540481302959,
      4.79287212788431,
      -4.748091745558583,
      4.136141670424569,
      -4.248782734228321,
      4.400107773447495,
      -4.158563544040645,
      4.898114880801279,
      -4.446424281341155,
      -4.411507892322062,
      4.976586571980011,
      -4.343149074199815,
      -5.623710539493828,
      -4.84386570616187,
      5.258980066272989,
      -4.838105439492089,
      -4.988126490614191,
      -5.073301233724821,
      5.073967263465577,
      5.182468430578331,
      5.105862324567289,
      4.812981366932258,
      -4.466315631736608,
      -5.175741847983653,
      -5.417192369513001,
      -4.977825631144203,
      4.86884704831336,
      -5.122242088408807,
      -5.502959908888075,
      5.517691219748722,
      4.670067885064768,
      -4.611518886913419,
      5.258351553166637,
      5.5770306695641985,
      -5.362671319057397,
      6.029007097588796,
      -4.915556430920318,
      4.882481387459031,
      -5.802394510532965,
      5.5138566821680834,
      -4.629188244119121,
      -5.051465489821498,
      5.223874187788409,
      -5.863628156576038,
      -4.681087632152005,
      -4.542108732200626,
      4.625395681088903,
      -4.810110241491087,
      -4.308778679754409,
      -4.885051137649481,
      4.01063192650655,
      4.5979416229367525,
      5.16218941965348,
      4.055915530578063,
      -4.454668134918183,
      -3.8613610697906346,
      -4.013246613557222,
      -4.941579358742766,
      4.41522372709107,
      -4.745878740528364,
      -5.129468734867879,
      4.767052458552666,
      5.093643479167077,
      -4.536700658627469,
      5.005891449823533,
      4.696512283020544,
      -4.868524624992663,
      4.379711448603755,
      -4.670016010756867,
      4.811761838851535,
      -4.6552127698902215,
      4.923376942744927,
      -4.841748169507826,
      -4.612636898895919,
      4.9133649901009395,
      -4.0517599503565584,
      4.6249237348563925,
      4.869267585739282,
      -3.9962243605723033,
      4.452946679225981,
      4.306675892930629,
      4.919960662838747,
      -4.276976032522673,
      -4.780354031908146,
      -4.759002037102946,
      -4.899963612766758,
      4.12723683501261,
      3.979490002076462,
      4.017959274974018,
      4.6330821728748575,
      -4.292314493477817,
      4.330865139575058,
      4.97846188617101,
      -4.7591695102849165,
      -4.896829648212728,
      5.165489483630259,
      -4.8930816448009224,
      -4.237024785835761,
      4.576258629350251,
      -4.491382938344605,
      4.321666788447824,
      -4.551426298995419,
      4.6573937971075905,
      -4.799184478214527,
      4.977926266109437,
      4.555241692492329,
      -4.88054717020292,
      4.004013860144479,
      4.5336926066314955,
      4.769513589624955,
      -4.134796748588097,
      4.527641159516965,
      4.308291748987216,
      4.3419757498808575,
      -4.052761317495316,
      -4.778566202696623,
      -4.979139702178333,
      -4.0694630554958975,
      4.354309498764049,
      4.515685857376117,
      4.6140364381506735,
      5.132632588058096,
      -4.5140113852907895,
      4.691870422661455,
      4.357716522794125,
      -4.342291708904592,
      -4.712354433313729,
      4.835784677378393,
      -5.186398545498474,
      -4.2943337797550525,
      4.480502728300013,
      -4.290903150943955,
      4.7854409847675425,
      -4.091835582087702,
      4.0970712812249666,
      -4.849587710056243,
      4.758785234251022,
      4.267361441386912,
      -4.552015390390363,
      4.612638811906524,
      4.214897765137641,
      4.734665606536195,
      -3.8672013161634364,
      4.449466921239496,
      4.148195343301915,
      5.107884619326237,
      -4.037910655647951,
      -5.099450739401016,
      -5.1458267389418415,
      -4.429487764272891,
      3.976091971390259,
      4.029483527841574,
      4.0045792369237825,
      4.767352609898982,
      -4.80611558241312,
      4.732663848603837,
      4.724006263068028,
      -4.549327998600026,
      -4.469381813393245,
      4.723567498387274,
      -4.3228558491135525,
      -4.538696658654817,
      4.3451632695947815,
      -4.430039748411093,
      4.265123953953603,
      -4.342483759744139,
      4.007100024224563,
      -4.429987737868005,
      5.16290909261399,
      4.3650324308260915,
      -4.981142862851458,
      4.220284076032736,
      -4.239321005957369,
      -4.168476862613341,
      4.253249884418844,
      -4.848546211783564,
      -4.275527032870388,
      -4.736485969716739,
      4.630427595076296,
      4.421723786489163,
      4.811192119639884,
      4.216559769345813,
      -4.711495094406947,
      -4.155560268773508,
      -4.216586762697062,
      -4.327398099318502,
      4.232414879352147,
      -3.9239193620442245,
      -4.5473560005899225,
      4.824683260992467,
      4.301340711411925,
      -4.267345031305927,
      4.248077952048247,
      4.126192896705217,
      -4.762681965623239,
      4.666201000567168,
      -4.213364611207952,
      4.278360806338316,
      -4.993462774490214,
      4.871706381441978,
      -3.9419822890575293,
      -5.0791952009346755,
      4.651511779308136,
      -4.549772859952464,
      -4.327871398852986,
      -4.953480047272496,
      4.210932270098751,
      -4.596012538826676,
      -4.928178156316299,
      -4.451997962862169,
      4.098949109257221,
      4.715912791165245,
      5.203382384665012,
      4.642668185786875,
      -4.512554822968626,
      -4.4990190127025835,
      -4.023717891996252,
      -4.952525162699587,
      4.7400936363633965,
      -5.101200153436901,
      -5.034802511733535,
      4.666126380372902,
      5.162930257394934,
      -4.517826892733079,
      4.3316652129486775,
      4.585986307242931,
      -5.015080746942621,
      4.251403392161874,
      -4.360363232416229,
      4.060669875379585,
      -3.970176943576817,
      4.775341451641516,
      -5.118005780381679,
      -4.459007125795928,
      5.056264782341641,
      -4.525296617814963
    ],
    "b2": [
      -7.0559820858279085,
      -7.142128832025009,
      7.015268819384499,
      -7.053983084461425,
      -7.178259519290961,
      -6.994505971066147,
      -7.106959762142248,
      7.099248712048265,
      6.985525997547962,
      7.004226695839867,
      -7.117649117004635,
      -7.115704643175242
    ]
  },
  "best": {
    "version": 1,
    "generation": 5,
    "fitness": 28.546559334281394,
    "w1": [
      -0.3994062542915344,
      -0.7651268243789673,
      0.027291148900985718,
      0.2632771134376526,
      -0.5696856379508972,
      -1.0257360935211182,
      -2.4400763511657715,
      1.7589471340179443,
      -0.5726681351661682,
      -0.05611296743154526,
      0.18609847128391266,
      1.977664828300476,
      1.1056756973266602,
      2.3877525329589844,
      -0.3164556324481964,
      -0.04775293171405792,
      0.11506146937608719,
      -0.31928345561027527,
      0.41629576683044434,
      0.5707927346229553,
      0.20740234851837158,
      0.1835007220506668,
      0.585716724395752,
      0.17859700322151184,
      1.5125523805618286,
      -1.3438777923583984,
      0.9239645004272461,
      0.1378546953201294,
      0.19513633847236633,
      -1.350600242614746,
      -0.7154653668403625,
      -1.705404281616211,
      -0.18228289484977722,
      0.08067061007022858,
      -0.23639798164367676,
      0.3812035322189331,
      0.3404809534549713,
      0.9443739056587219,
      -0.0724421963095665,
      0.3536253869533539,
      -0.17346492409706116,
      0.5327463746070862,
      2.525367259979248,
      -1.5392717123031616,
      0.5737177133560181,
      -0.4241286814212799,
      0.34573718905448914,
      -1.897196888923645,
      -1.1173779964447021,
      -2.454632520675659,
      0.020663268864154816,
      0.3411136865615845,
      -0.8943453431129456,
      -0.20799264311790466,
      -0.5914196372032166,
      -0.6758168339729309,
      -0.01452596765011549,
      -0.5235717296600342,
      -0.17328453063964844,
      -0.014098551124334335,
      -1.2323319911956787,
      1.4019337892532349,
      -0.7317596077919006,
      0.6160705089569092,
      -0.3419733941555023,
      1.19796621799469,
      1.0799022912979126,
      1.941423773765564,
      -0.16385643184185028,
      -0.011687973514199257,
      -0.0360308438539505,
      0.11482211947441101,
      -0.3280123472213745,
      0.44787418842315674,
      0.4011639654636383,
      -0.29282888770103455,
      0.5095741152763367,
      0.14946070313453674,
      0.8278957009315491,
      0.08648776262998581,
      0.3316192626953125,
      0.12818408012390137,
      0.8438039422035217,
      0.08133652061223984,
      -0.21666742861270905,
      -0.5728370547294617,
      0.3937201201915741,
      -0.12386290729045868,
      -0.18814803659915924,
      0.378500759601593,
      -0.122168630361557,
      -0.8199781179428101,
      0.302386611700058,
      0.0789140909910202,
      0.020081983879208565,
      0.22849883139133453,
      -1.1966185569763184,
      0.7685020565986633,
      0.1094309538602829,
      -0.16236111521720886,
      0.4520258605480194,
      0.8965368866920471,
      0.6727986931800842,
      1.2037599086761475,
      -0.33482426404953003,
      0.38458892703056335,
      0.2686537206172943,
      -0.2433357834815979,
      -0.1896751970052719,
      -0.37865495681762695,
      -0.07360304147005081,
      0.16604188084602356,
      -0.047524601221084595,
      0.13196666538715363,
      -0.7956483960151672,
      0.36519190669059753,
      -0.40615811944007874,
      0.3751595616340637,
      0.24685324728488922,
      0.7625869512557983,
      0.25584277510643005,
      0.6448165774345398,
      -0.3804982900619507,
      0.31607770919799805,
      0.3043707609176636,
      0.041897933930158615,
      -0.0480947382748127,
      0.02185891382396221,
      0.2883450388908386,
      0.2392721325159073,
      -0.05852622166275978,
      0.1551152467727661,
      -0.09117774665355682,
      -0.19776104390621185,
      -0.1235552579164505,
      -0.4050866663455963,
      -0.339387983083725,
      -0.1285354644060135,
      0.2583138644695282,
      -0.04594196006655693,
      -0.16186587512493134,
      -0.14081250131130219,
      0.3600705862045288,
      -0.38950079679489136,
      0.4675583243370056,
      0.9954923987388611,
      -0.42523807287216187,
      -0.10124769061803818,
      -0.20893554389476776,
      0.47495806217193604,
      1.6065361499786377,
      -1.6186366081237793,
      -0.23774266242980957,
      -0.2858012318611145,
      -0.43995773792266846,
      -1.7342876195907593,
      -0.3807825744152069,
      -1.4101427793502808,
      -0.6084129810333252,
      -0.04399770498275757,
      -0.7383806705474854,
      0.5947549939155579,
      0.32456037402153015,
      0.9751483798027039,
      -0.7125570774078369,
      0.3784295320510864,
      0.2784693241119385,
      0.7685738801956177,
      2.1493515968322754,
      -1.3428335189819336,
      0.9067649245262146,
      -0.005968289449810982,
      0.313984215259552,
      -1.8145368099212646,
      -1.204524040222168,
      -1.9925405979156494,
      -0.4195702373981476,
      -0.44232988357543945,
      0.02298126555979252,
      0.03252558037638664,
      0.47062036395072937,
      0.0008800419745966792,
      0.20897194743156433,
      -0.2688475549221039,
      -0.2417793720960617,
      0.046465277671813965,
      0.25650259852409363,
      0.321302592754364,
      0.3886432349681854,
      -0.18749694526195526,
      -0.18463380634784698,
      -0.5301935076713562,
      -0.12907128036022186,
      0.1588553935289383,
      0.43448203802108765,
      -0.36267414689064026,
      0.31488037109375,
      -0.29018735885620117,
      0.3625762462615967,
      1.0390729904174805,
      -0.48843133449554443,
      -0.08145701885223389,
      -0.022286122664809227,
      0.5805952548980713,
      2.8283135890960693,
      -1.9788508415222168,
      0.43404650688171387,
      -0.04503921419382095,
      -0.14534831047058105,
      -2.0990309715270996,
      -1.1813420057296753,
      -2.31000018119812,
      0.09047763794660568,
      -0.18138760328292847,
      -0.7904905080795288,
      0.24174632132053375,
      0.04445222020149231,
      1.1022322177886963,
      -0.17307789623737335,
      0.31594735383987427,
      0.002606079913675785,
      0.5076795816421509,
      1.5713142156600952,
      -1.7387832403182983,
      0.5121618509292603,
      0.2867869436740875,
      0.3740190267562866,
      -1.4309723377227783,
      -1.0418583154678345,
      -1.6690109968185425,
      0.04825489968061447,
      0.2502528429031372,
      -0.026178615167737007,
      0.37206047773361206,
      0.1802382618188858,
      -0.49190306663513184,
      -0.19432805478572845,
      -0.053844064474105835,
      0.2816537320613861,
      -0.16460150480270386,
      -0.010068635456264019,
      -0.15233662724494934,
      0.39944374561309814,
      0.2981308400630951,
      0.4393652677536011,
      -0.20345130562782288,
      -0.30000025033950806,
      0.2142476588487625,
      -0.18624508380889893,
      0.017597053200006485,
      0.08837942034006119,
      -0.2087855488061905,
      -0.5439894199371338,
      -1.1600924730300903,
      0.12109817564487457,
      0.44704246520996094,
      -0.3694704473018646,
      -0.47547218203544617,
      -1.3574228286743164,
      1.2985355854034424,
      -0.3872162401676178,
      -0.27144375443458557,
      -0.13495606184005737,
      1.997359037399292,
      0.6930831074714661,
      2.062978982925415,
      -0.3115842044353485,
      -0.07872191816568375,
      -0.024484749883413315,
      -0.2011047750711441,
      0.7525861263275146,
      0.2889418601989746,
      -0.5453870892524719,
      -0.38118869066238403,
      -0.17521043121814728,
      0.5764999389648438,
      1.6433244943618774,
      -1.277115821838379,
      0.2906423509120941,
      0.32126784324645996,
      0.037555892020463943,
      -1.3600506782531738,
      -1.0091078281402588,
      -1.0418967008590698,
      0.3547966778278351,
      0.06841542571783066,
      -0.5647748112678528,
      0.29758700728416443,
      -0.6751107573509216,
      -0.44719424843788147,
      0.209178164601326,
      -0.16552235186100006,
      -0.6964843273162842,
      -0.2707652151584625,
      -2.1384549140930176,
      1.0210469961166382,
      -0.6817641854286194,
      0.06318582594394684,
      -0.058014191687107086,
      1.2195364236831665,
      0.5230585932731628,
      1.9522161483764648,
      0.007845924235880375,
      0.16164326667785645,
      0.7414644956588745,
      -0.2938985228538513,
      -0.32708311080932617,
      -0.48978790640830994,
      -0.03312945365905762,
      0.6392363905906677,
      0.40532469749450684,
      0.2273963838815689,
      -0.9200951457023621,
      1.246115803718567,
      -0.7579906582832336,
      0.28355973958969116,
      0.3300584554672241,
      1.5605859756469727,
      0.4982398748397827,
      1.5571900606155396,
      -0.4290953576564789,
      0.2573361098766327,
      0.43880248069763184,
      -0.14573657512664795,
      0.8728733062744141,
      1.0261507034301758,
      -0.05628909543156624,
      -0.17960168421268463,
      0.5742394328117371,
      0.7803587913513184,
      2.5511467456817627,
      -1.430766224861145,
      1.2028419971466064,
      -0.14541871845722198,
      -0.3343532681465149,
      -1.5988013744354248,
      -1.321529507637024,
      -2.3917455673217773,
      0.347072958946228,
      0.25480130314826965,
      -0.4904164671897888,
      0.25432106852531433,
      -0.27366524934768677,
      -0.6672435402870178,
      0.5750869512557983,
      0.02514675073325634,
      -0.054028674960136414,
      -0.35160642862319946,
      -2.039630651473999,
      1.5980918407440186,
      -0.7089014649391174,
      0.13142913579940796,
      -0.45974838733673096,
      1.3951431512832642,
      1.1510244607925415,
      1.8172225952148438,
      -0.35300660133361816,
      0.28507566452026367,
      -0.017108812928199768,
      -0.4462277293205261
    ],
    "b1": [
      2.2568483352661133,
      -1.6524220705032349,
      -2.2271509170532227,
      1.5751274824142456,
      -0.41015493869781494,
      1.1597343683242798,
      0.78263920545578,
      0.05407709255814552,
      -1.7210179567337036,
      -1.9446985721588135,
      -0.060709428042173386,
      -2.473588228225708,
      -1.6444655656814575,
      0.11289023607969284,
      2.0389044284820557,
      -1.4018104076385498,
      1.814719319343567,
      1.2520055770874023,
      -2.1201274394989014,
      2.26900053024292
    ],
    "w2": [
      -0.6934899687767029,
      0.4938284158706665,
      0.8971662521362305,
      -0.3524320721626282,
      0.15138128399848938,
      -0.3612721264362335,
      -0.6338327527046204,
      0.11141952127218246,
      0.4134312570095062,
      0.9414479732513428,
      0.14334537088871002,
      0.548052191734314,
      0.4797624945640564,
      0.42101114988327026,
      -1.1070499420166016,
      0.8208234310150146,
      -0.6604495048522949,
      -0.6810213923454285,
      0.5495132207870483,
      -0.8190319538116455,
      0.48306265473365784,
      -0.05304813012480736,
      -0.4191417396068573,
      0.10720919817686081,
      -0.4834662973880768,
      -0.28318193554878235,
      0.050266388803720474,
      -0.08554960787296295,
      -0.6059390902519226,
      -0.6053386926651001,
      0.1565587818622589,
      -0.7876685857772827,
      -0.09279804676771164,
      -0.5450547337532043,
      0.13480620086193085,
      -0.6300139427185059,
      0.4267284870147705,
      0.6378585696220398,
      -0.2931648790836334,
      0.6709885597229004,
      1.150865912437439,
      -1.0148097276687622,
      -1.1891450881958008,
      1.053492546081543,
      0.2354196012020111,
      0.8889941573143005,
      0.17230117321014404,
      -0.16852793097496033,
      -0.921829879283905,
      -0.7725739479064941,
      -0.3725583553314209,
      -1.1716676950454712,
      -0.9814938902854919,
      0.08228915184736252,
      0.9316682815551758,
      -0.6462266445159912,
      0.5214474201202393,
      0.5361721515655518,
      -1.288611650466919,
      0.8147151470184326,
      -1.1685105562210083,
      1.0344973802566528,
      1.3169808387756348,
      -1.1353461742401123,
      0.2266768366098404,
      -0.6589767336845398,
      -0.8003031015396118,
      -0.5585968494415283,
      0.8028956055641174,
      1.2056491374969482,
      -0.1651608645915985,
      1.1848561763763428,
      1.1812201738357544,
      -0.15729111433029175,
      -0.8436658978462219,
      0.6536636352539062,
      -0.9984987378120422,
      -0.9710839986801147,
      1.3229771852493286,
      -0.8493071794509888
    ],
    "b2": [
      -0.7917055487632751,
      0.49916091561317444,
      1.1365119218826294,
      -1.2629605531692505
    ]
  },
  "totalMatches": 128,
  "totalGoalEvents": 660,
  "totalSyncs": 791,
  "updatedAt": "2026-07-12T11:13:17.404Z",
  "progressLog": [
    {
      "ts": "2026-07-03T06:58:45.034Z",
      "generation": 116,
      "fitness": 18.154324026731437,
      "botDelta": 1,
      "aerialTouches": 0
    },
    {
      "ts": "2026-07-03T06:58:45.042Z",
      "generation": 117,
      "fitness": 18.78113447134728,
      "botDelta": 1,
      "aerialTouches": 0
    },
    {
      "ts": "2026-07-03T06:58:45.101Z",
      "generation": 118,
      "fitness": 19.34112032456239,
      "botDelta": 1,
      "aerialTouches": 0
    },
    {
      "ts": "2026-07-03T07:09:32.663Z",
      "generation": 120,
      "fitness": 21.675333841812936,
      "botDelta": 1,
      "aerialTouches": 0
    },
    {
      "ts": "2026-07-03T07:09:32.665Z",
      "generation": 121,
      "fitness": 21.827428400033632,
      "botDelta": 1,
      "aerialTouches": 0
    },
    {
      "ts": "2026-07-03T07:09:32.666Z",
      "generation": 122,
      "fitness": 21.89419426082312,
      "botDelta": 1,
      "aerialTouches": 0
    },
    {
      "ts": "2026-07-03T07:19:12.664Z",
      "generation": 124,
      "fitness": 22.549146070020868,
      "botDelta": 1,
      "aerialTouches": 0
    },
    {
      "ts": "2026-07-03T07:19:12.685Z",
      "generation": 125,
      "fitness": 22.598813618426753,
      "botDelta": 1,
      "aerialTouches": 0
    },
    {
      "ts": "2026-07-03T07:19:12.726Z",
      "generation": 126,
      "fitness": 22.64318608335627,
      "botDelta": 1,
      "aerialTouches": 0
    },
    {
      "ts": "2026-07-03T08:27:55.264Z",
      "generation": 127,
      "fitness": 25.098529826071257,
      "botDelta": -3,
      "aerialTouches": 0
    },
    {
      "ts": "2026-07-03T08:27:55.265Z",
      "generation": 128,
      "fitness": 25.59601076889895,
      "botDelta": -3,
      "aerialTouches": 0
    },
    {
      "ts": "2026-07-03T08:27:55.324Z",
      "generation": 129,
      "fitness": 26.040455006579705,
      "botDelta": -3,
      "aerialTouches": 0
    },
    {
      "ts": "2026-07-03T08:53:08.001Z",
      "generation": 131,
      "fitness": 24.59140309607783,
      "botDelta": 1,
      "aerialTouches": 0
    },
    {
      "ts": "2026-07-03T08:53:08.004Z",
      "generation": 132,
      "fitness": 24.35956924534234,
      "botDelta": 1,
      "aerialTouches": 0
    },
    {
      "ts": "2026-07-03T08:53:08.080Z",
      "generation": 133,
      "fitness": 24.152451323451576,
      "botDelta": 1,
      "aerialTouches": 0
    },
    {
      "ts": "2026-07-03T10:03:27.791Z",
      "generation": 135,
      "fitness": 20.886596304529792,
      "botDelta": -1,
      "aerialTouches": 0
    },
    {
      "ts": "2026-07-03T10:03:27.805Z",
      "generation": 136,
      "fitness": 19.64624792772172,
      "botDelta": -1,
      "aerialTouches": 0
    },
    {
      "ts": "2026-07-03T10:03:27.845Z",
      "generation": 137,
      "fitness": 18.538133744180087,
      "botDelta": -1,
      "aerialTouches": 0
    },
    {
      "ts": "2026-07-03T10:19:08.485Z",
      "generation": 138,
      "fitness": 24.70089174717817,
      "botDelta": -2,
      "aerialTouches": 0
    },
    {
      "ts": "2026-07-03T10:19:08.488Z",
      "generation": 139,
      "fitness": 25.326024056644435,
      "botDelta": -2,
      "aerialTouches": 0
    },
    {
      "ts": "2026-07-03T10:19:08.493Z",
      "generation": 140,
      "fitness": 25.6004421373247,
      "botDelta": -2,
      "aerialTouches": 0
    },
    {
      "ts": "2026-07-03T10:35:24.736Z",
      "generation": 142,
      "fitness": 24.360422263996224,
      "botDelta": 1,
      "aerialTouches": 0
    },
    {
      "ts": "2026-07-03T10:35:24.745Z",
      "generation": 143,
      "fitness": 24.16087887849416,
      "botDelta": 1,
      "aerialTouches": 0
    },
    {
      "ts": "2026-07-03T10:35:24.783Z",
      "generation": 144,
      "fitness": 23.982608918343303,
      "botDelta": 1,
      "aerialTouches": 0
    },
    {
      "ts": "2026-07-03T14:39:48.492Z",
      "generation": 146,
      "fitness": 20.180579222989284,
      "botDelta": -1.3333333333333333,
      "aerialTouches": 0
    },
    {
      "ts": "2026-07-03T15:28:07.271Z",
      "generation": 148,
      "fitness": 21.98001718091728,
      "botDelta": 1,
      "aerialTouches": 0
    },
    {
      "ts": "2026-07-03T15:28:07.273Z",
      "generation": 149,
      "fitness": 22.09488981161723,
      "botDelta": 1,
      "aerialTouches": 0
    },
    {
      "ts": "2026-07-03T15:28:07.274Z",
      "generation": 150,
      "fitness": 22.145316139551362,
      "botDelta": 1,
      "aerialTouches": 0
    },
    {
      "ts": "2026-07-03T16:25:56.367Z",
      "generation": 151,
      "fitness": 25.102417642302434,
      "botDelta": -2.2,
      "aerialTouches": 0
    },
    {
      "ts": "2026-07-03T16:43:22.008Z",
      "generation": 154,
      "fitness": 21.989006741826337,
      "botDelta": -0.6,
      "aerialTouches": 0
    },
    {
      "ts": "2026-07-04T12:40:59.868Z",
      "generation": 156,
      "fitness": 23.013185806896633,
      "botDelta": 1,
      "aerialTouches": 0
    },
    {
      "ts": "2026-07-04T12:40:59.919Z",
      "generation": 157,
      "fitness": 22.998410279241035,
      "botDelta": 1,
      "aerialTouches": 0
    },
    {
      "ts": "2026-07-04T21:12:51.098Z",
      "generation": 158,
      "fitness": 25.13426355876082,
      "botDelta": -5,
      "aerialTouches": 0
    },
    {
      "ts": "2026-07-04T21:12:51.109Z",
      "generation": 159,
      "fitness": 25.62027311578558,
      "botDelta": -5,
      "aerialTouches": 0
    },
    {
      "ts": "2026-07-04T21:12:51.183Z",
      "generation": 160,
      "fitness": 26.05446893814142,
      "botDelta": -5,
      "aerialTouches": 0
    },
    {
      "ts": "2026-07-04T21:34:42.792Z",
      "generation": 162,
      "fitness": 22.733452960968613,
      "botDelta": 0,
      "aerialTouches": 0
    },
    {
      "ts": "2026-07-04T21:34:42.798Z",
      "generation": 163,
      "fitness": 21.9933899541997,
      "botDelta": 0,
      "aerialTouches": 0
    },
    {
      "ts": "2026-07-04T21:34:42.888Z",
      "generation": 164,
      "fitness": 21.33222545408927,
      "botDelta": 0,
      "aerialTouches": 0
    },
    {
      "ts": "2026-07-04T22:08:43.249Z",
      "generation": 166,
      "fitness": 23.187634858231657,
      "botDelta": 1,
      "aerialTouches": 0
    },
    {
      "ts": "2026-07-04T22:08:43.254Z",
      "generation": 167,
      "fitness": 23.15726183202158,
      "botDelta": 1,
      "aerialTouches": 0
    },
    {
      "ts": "2026-07-04T22:08:43.339Z",
      "generation": 168,
      "fitness": 23.130126890121556,
      "botDelta": 1,
      "aerialTouches": 0
    },
    {
      "ts": "2026-07-05T00:42:20.088Z",
      "generation": 169,
      "fitness": 24.98388685024326,
      "botDelta": -3,
      "aerialTouches": 0
    },
    {
      "ts": "2026-07-05T00:42:20.095Z",
      "generation": 170,
      "fitness": 25.518170939743158,
      "botDelta": -3,
      "aerialTouches": 0
    },
    {
      "ts": "2026-07-05T00:42:20.097Z",
      "generation": 171,
      "fitness": 25.75270883221546,
      "botDelta": -3,
      "aerialTouches": 0
    },
    {
      "ts": "2026-07-05T00:51:30.464Z",
      "generation": 172,
      "fitness": 25.227660845301912,
      "botDelta": -5,
      "aerialTouches": 0
    },
    {
      "ts": "2026-07-05T00:51:30.472Z",
      "generation": 173,
      "fitness": 25.6836876318121,
      "botDelta": -5,
      "aerialTouches": 0
    },
    {
      "ts": "2026-07-05T00:51:30.524Z",
      "generation": 174,
      "fitness": 26.091097162598338,
      "botDelta": -5,
      "aerialTouches": 0
    },
    {
      "ts": "2026-07-09T21:07:06.808Z",
      "generation": 176,
      "fitness": 23.310576527556336,
      "botDelta": 1,
      "aerialTouches": 0
    },
    {
      "ts": "2026-07-09T21:07:06.811Z",
      "generation": 177,
      "fitness": 23.264991878039815,
      "botDelta": 1,
      "aerialTouches": 0
    },
    {
      "ts": "2026-07-09T21:07:06.879Z",
      "generation": 178,
      "fitness": 23.22426703200017,
      "botDelta": 1,
      "aerialTouches": 0
    },
    {
      "ts": "2026-07-10T22:14:58.224Z",
      "generation": 183,
      "fitness": 2.8220975111030153,
      "botDelta": -1.3333333333333333,
      "aerialTouches": 0
    },
    {
      "ts": "2026-07-11T17:56:01.606Z",
      "generation": 185,
      "fitness": 2.9771056940685723,
      "botDelta": -1,
      "aerialTouches": 0
    },
    {
      "ts": "2026-07-11T17:56:01.612Z",
      "generation": 186,
      "fitness": 2.032488956204192,
      "botDelta": -1,
      "aerialTouches": 0
    },
    {
      "ts": "2026-07-11T17:56:01.679Z",
      "generation": 187,
      "fitness": 1.4868783284137266,
      "botDelta": -1,
      "aerialTouches": 0
    },
    {
      "ts": "2026-07-11T19:33:53.088Z",
      "generation": 189,
      "fitness": 1.816506839981664,
      "botDelta": -1,
      "aerialTouches": 0
    },
    {
      "ts": "2026-07-11T19:33:53.091Z",
      "generation": 190,
      "fitness": 1.2387622410797927,
      "botDelta": -1,
      "aerialTouches": 0
    },
    {
      "ts": "2026-07-11T19:33:53.117Z",
      "generation": 191,
      "fitness": 0.9851462280322452,
      "botDelta": -1,
      "aerialTouches": 0
    }
  ],
  "githubPushedAt": "2026-07-12T11:13:19.224Z",
  "githubPushReason": "goal"
}