{
  "active": {
    "version": 1,
    "generation": 191,
    "fitness": 4.478665224071213,
    "w1": [
      2327.1537583764157,
      -174.42353505493838,
      2855.0523665994765,
      -281.9377295979311,
      293.10738649277806,
      2738.3902796624297,
      -2559.9540796796578,
      -656.2380007435953,
      -404.21688905693424,
      3784.1169210372427,
      2431.448455532785,
      6969.331424342467,
      1745.3584853175182,
      -1760.0778158494913,
      -0.3035681192115597,
      6706.671884010886,
      2835.548019302575,
      3177.9044473676604,
      7907.0962264863065,
      7689.088767785774,
      106.88448150050138,
      2323.002807248269,
      -175.8298151440482,
      2855.6204857755492,
      -284.14740824238015,
      289.6989647857164,
      2732.0289275724485,
      -2549.506395096333,
      -653.4378987158435,
      -402.31772172631395,
      3776.4138652989864,
      2430.5523954259183,
      6955.205680317375,
      1742.6734990902783,
      -1760.9789102324116,
      -0.11197720991302111,
      6696.266615507291,
      2833.1942541869753,
      3168.205334735887,
      7890.634363272489,
      7675.191320808317,
      108.1107254472428,
      -2317.5500863033308,
      174.57104742764267,
      -2846.6618567336404,
      281.34346675847615,
      -295.1057817385686,
      -2729.1029365656022,
      2552.054875493198,
      648.6166799323788,
      402.49981541837735,
      -3768.223433849534,
      -2417.7250448001337,
      -6937.8959601285405,
      -1735.3666254386778,
      1760.899379068074,
      -0.20928969922505908,
      -6679.9175143761995,
      -2823.465956634542,
      -3172.2394213306484,
      -7870.854992656923,
      -7655.518359757826,
      -108.01307646589066,
      2318.230194103559,
      -178.4950026695882,
      2848.922497934387,
      -280.7811316782707,
      293.44755394629937,
      2730.610251145549,
      -2554.01864398112,
      -651.0364705406956,
      -401.7855869877067,
      3774.6414321710017,
      2417.9476150778846,
      6948.299057132974,
      1738.125975084208,
      -1763.557026632248,
      0.06670647052631173,
      6688.607142673876,
      2825.754882640633,
      3180.521162170468,
      7879.561406135083,
      7666.089273348893,
      109.77737962721727,
      2321.614078871812,
      -173.46671956478343,
      2854.46323001502,
      -283.0724902179865,
      294.4555288883629,
      2729.738832741118,
      -2545.2904807001337,
      -652.3409821402129,
      -401.11398754319526,
      3775.4626664777825,
      2431.5812037812702,
      6955.828263984049,
      1743.4255057637993,
      -1758.579495433535,
      0.31920511892547293,
      6695.299831878184,
      2832.539701853066,
      3166.5930961008453,
      7889.54461042491,
      7674.1786419957225,
      107.84464804024022,
      2337.0894759362945,
      -221.9873689330655,
      2865.4127626020954,
      -298.15978601858586,
      285.12183939085037,
      2754.2226128737652,
      -2620.7731712845452,
      -671.9055834191682,
      -376.7543940030453,
      3822.3866295458174,
      2433.0034759790833,
      7038.265701783241,
      1731.1435632959679,
      -1788.279129421062,
      0.22418510990965068,
      6748.223127863815,
      2841.283126207634,
      3260.5765308879672,
      7959.579638632285,
      7764.055666662487,
      121.06218445921809,
      -2316.0194168664825,
      170.93297015368893,
      -2846.2524455841817,
      281.13169062185204,
      -294.26057181045053,
      -2727.5934856410195,
      2545.648823078686,
      648.1358747216743,
      402.8994920377862,
      -3764.545916733008,
      -2421.0059660519996,
      -6933.90614716282,
      -1735.3496114732516,
      1755.3188977848288,
      -0.1136810817644165,
      -6674.386121713285,
      -2822.3669226795755,
      -3166.352802384461,
      -7865.434755919491,
      -7651.907160027633,
      -107.67296595677989,
      -2322.0601569910723,
      171.13738023132925,
      -2860.8738963228316,
      285.20811139894556,
      -294.90358930446604,
      -2732.6190317603796,
      2537.7555610446434,
      650.9914210832189,
      408.22678539833754,
      -3782.8423037425764,
      -2448.475712236743,
      -6974.306714158785,
      -1754.380244241228,
      1757.58762039062,
      0.2857681838930465,
      -6718.027117519125,
      -2841.724053305593,
      -3158.6108104173063,
      -7910.824572215213,
      -7693.626360957009,
      -107.03883520383977,
      -2338.917454272748,
      241.9413683627595,
      -2866.6314638556287,
      304.74042804054625,
      -278.9884099683246,
      -2759.337920141813,
      2658.118437962318,
      671.9174111940158,
      336.05881587225423,
      -3839.343202194078,
      -2430.3967528194244,
      -7089.408641279078,
      -1732.599847780436,
      1793.501321295599,
      0.2783267835670875,
      -6762.84403617036,
      -2841.624031189093,
      -3283.749459566151,
      -7993.692527901302,
      -7816.467980258642,
      -122.95826722754542,
      -2321.4251159908586,
      175.25952588873974,
      -2852.881255672539,
      283.96853540793927,
      -294.7966646542496,
      -2730.1851525624043,
      2548.924978847868,
      652.2133910027768,
      400.8916346606384,
      -3775.10704050758,
      -2426.562696953066,
      -6954.295753563749,
      -1741.4228683094975,
      1761.062600681693,
      -0.1375872751437596,
      -6692.353829290296,
      -2830.848416562987,
      -3169.707144446472,
      -7888.4708021252845,
      -7672.97902292182,
      -107.77222981761601,
      2315.99427179801,
      -176.9695100321452,
      2845.1322559190808,
      -281.17033831547633,
      295.2211965585526,
      2726.6026154346264,
      -2557.0369355948333,
      -649.9467376206676,
      -404.9382765158053,
      3767.300909630093,
      2413.0517326669546,
      6935.152729336451,
      1733.5830888706914,
      -1762.0363248172841,
      0.3305091123159127,
      6677.184170345592,
      2822.3029131201997,
      3178.298472667286,
      7866.325836956808,
      7651.93941001528,
      109.17313532507406,
      2320.6286081246203,
      -176.91964785718406,
      2848.525611376611,
      -281.1713482890434,
      293.574959946752,
      2731.0738173956315,
      -2556.3856291919183,
      -651.5293943864639,
      -401.989768932964,
      3773.325936146892,
      2416.3478637098583,
      6944.234441121533,
      1735.7470700896188,
      -1765.5691172052602,
      0.12424864006300607,
      6686.2082319672445,
      2826.099711785513,
      3178.39142358806,
      7878.4323828890065,
      7663.246466245189,
      108.15869115878424,
      2312.841944628439,
      -169.6071094693453,
      2845.1568372502493,
      -279.82242861542665,
      293.8030442154268,
      2723.183010179062,
      -2542.4752683903703,
      -646.5800126255797,
      -408.38397956722645,
      3754.6419012138012,
      2420.376059532933,
      6920.77216762571,
      1731.8190680263988,
      -1751.1511139039578,
      -0.21838804408078227,
      6660.121494745525,
      2819.4839428184678,
      3158.259420780142,
      7849.911843991799,
      7636.301037486966,
      106.7153899806992,
      2337.049441936083,
      -238.594342525485,
      2863.125537241866,
      -302.11069716045483,
      279.47708567371103,
      2763.8213983775477,
      -2645.696085899085,
      -670.4360447167038,
      -349.6535675100695,
      3833.873291672208,
      2428.4715247641648,
      7073.6717873109465,
      1732.0838153337909,
      -1787.6411732521715,
      -0.24974553434735153,
      6756.977855965555,
      2840.5806596894336,
      3276.376350085587,
      7980.707395937798,
      7799.279534488572,
      124.14712997271121,
      -2321.7066426262513,
      185.162920716889,
      -2853.185242721345,
      284.21897955119437,
      -293.4224493575453,
      -2732.695527213373,
      2558.3760583317344,
      654.9114639169002,
      398.4281930810687,
      -3781.362507746915,
      -2421.291670715389,
      -6961.942915657681,
      -1740.6495534637286,
      1765.9383264533735,
      -0.35653809532294045,
      -6696.994897210207,
      -2831.0577974412686,
      -3186.9867423216665,
      -7892.065322109598,
      -7681.449373519009,
      -111.15467825949418,
      2323.7623669061495,
      -175.36319512096253,
      2858.012266985023,
      -286.633717878099,
      291.49291284232567,
      2735.103397030549,
      -2548.386787558807,
      -653.760277572459,
      -403.1789658769978,
      3786.5824160543943,
      2437.691652405917,
      6974.382721750277,
      1749.6935351662273,
      -1758.3101576209526,
      0.417085512452971,
      6711.107915769624,
      2838.0083832311293,
      3173.6923083614925,
      7907.497205393252,
      7694.226009835187,
      108.82687628611494,
      2343.5313684306598,
      -240.20850010561583,
      2869.031961167076,
      -304.91895194516246,
      280.627928266696,
      2768.9363722140015,
      -2668.1602302595875,
      -672.8668986556163,
      -328.0312744440165,
      3839.1477902818147,
      2441.719251460173,
      7098.227949804039,
      1728.4444781996594,
      -1779.4549496724312,
      -0.14335858535382334,
      6754.118469941968,
      2843.2856352811814,
      3279.1239451179954,
      8008.694734478233,
      7828.07443437056,
      117.64520733910803,
      -2339.680670127656,
      236.6497257713254,
      -2864.423612587437,
      301.8637131725544,
      -280.67633345230036,
      -2762.169939993335,
      2646.3515968469073,
      675.3256330229785,
      347.1309228069244,
      -3835.3310927696393,
      -2428.0895051185344,
      -7072.982789763593,
      -1731.6253626701991,
      1794.4682315590599,
      0.11116136154036563,
      -6760.455412314806,
      -2841.559699578426,
      -3277.349262985082,
      -7983.054216848897,
      -7799.190663483416,
      -122.49672477951529,
      -2338.216425113414,
      220.442034120375,
      -2870.9897320866967,
      297.5306978345981,
      -287.01556093185286,
      -2750.1575306555196,
      2617.513258966812,
      670.4028490850798,
      383.5751499517375,
      -3822.258498743111,
      -2432.7022349940294,
      -7035.082948396802,
      -1731.697087722417,
      1790.7228175807884,
      -0.1425210265514513,
      -6748.712196900329,
      -2843.28246538577,
      -3259.200418458654,
      -7961.406445974609,
      -7761.149483247167,
      -122.80937809376715,
      2319.226633793279,
      -178.5611824974371,
      2855.0893195199374,
      -286.6118948076352,
      291.26745876686874,
      2731.2622465465015,
      -2547.5551179510367,
      -648.8338871941368,
      -403.11331502877994,
      3779.37750895837,
      2430.4416601874623,
      6961.036842756577,
      1745.6755208786992,
      -1756.449799546468,
      -0.44665867549643673,
      6697.053187758512,
      2833.045213307159,
      3173.4444620438967,
      7891.518608691498,
      7679.493657782636,
      110.6398310770478,
      -2335.9652239185284,
      241.0627779675742,
      -2863.3014465458577,
      303.0323448790451,
      -280.0918450959722,
      -2756.5582995477857,
      2649.6793352841114,
      671.375505719173,
      337.58097939291224,
      -3833.039260300617,
      -2426.091690660443,
      -7075.961917969159,
      -1730.767146689601,
      1793.3730315611585,
      0.07833996635464532,
      -6756.0157560913285,
      -2838.898213466863,
      -3274.647713627227,
      -7979.0285916461935,
      -7801.600251222368,
      -124.42472593883174,
      -2311.875733817401,
      175.14103714034775,
      -2844.282364932151,
      280.5228630059472,
      -290.45832170223133,
      -2723.784057169259,
      2545.9931326107007,
      645.4046339435283,
      404.3826017846697,
      -3759.5197359178082,
      -2417.275440980232,
      -6924.519725092453,
      -1732.7538537003547,
      1755.8642144605772,
      -0.20499262065232865,
      -6668.868550466277,
      -2820.412626478199,
      -3166.576020989218,
      -7853.987788877439,
      -7640.702014874284,
      -109.47581619244112,
      2338.6381636077203,
      -219.750774121421,
      2871.65670320282,
      -297.3396240382613,
      286.21865421216984,
      2754.0963895100585,
      -2619.6393042263608,
      -669.6076054845122,
      -383.9184557309977,
      3824.5961207816804,
      2434.849246639821,
      7040.533055166694,
      1733.287824436179,
      -1787.7710181756706,
      -0.08517652682130139,
      6751.22497960944,
      2844.04147949276,
      3260.2238343268223,
      7965.935624912705,
      7766.268465669709,
      122.69884878979363,
      -2323.5861658285544,
      172.92577823855237,
      -2851.312545904842,
      280.30403713733085,
      -292.9088786555094,
      -2734.7433571925912,
      2551.929259218443,
      655.978640894861,
      401.95476450627444,
      -3775.3721315408684,
      -2424.6761322310845,
      -6953.951828794102,
      -1740.4462819474743,
      1761.6881512683678,
      0.2396870227931973,
      -6693.4447799622985,
      -2830.202416442853,
      -3174.908228058315,
      -7889.468748090343,
      -7672.657593945545,
      -105.91436988963706,
      2320.885822319876,
      -184.05321973180733,
      2852.8466811272706,
      -282.6737358124026,
      290.6401557111501,
      2732.4870856868993,
      -2557.6902509941096,
      -653.9219554872471,
      -400.4912189232573,
      3777.849052790357,
      2420.876702150099,
      6955.929881725644,
      1738.2791025264876,
      -1765.1458549751344,
      0.14842623990353992,
      6693.01077536437,
      2829.947712661228,
      3180.9682062963575,
      7887.762045417092,
      7675.039852929989,
      110.51589510702355,
      -2321.712654752296,
      176.02469053991302,
      -2853.557289143048,
      284.55479314503197,
      -295.5004513681978,
      -2729.660901279848,
      2550.6080068842584,
      651.9239251293696,
      401.5336275268856,
      -3776.304099875215,
      -2427.464740833109,
      -6955.160311003431,
      -1741.4849445479865,
      1760.806301268059,
      0.4177305673338774,
      -6693.842182123626,
      -2830.744438308305,
      -3170.908311979875,
      -7889.563654396921,
      -7673.983055595629,
      -107.58344083453575,
      2323.98565453605,
      -176.06735639895177,
      2849.4110316947663,
      -281.35371891961705,
      291.8230578989281,
      2737.419479790407,
      -2554.221698669665,
      -655.4186122126054,
      -399.5602525466256,
      3778.1954741286518,
      2421.48995682193,
      6958.5975991167725,
      1739.3230294407695,
      -1762.1376906033206,
      -0.36608465295734566,
      6695.464193853224,
      2829.5841175961446,
      3176.7941879963973,
      7892.381960750579,
      7677.525228795214,
      105.60866986112784,
      -2345.4029218594706,
      194.93408316966634,
      -2865.5774734589327,
      295.0948716903715,
      -285.62602392744634,
      -2763.6543416915592,
      2587.6153109256306,
      665.9481871678195,
      377.98346586533273,
      -3822.71092521683,
      -2449.0951853054366,
      -7038.740766332513,
      -1751.275915250977,
      1768.4026876714051,
      0.19148955514114582,
      -6753.129048058437,
      -2850.1109997456642,
      -3208.9264252907396,
      -7973.846550007862,
      -7764.978712398995,
      -108.76041513384503,
      2321.621570239062,
      -170.09726056857727,
      2861.7411721714057,
      -285.9871650308405,
      296.30524105895387,
      2727.814198205433,
      -2542.5578665926605,
      -648.8305214711152,
      -413.4191098565674,
      3777.7489396105902,
      2446.2227614445223,
      6961.222579008805,
      1752.0503035351298,
      -1755.3568503607905,
      -0.2997784022184613,
      6708.651107885765,
      2839.6761891246238,
      3161.7636793848906,
      7898.716416999186,
      7680.746494740232,
      110.29584973726007,
      2322.1269158901164,
      -177.59680944812035,
      2851.1512419413048,
      -282.8076860051057,
      293.58252042762444,
      2733.2173228479023,
      -2559.4341740744912,
      -653.443429748992,
      -403.28355000969003,
      3778.904251327743,
      2420.0375265311495,
      6954.526287597177,
      1737.9609608884502,
      -1766.0979934530797,
      0.028291842633030053,
      6695.377840126954,
      2828.9003632452227,
      3182.1352174042777,
      7888.878092168251,
      7674.288110688469,
      109.6508113436351,
      -2341.5440583548243,
      240.07668337822633,
      -2867.6784411853455,
      303.1141361594024,
      -282.01631523865746,
      -2764.1575182019956,
      2665.2081228171483,
      675.0933263893668,
      331.28265592767764,
      -3839.658744608825,
      -2438.4333813692074,
      -7095.006147409727,
      -1729.5732890553,
      1783.339560472857,
      0.16059952488170187,
      -6756.356863905585,
      -2842.7204184500274,
      -3285.0852580256933,
      -8006.120310547165,
      -7824.683807780337,
      -120.04969393823363,
      2324.2882692418348,
      -175.53835866824988,
      2848.1765163272694,
      -280.6336171081401,
      291.87966428917144,
      2737.3325236252977,
      -2557.307069925445,
      -652.2361818569399,
      -399.1984812838511,
      3778.702844148541,
      2420.7853831676953,
      6955.205883130086,
      1738.0373350658692,
      -1764.0017433034059,
      -0.03661799233658478,
      6695.459782103721,
      2829.521462931938,
      3175.06052587874,
      7890.153974664518,
      7675.874700892522,
      106.3314241076158
    ],
    "b1": [
      4946.180877538193,
      4934.40787469917,
      -4919.087264625063,
      4924.9123153255405,
      4937.068535370466,
      4960.375385940559,
      -4918.758667306092,
      -4960.727055019423,
      -4969.518668528835,
      -4931.528193454049,
      4915.216063135991,
      4920.347164098035,
      4908.667076818335,
      4969.799410462284,
      -4931.3528373361905,
      4951.596119475889,
      4975.163593682277,
      -4966.314849379965,
      -4958.13281218546,
      4940.1881286033295,
      -4962.263289840939,
      -4912.58371596038,
      4963.507322582369,
      -4931.735659317159,
      4928.130520853101,
      -4932.700028566069,
      4932.666452602412,
      -4984.818008021755,
      4952.894655252958,
      4929.937246247744,
      -4972.546174757423,
      4931.645657073557
    ],
    "w2": [
      -10.303833611236715,
      -9.79071749356226,
      10.174814223360197,
      -10.044483325878414,
      -10.232475498978957,
      -9.843124692227843,
      10.49926100061722,
      9.718816524857495,
      9.87369468967464,
      10.07793030943802,
      -10.296427134113497,
      -10.46616346480815,
      -10.694882151648983,
      -10.250650353252258,
      9.842147492451138,
      -10.080851279058228,
      -10.73522724102325,
      10.772763959620221,
      10.161509985401764,
      -9.989106620525035,
      10.537515127533524,
      10.050507876631945,
      -10.568089043467603,
      10.057399165085833,
      -10.60851177204809,
      10.467271479588192,
      -10.20722763113468,
      10.40196785942298,
      -9.956786696734651,
      -9.964664347212587,
      10.540299885949914,
      -10.333907299518655,
      -10.27788584327437,
      -10.738673441665743,
      10.049893392084822,
      -9.852954032695058,
      -10.377526411696909,
      -10.507563006907867,
      10.300873325666451,
      10.014924404109681,
      10.708982890189208,
      10.272354321080483,
      -9.845040713067654,
      -10.30027739612606,
      -10.080367698544112,
      -10.622797780086511,
      10.047945645803392,
      -10.711455361228825,
      -10.927610478172378,
      10.730540967339527,
      10.285017035574121,
      -10.507343054837847,
      10.710821108761644,
      10.12994074293076,
      -10.655394690707146,
      9.78224369215625,
      -10.355608606395853,
      10.38257483234981,
      -10.171471527578259,
      10.206456120464924,
      -9.929323917057403,
      -10.188347051111158,
      10.702793114295499,
      -10.103643830968416,
      10.140048092651444,
      9.777635416434723,
      -10.542459723166317,
      10.06907837642604,
      10.577664762998925,
      10.369522595900968,
      -10.01639133330151,
      -9.976774642201974,
      -10.115019610743378,
      -10.411618497683225,
      10.344459375105234,
      10.651250349591702,
      10.041462240312772,
      10.362362478253662,
      -9.953015248685983,
      9.673959663853857,
      10.322855418981048,
      -9.90853320082493,
      -10.51523241438699,
      9.662085976085816,
      -10.115015922782113,
      -9.770703105143662,
      10.267640486221424,
      -10.0924070866625,
      10.654263089064337,
      -10.640001789625568,
      9.967215254264374,
      -10.233849257724419,
      10.238399866656636,
      10.064509058105934,
      -10.677413089567889,
      10.748057706165541,
      -10.707219591602453,
      -9.919240781564143,
      10.406529720849337,
      -10.029306711855135,
      -10.634395946874928,
      -10.469507341395442,
      10.42351053511542,
      10.39736545578096,
      9.960590255738019,
      10.69307731501151,
      -10.22150835507049,
      -9.92705664839056,
      -10.17940769586696,
      -10.22664735633937,
      10.516459880046543,
      -10.394254884937073,
      -10.588343056459317,
      10.597037680725506,
      10.526824974125176,
      -9.650270871886814,
      10.389537314331216,
      9.776007646335971,
      -10.21041501178001,
      10.621960790242012,
      -10.252842799097918,
      10.184886067598049,
      -10.582219072034787,
      10.112477889645298,
      -9.594341694310037,
      -9.955336880894368,
      10.24170795289747,
      -9.924906215091958,
      -9.971671966696256,
      -10.279135970112318,
      10.35775528339083,
      -9.747439116953577,
      -10.076814054518081,
      -10.61984489894797,
      10.03789714170069,
      10.43996555264409,
      10.686707739933844,
      10.319029318810255,
      -10.2106246989818,
      -10.354508280362406,
      -9.597313359693167,
      -10.622273861379266,
      10.575158473303569,
      -10.51864546844662,
      -10.784682287665934,
      10.359681689033454,
      10.423870842864911,
      -10.86108599786747,
      10.794447773972653,
      10.49193975311449,
      -10.418611879282686,
      9.868815262562613,
      -9.971692483186425,
      10.121701398633828,
      -9.921378888096536,
      10.659405349651639,
      -10.074825801980966,
      -10.153288159305761,
      10.767153306196553,
      -10.095563549204197,
      -11.293626514590887,
      -10.525171434018597,
      10.94734584838945,
      -10.556637016479064,
      -10.673654654476191,
      -10.744338217317766,
      10.717292801010963,
      10.83225642896846,
      10.884765100360536,
      10.528238548386394,
      -10.20938294273122,
      -10.903321422861243,
      -11.036298702023515,
      -10.835368071359412,
      10.627883140591738,
      -10.86562449117286,
      -11.378431859769597,
      11.274556755682775,
      10.346057550429911,
      -10.359549484088475,
      11.065315877471482,
      11.23998984163504,
      -11.117316543797484,
      11.683356413836655,
      -10.653193436146708,
      10.606618345617587,
      -11.491595031012498,
      11.267368523213456,
      -10.280451793389549,
      -10.761705990533514,
      11.077233046490914,
      -11.53138369687785,
      -10.39267954884777,
      -10.216492734299806,
      10.347716105690578,
      -10.53147262715337,
      -9.98051998893568,
      -10.540728778686411,
      9.698722881184384,
      10.229485600853934,
      10.874075609729099,
      9.758466874773589,
      -10.18248947581785,
      -9.590996219984191,
      -9.667539714370351,
      -10.705068447750216,
      10.126701903111318,
      -10.421280326928066,
      -10.922390426586908,
      10.511723061390814,
      10.730499207622785,
      -10.21381982887885,
      10.73783387740491,
      10.37657769994701,
      -10.51534358843009,
      10.090801777186204,
      -10.37265770745313,
      10.514722430031272,
      -10.396145985899627,
      10.66424984532895,
      -10.452826626304475,
      -10.32993027578983,
      10.679952111161477,
      -9.784092509488609,
      10.356946741782247,
      10.560226349473362,
      -9.738438626346854,
      10.197064593166104,
      9.993972511604008,
      10.599279566825674,
      -9.98346848607325,
      -10.428880494679522,
      -10.50330605434155,
      -10.616823837828573,
      9.873473581313249,
      9.731203737696728,
      9.689796445571307,
      10.425235200733107,
      -10.021055595710223,
      10.021503639616299,
      10.799148774375176,
      -10.527466893334603,
      -10.55924453000899,
      10.85695303711331,
      -10.655821676835274,
      -9.935863943013903,
      10.254022146483901,
      -10.221552518242522,
      10.047494375946869,
      -10.269298070436708,
      10.421468604159198,
      -10.564025610630528,
      10.60311119555978,
      10.296330858718356,
      -10.674409437502586,
      9.755370500360062,
      10.242911062523644,
      10.437135596325863,
      -9.85403585118346,
      10.250118492017641,
      9.976666091578794,
      10.010595310956264,
      -9.737523810898978,
      -10.398551340811455,
      -10.709830602553001,
      -9.770122108327193,
      10.080964285366985,
      10.247475268635696,
      10.253113271923425,
      10.912656123887995,
      -10.227218271707564,
      10.366233044270555,
      10.172339282268137,
      -10.103776396412307,
      -10.362406518149761,
      10.511345099908432,
      -10.938726428109888,
      -9.966790249332394,
      10.142060090993397,
      -10.002897613687223,
      10.490466536818621,
      -9.792121788636294,
      9.839168556751538,
      -10.595443281868825,
      10.361939202027216,
      9.98534096315596,
      -10.343712595070603,
      10.343787301339578,
      9.947978514099699,
      10.429859802592611,
      -9.609884121728802,
      10.194912651594969,
      9.837310105643759,
      10.787357829329695,
      -9.741151164870573,
      -10.74314425674266,
      -10.886801500817601,
      -10.14846592430629,
      9.723488155607892,
      9.783196921854291,
      9.672389649559308,
      10.557727509549057,
      -10.535355609743233,
      10.424357415223986,
      10.53833994770634,
      -10.31756258505188,
      -10.129958121670262,
      10.417089547636804,
      -10.083506203993416,
      -10.239000284371794,
      10.022266308938734,
      -10.164916936334237,
      9.992446368096164,
      -10.061958647484014,
      9.773076057591863,
      -10.193444080622704,
      10.787040420669815,
      10.108358084673082,
      -10.77394071995289,
      9.974332140166648,
      -9.969517306039275,
      -9.887955506253316,
      9.981641500181045,
      -10.594397250647251,
      -9.970964752544745,
      -10.438620457889062,
      10.322819864293148,
      10.103208069672753,
      10.583678643001802,
      9.938673072700535,
      -10.44583268879152,
      -9.895403336274182,
      -9.870772670190641,
      -10.14167436763356,
      9.97940519016618,
      -9.655666373365428,
      -10.395545705862826,
      10.614507608214048,
      9.994912127867149,
      -10.001344568875616,
      10.040973998542967,
      9.843822684978813,
      -10.471404876166403,
      10.38220945590524,
      -9.955085334445945,
      9.998385123638265,
      -10.742496251241805,
      10.664017563406627,
      -9.60946639308024,
      -10.802573598617341,
      10.469921642293272,
      -10.28828419508577,
      -10.029185603126473,
      -10.614818039568888,
      9.923801329631821,
      -10.30752987833148,
      -10.584448625048662,
      -10.098098597584173,
      9.774541867740325,
      10.333856395508793,
      10.91118903616466,
      10.333833381418579,
      -10.22783628452293,
      -10.218979722734652,
      -9.664941738708574,
      -10.708420437372297,
      10.43829940477918,
      -10.763944942609534,
      -10.819715302651817,
      10.40023639395994,
      10.791748284184248,
      -10.186394750207791,
      10.061150684026776,
      10.255066742179132,
      -10.657396166719039,
      9.952036742151646,
      -10.052501097867758,
      9.750511803690863,
      -9.701411675977504,
      10.503833744985105,
      -10.714455328283428,
      -10.16795035282514,
      10.816242425691447,
      -10.245897650904158
    ],
    "b2": [
      -14.502069234573788,
      -14.553816365376079,
      14.459201762040998,
      -14.517046518057468,
      -14.647350097064946,
      -14.42240832574571,
      -14.552211741043863,
      14.55676573266081,
      14.482659703489333,
      14.438183732259443,
      -14.56231627923572,
      -14.541282403144013
    ]
  },
  "best": {
    "version": 1,
    "generation": 5,
    "fitness": 28.546559334281394,
    "w1": [
      -0.3994062542915344,
      -0.7651268243789673,
      0.027291148900985718,
      0.2632771134376526,
      -0.5696856379508972,
      -1.0257360935211182,
      -2.4400763511657715,
      1.7589471340179443,
      -0.5726681351661682,
      -0.05611296743154526,
      0.18609847128391266,
      1.977664828300476,
      1.1056756973266602,
      2.3877525329589844,
      -0.3164556324481964,
      -0.04775293171405792,
      0.11506146937608719,
      -0.31928345561027527,
      0.41629576683044434,
      0.5707927346229553,
      0.20740234851837158,
      0.1835007220506668,
      0.585716724395752,
      0.17859700322151184,
      1.5125523805618286,
      -1.3438777923583984,
      0.9239645004272461,
      0.1378546953201294,
      0.19513633847236633,
      -1.350600242614746,
      -0.7154653668403625,
      -1.705404281616211,
      -0.18228289484977722,
      0.08067061007022858,
      -0.23639798164367676,
      0.3812035322189331,
      0.3404809534549713,
      0.9443739056587219,
      -0.0724421963095665,
      0.3536253869533539,
      -0.17346492409706116,
      0.5327463746070862,
      2.525367259979248,
      -1.5392717123031616,
      0.5737177133560181,
      -0.4241286814212799,
      0.34573718905448914,
      -1.897196888923645,
      -1.1173779964447021,
      -2.454632520675659,
      0.020663268864154816,
      0.3411136865615845,
      -0.8943453431129456,
      -0.20799264311790466,
      -0.5914196372032166,
      -0.6758168339729309,
      -0.01452596765011549,
      -0.5235717296600342,
      -0.17328453063964844,
      -0.014098551124334335,
      -1.2323319911956787,
      1.4019337892532349,
      -0.7317596077919006,
      0.6160705089569092,
      -0.3419733941555023,
      1.19796621799469,
      1.0799022912979126,
      1.941423773765564,
      -0.16385643184185028,
      -0.011687973514199257,
      -0.0360308438539505,
      0.11482211947441101,
      -0.3280123472213745,
      0.44787418842315674,
      0.4011639654636383,
      -0.29282888770103455,
      0.5095741152763367,
      0.14946070313453674,
      0.8278957009315491,
      0.08648776262998581,
      0.3316192626953125,
      0.12818408012390137,
      0.8438039422035217,
      0.08133652061223984,
      -0.21666742861270905,
      -0.5728370547294617,
      0.3937201201915741,
      -0.12386290729045868,
      -0.18814803659915924,
      0.378500759601593,
      -0.122168630361557,
      -0.8199781179428101,
      0.302386611700058,
      0.0789140909910202,
      0.020081983879208565,
      0.22849883139133453,
      -1.1966185569763184,
      0.7685020565986633,
      0.1094309538602829,
      -0.16236111521720886,
      0.4520258605480194,
      0.8965368866920471,
      0.6727986931800842,
      1.2037599086761475,
      -0.33482426404953003,
      0.38458892703056335,
      0.2686537206172943,
      -0.2433357834815979,
      -0.1896751970052719,
      -0.37865495681762695,
      -0.07360304147005081,
      0.16604188084602356,
      -0.047524601221084595,
      0.13196666538715363,
      -0.7956483960151672,
      0.36519190669059753,
      -0.40615811944007874,
      0.3751595616340637,
      0.24685324728488922,
      0.7625869512557983,
      0.25584277510643005,
      0.6448165774345398,
      -0.3804982900619507,
      0.31607770919799805,
      0.3043707609176636,
      0.041897933930158615,
      -0.0480947382748127,
      0.02185891382396221,
      0.2883450388908386,
      0.2392721325159073,
      -0.05852622166275978,
      0.1551152467727661,
      -0.09117774665355682,
      -0.19776104390621185,
      -0.1235552579164505,
      -0.4050866663455963,
      -0.339387983083725,
      -0.1285354644060135,
      0.2583138644695282,
      -0.04594196006655693,
      -0.16186587512493134,
      -0.14081250131130219,
      0.3600705862045288,
      -0.38950079679489136,
      0.4675583243370056,
      0.9954923987388611,
      -0.42523807287216187,
      -0.10124769061803818,
      -0.20893554389476776,
      0.47495806217193604,
      1.6065361499786377,
      -1.6186366081237793,
      -0.23774266242980957,
      -0.2858012318611145,
      -0.43995773792266846,
      -1.7342876195907593,
      -0.3807825744152069,
      -1.4101427793502808,
      -0.6084129810333252,
      -0.04399770498275757,
      -0.7383806705474854,
      0.5947549939155579,
      0.32456037402153015,
      0.9751483798027039,
      -0.7125570774078369,
      0.3784295320510864,
      0.2784693241119385,
      0.7685738801956177,
      2.1493515968322754,
      -1.3428335189819336,
      0.9067649245262146,
      -0.005968289449810982,
      0.313984215259552,
      -1.8145368099212646,
      -1.204524040222168,
      -1.9925405979156494,
      -0.4195702373981476,
      -0.44232988357543945,
      0.02298126555979252,
      0.03252558037638664,
      0.47062036395072937,
      0.0008800419745966792,
      0.20897194743156433,
      -0.2688475549221039,
      -0.2417793720960617,
      0.046465277671813965,
      0.25650259852409363,
      0.321302592754364,
      0.3886432349681854,
      -0.18749694526195526,
      -0.18463380634784698,
      -0.5301935076713562,
      -0.12907128036022186,
      0.1588553935289383,
      0.43448203802108765,
      -0.36267414689064026,
      0.31488037109375,
      -0.29018735885620117,
      0.3625762462615967,
      1.0390729904174805,
      -0.48843133449554443,
      -0.08145701885223389,
      -0.022286122664809227,
      0.5805952548980713,
      2.8283135890960693,
      -1.9788508415222168,
      0.43404650688171387,
      -0.04503921419382095,
      -0.14534831047058105,
      -2.0990309715270996,
      -1.1813420057296753,
      -2.31000018119812,
      0.09047763794660568,
      -0.18138760328292847,
      -0.7904905080795288,
      0.24174632132053375,
      0.04445222020149231,
      1.1022322177886963,
      -0.17307789623737335,
      0.31594735383987427,
      0.002606079913675785,
      0.5076795816421509,
      1.5713142156600952,
      -1.7387832403182983,
      0.5121618509292603,
      0.2867869436740875,
      0.3740190267562866,
      -1.4309723377227783,
      -1.0418583154678345,
      -1.6690109968185425,
      0.04825489968061447,
      0.2502528429031372,
      -0.026178615167737007,
      0.37206047773361206,
      0.1802382618188858,
      -0.49190306663513184,
      -0.19432805478572845,
      -0.053844064474105835,
      0.2816537320613861,
      -0.16460150480270386,
      -0.010068635456264019,
      -0.15233662724494934,
      0.39944374561309814,
      0.2981308400630951,
      0.4393652677536011,
      -0.20345130562782288,
      -0.30000025033950806,
      0.2142476588487625,
      -0.18624508380889893,
      0.017597053200006485,
      0.08837942034006119,
      -0.2087855488061905,
      -0.5439894199371338,
      -1.1600924730300903,
      0.12109817564487457,
      0.44704246520996094,
      -0.3694704473018646,
      -0.47547218203544617,
      -1.3574228286743164,
      1.2985355854034424,
      -0.3872162401676178,
      -0.27144375443458557,
      -0.13495606184005737,
      1.997359037399292,
      0.6930831074714661,
      2.062978982925415,
      -0.3115842044353485,
      -0.07872191816568375,
      -0.024484749883413315,
      -0.2011047750711441,
      0.7525861263275146,
      0.2889418601989746,
      -0.5453870892524719,
      -0.38118869066238403,
      -0.17521043121814728,
      0.5764999389648438,
      1.6433244943618774,
      -1.277115821838379,
      0.2906423509120941,
      0.32126784324645996,
      0.037555892020463943,
      -1.3600506782531738,
      -1.0091078281402588,
      -1.0418967008590698,
      0.3547966778278351,
      0.06841542571783066,
      -0.5647748112678528,
      0.29758700728416443,
      -0.6751107573509216,
      -0.44719424843788147,
      0.209178164601326,
      -0.16552235186100006,
      -0.6964843273162842,
      -0.2707652151584625,
      -2.1384549140930176,
      1.0210469961166382,
      -0.6817641854286194,
      0.06318582594394684,
      -0.058014191687107086,
      1.2195364236831665,
      0.5230585932731628,
      1.9522161483764648,
      0.007845924235880375,
      0.16164326667785645,
      0.7414644956588745,
      -0.2938985228538513,
      -0.32708311080932617,
      -0.48978790640830994,
      -0.03312945365905762,
      0.6392363905906677,
      0.40532469749450684,
      0.2273963838815689,
      -0.9200951457023621,
      1.246115803718567,
      -0.7579906582832336,
      0.28355973958969116,
      0.3300584554672241,
      1.5605859756469727,
      0.4982398748397827,
      1.5571900606155396,
      -0.4290953576564789,
      0.2573361098766327,
      0.43880248069763184,
      -0.14573657512664795,
      0.8728733062744141,
      1.0261507034301758,
      -0.05628909543156624,
      -0.17960168421268463,
      0.5742394328117371,
      0.7803587913513184,
      2.5511467456817627,
      -1.430766224861145,
      1.2028419971466064,
      -0.14541871845722198,
      -0.3343532681465149,
      -1.5988013744354248,
      -1.321529507637024,
      -2.3917455673217773,
      0.347072958946228,
      0.25480130314826965,
      -0.4904164671897888,
      0.25432106852531433,
      -0.27366524934768677,
      -0.6672435402870178,
      0.5750869512557983,
      0.02514675073325634,
      -0.054028674960136414,
      -0.35160642862319946,
      -2.039630651473999,
      1.5980918407440186,
      -0.7089014649391174,
      0.13142913579940796,
      -0.45974838733673096,
      1.3951431512832642,
      1.1510244607925415,
      1.8172225952148438,
      -0.35300660133361816,
      0.28507566452026367,
      -0.017108812928199768,
      -0.4462277293205261
    ],
    "b1": [
      2.2568483352661133,
      -1.6524220705032349,
      -2.2271509170532227,
      1.5751274824142456,
      -0.41015493869781494,
      1.1597343683242798,
      0.78263920545578,
      0.05407709255814552,
      -1.7210179567337036,
      -1.9446985721588135,
      -0.060709428042173386,
      -2.473588228225708,
      -1.6444655656814575,
      0.11289023607969284,
      2.0389044284820557,
      -1.4018104076385498,
      1.814719319343567,
      1.2520055770874023,
      -2.1201274394989014,
      2.26900053024292
    ],
    "w2": [
      -0.6934899687767029,
      0.4938284158706665,
      0.8971662521362305,
      -0.3524320721626282,
      0.15138128399848938,
      -0.3612721264362335,
      -0.6338327527046204,
      0.11141952127218246,
      0.4134312570095062,
      0.9414479732513428,
      0.14334537088871002,
      0.548052191734314,
      0.4797624945640564,
      0.42101114988327026,
      -1.1070499420166016,
      0.8208234310150146,
      -0.6604495048522949,
      -0.6810213923454285,
      0.5495132207870483,
      -0.8190319538116455,
      0.48306265473365784,
      -0.05304813012480736,
      -0.4191417396068573,
      0.10720919817686081,
      -0.4834662973880768,
      -0.28318193554878235,
      0.050266388803720474,
      -0.08554960787296295,
      -0.6059390902519226,
      -0.6053386926651001,
      0.1565587818622589,
      -0.7876685857772827,
      -0.09279804676771164,
      -0.5450547337532043,
      0.13480620086193085,
      -0.6300139427185059,
      0.4267284870147705,
      0.6378585696220398,
      -0.2931648790836334,
      0.6709885597229004,
      1.150865912437439,
      -1.0148097276687622,
      -1.1891450881958008,
      1.053492546081543,
      0.2354196012020111,
      0.8889941573143005,
      0.17230117321014404,
      -0.16852793097496033,
      -0.921829879283905,
      -0.7725739479064941,
      -0.3725583553314209,
      -1.1716676950454712,
      -0.9814938902854919,
      0.08228915184736252,
      0.9316682815551758,
      -0.6462266445159912,
      0.5214474201202393,
      0.5361721515655518,
      -1.288611650466919,
      0.8147151470184326,
      -1.1685105562210083,
      1.0344973802566528,
      1.3169808387756348,
      -1.1353461742401123,
      0.2266768366098404,
      -0.6589767336845398,
      -0.8003031015396118,
      -0.5585968494415283,
      0.8028956055641174,
      1.2056491374969482,
      -0.1651608645915985,
      1.1848561763763428,
      1.1812201738357544,
      -0.15729111433029175,
      -0.8436658978462219,
      0.6536636352539062,
      -0.9984987378120422,
      -0.9710839986801147,
      1.3229771852493286,
      -0.8493071794509888
    ],
    "b2": [
      -0.7917055487632751,
      0.49916091561317444,
      1.1365119218826294,
      -1.2629605531692505
    ]
  },
  "totalMatches": 128,
  "totalGoalEvents": 720,
  "totalSyncs": 851,
  "updatedAt": "2026-07-22T03:38:07.089Z",
  "progressLog": [
    {
      "ts": "2026-07-03T06:58:45.034Z",
      "generation": 116,
      "fitness": 18.154324026731437,
      "botDelta": 1,
      "aerialTouches": 0
    },
    {
      "ts": "2026-07-03T06:58:45.042Z",
      "generation": 117,
      "fitness": 18.78113447134728,
      "botDelta": 1,
      "aerialTouches": 0
    },
    {
      "ts": "2026-07-03T06:58:45.101Z",
      "generation": 118,
      "fitness": 19.34112032456239,
      "botDelta": 1,
      "aerialTouches": 0
    },
    {
      "ts": "2026-07-03T07:09:32.663Z",
      "generation": 120,
      "fitness": 21.675333841812936,
      "botDelta": 1,
      "aerialTouches": 0
    },
    {
      "ts": "2026-07-03T07:09:32.665Z",
      "generation": 121,
      "fitness": 21.827428400033632,
      "botDelta": 1,
      "aerialTouches": 0
    },
    {
      "ts": "2026-07-03T07:09:32.666Z",
      "generation": 122,
      "fitness": 21.89419426082312,
      "botDelta": 1,
      "aerialTouches": 0
    },
    {
      "ts": "2026-07-03T07:19:12.664Z",
      "generation": 124,
      "fitness": 22.549146070020868,
      "botDelta": 1,
      "aerialTouches": 0
    },
    {
      "ts": "2026-07-03T07:19:12.685Z",
      "generation": 125,
      "fitness": 22.598813618426753,
      "botDelta": 1,
      "aerialTouches": 0
    },
    {
      "ts": "2026-07-03T07:19:12.726Z",
      "generation": 126,
      "fitness": 22.64318608335627,
      "botDelta": 1,
      "aerialTouches": 0
    },
    {
      "ts": "2026-07-03T08:27:55.264Z",
      "generation": 127,
      "fitness": 25.098529826071257,
      "botDelta": -3,
      "aerialTouches": 0
    },
    {
      "ts": "2026-07-03T08:27:55.265Z",
      "generation": 128,
      "fitness": 25.59601076889895,
      "botDelta": -3,
      "aerialTouches": 0
    },
    {
      "ts": "2026-07-03T08:27:55.324Z",
      "generation": 129,
      "fitness": 26.040455006579705,
      "botDelta": -3,
      "aerialTouches": 0
    },
    {
      "ts": "2026-07-03T08:53:08.001Z",
      "generation": 131,
      "fitness": 24.59140309607783,
      "botDelta": 1,
      "aerialTouches": 0
    },
    {
      "ts": "2026-07-03T08:53:08.004Z",
      "generation": 132,
      "fitness": 24.35956924534234,
      "botDelta": 1,
      "aerialTouches": 0
    },
    {
      "ts": "2026-07-03T08:53:08.080Z",
      "generation": 133,
      "fitness": 24.152451323451576,
      "botDelta": 1,
      "aerialTouches": 0
    },
    {
      "ts": "2026-07-03T10:03:27.791Z",
      "generation": 135,
      "fitness": 20.886596304529792,
      "botDelta": -1,
      "aerialTouches": 0
    },
    {
      "ts": "2026-07-03T10:03:27.805Z",
      "generation": 136,
      "fitness": 19.64624792772172,
      "botDelta": -1,
      "aerialTouches": 0
    },
    {
      "ts": "2026-07-03T10:03:27.845Z",
      "generation": 137,
      "fitness": 18.538133744180087,
      "botDelta": -1,
      "aerialTouches": 0
    },
    {
      "ts": "2026-07-03T10:19:08.485Z",
      "generation": 138,
      "fitness": 24.70089174717817,
      "botDelta": -2,
      "aerialTouches": 0
    },
    {
      "ts": "2026-07-03T10:19:08.488Z",
      "generation": 139,
      "fitness": 25.326024056644435,
      "botDelta": -2,
      "aerialTouches": 0
    },
    {
      "ts": "2026-07-03T10:19:08.493Z",
      "generation": 140,
      "fitness": 25.6004421373247,
      "botDelta": -2,
      "aerialTouches": 0
    },
    {
      "ts": "2026-07-03T10:35:24.736Z",
      "generation": 142,
      "fitness": 24.360422263996224,
      "botDelta": 1,
      "aerialTouches": 0
    },
    {
      "ts": "2026-07-03T10:35:24.745Z",
      "generation": 143,
      "fitness": 24.16087887849416,
      "botDelta": 1,
      "aerialTouches": 0
    },
    {
      "ts": "2026-07-03T10:35:24.783Z",
      "generation": 144,
      "fitness": 23.982608918343303,
      "botDelta": 1,
      "aerialTouches": 0
    },
    {
      "ts": "2026-07-03T14:39:48.492Z",
      "generation": 146,
      "fitness": 20.180579222989284,
      "botDelta": -1.3333333333333333,
      "aerialTouches": 0
    },
    {
      "ts": "2026-07-03T15:28:07.271Z",
      "generation": 148,
      "fitness": 21.98001718091728,
      "botDelta": 1,
      "aerialTouches": 0
    },
    {
      "ts": "2026-07-03T15:28:07.273Z",
      "generation": 149,
      "fitness": 22.09488981161723,
      "botDelta": 1,
      "aerialTouches": 0
    },
    {
      "ts": "2026-07-03T15:28:07.274Z",
      "generation": 150,
      "fitness": 22.145316139551362,
      "botDelta": 1,
      "aerialTouches": 0
    },
    {
      "ts": "2026-07-03T16:25:56.367Z",
      "generation": 151,
      "fitness": 25.102417642302434,
      "botDelta": -2.2,
      "aerialTouches": 0
    },
    {
      "ts": "2026-07-03T16:43:22.008Z",
      "generation": 154,
      "fitness": 21.989006741826337,
      "botDelta": -0.6,
      "aerialTouches": 0
    },
    {
      "ts": "2026-07-04T12:40:59.868Z",
      "generation": 156,
      "fitness": 23.013185806896633,
      "botDelta": 1,
      "aerialTouches": 0
    },
    {
      "ts": "2026-07-04T12:40:59.919Z",
      "generation": 157,
      "fitness": 22.998410279241035,
      "botDelta": 1,
      "aerialTouches": 0
    },
    {
      "ts": "2026-07-04T21:12:51.098Z",
      "generation": 158,
      "fitness": 25.13426355876082,
      "botDelta": -5,
      "aerialTouches": 0
    },
    {
      "ts": "2026-07-04T21:12:51.109Z",
      "generation": 159,
      "fitness": 25.62027311578558,
      "botDelta": -5,
      "aerialTouches": 0
    },
    {
      "ts": "2026-07-04T21:12:51.183Z",
      "generation": 160,
      "fitness": 26.05446893814142,
      "botDelta": -5,
      "aerialTouches": 0
    },
    {
      "ts": "2026-07-04T21:34:42.792Z",
      "generation": 162,
      "fitness": 22.733452960968613,
      "botDelta": 0,
      "aerialTouches": 0
    },
    {
      "ts": "2026-07-04T21:34:42.798Z",
      "generation": 163,
      "fitness": 21.9933899541997,
      "botDelta": 0,
      "aerialTouches": 0
    },
    {
      "ts": "2026-07-04T21:34:42.888Z",
      "generation": 164,
      "fitness": 21.33222545408927,
      "botDelta": 0,
      "aerialTouches": 0
    },
    {
      "ts": "2026-07-04T22:08:43.249Z",
      "generation": 166,
      "fitness": 23.187634858231657,
      "botDelta": 1,
      "aerialTouches": 0
    },
    {
      "ts": "2026-07-04T22:08:43.254Z",
      "generation": 167,
      "fitness": 23.15726183202158,
      "botDelta": 1,
      "aerialTouches": 0
    },
    {
      "ts": "2026-07-04T22:08:43.339Z",
      "generation": 168,
      "fitness": 23.130126890121556,
      "botDelta": 1,
      "aerialTouches": 0
    },
    {
      "ts": "2026-07-05T00:42:20.088Z",
      "generation": 169,
      "fitness": 24.98388685024326,
      "botDelta": -3,
      "aerialTouches": 0
    },
    {
      "ts": "2026-07-05T00:42:20.095Z",
      "generation": 170,
      "fitness": 25.518170939743158,
      "botDelta": -3,
      "aerialTouches": 0
    },
    {
      "ts": "2026-07-05T00:42:20.097Z",
      "generation": 171,
      "fitness": 25.75270883221546,
      "botDelta": -3,
      "aerialTouches": 0
    },
    {
      "ts": "2026-07-05T00:51:30.464Z",
      "generation": 172,
      "fitness": 25.227660845301912,
      "botDelta": -5,
      "aerialTouches": 0
    },
    {
      "ts": "2026-07-05T00:51:30.472Z",
      "generation": 173,
      "fitness": 25.6836876318121,
      "botDelta": -5,
      "aerialTouches": 0
    },
    {
      "ts": "2026-07-05T00:51:30.524Z",
      "generation": 174,
      "fitness": 26.091097162598338,
      "botDelta": -5,
      "aerialTouches": 0
    },
    {
      "ts": "2026-07-09T21:07:06.808Z",
      "generation": 176,
      "fitness": 23.310576527556336,
      "botDelta": 1,
      "aerialTouches": 0
    },
    {
      "ts": "2026-07-09T21:07:06.811Z",
      "generation": 177,
      "fitness": 23.264991878039815,
      "botDelta": 1,
      "aerialTouches": 0
    },
    {
      "ts": "2026-07-09T21:07:06.879Z",
      "generation": 178,
      "fitness": 23.22426703200017,
      "botDelta": 1,
      "aerialTouches": 0
    },
    {
      "ts": "2026-07-10T22:14:58.224Z",
      "generation": 183,
      "fitness": 2.8220975111030153,
      "botDelta": -1.3333333333333333,
      "aerialTouches": 0
    },
    {
      "ts": "2026-07-11T17:56:01.606Z",
      "generation": 185,
      "fitness": 2.9771056940685723,
      "botDelta": -1,
      "aerialTouches": 0
    },
    {
      "ts": "2026-07-11T17:56:01.612Z",
      "generation": 186,
      "fitness": 2.032488956204192,
      "botDelta": -1,
      "aerialTouches": 0
    },
    {
      "ts": "2026-07-11T17:56:01.679Z",
      "generation": 187,
      "fitness": 1.4868783284137266,
      "botDelta": -1,
      "aerialTouches": 0
    },
    {
      "ts": "2026-07-11T19:33:53.088Z",
      "generation": 189,
      "fitness": 1.816506839981664,
      "botDelta": -1,
      "aerialTouches": 0
    },
    {
      "ts": "2026-07-11T19:33:53.091Z",
      "generation": 190,
      "fitness": 1.2387622410797927,
      "botDelta": -1,
      "aerialTouches": 0
    },
    {
      "ts": "2026-07-11T19:33:53.117Z",
      "generation": 191,
      "fitness": 0.9851462280322452,
      "botDelta": -1,
      "aerialTouches": 0
    }
  ],
  "githubPushedAt": "2026-07-22T03:38:08.010Z",
  "githubPushReason": "goal"
}