{
  "active": {
    "version": 1,
    "generation": 18,
    "fitness": 24.150356064891092,
    "w1": [
      -990.0789063017046,
      -574.599811156514,
      1330.520673889955,
      534.1888921950621,
      -1058.650782787147,
      -1217.3680496830018,
      -9405.499932698913,
      822.7281778199292,
      1604.248170302903,
      3097.4680376055658,
      9865.376750692796,
      9562.73699423134,
      2909.735326147511,
      10036.117617032432,
      -0.3164556324481964,
      -0.0767558881800008,
      1878.1244529095748,
      -9296.749577946843,
      991.7552233852076,
      574.8893159242617,
      -1332.274877051138,
      -535.2767493251591,
      1059.8401041423992,
      1217.7173403791976,
      9417.128215450299,
      -823.6490825403985,
      -1607.922651582533,
      -3102.118408224839,
      -9878.631307773405,
      -9575.630471252338,
      -2912.209563794262,
      -10048.729081776635,
      -0.18228289484977714,
      0.08067061007022858,
      -1880.7832388851882,
      9309.669503322202,
      990.2833171986664,
      575.7233951473046,
      -1332.088417759057,
      -533.8981241383285,
      1058.570033621064,
      1217.5304282290058,
      9415.549153226606,
      -822.5502108373344,
      -1606.5750038414433,
      -3101.202121216568,
      -9875.313630855435,
      -9572.730201967079,
      -2912.7054707045518,
      -10046.71548650897,
      0.020663268864154816,
      0.3411136865615845,
      -1880.9111038513024,
      9306.145041737158,
      -992.4159795381105,
      -575.0765661230382,
      1333.143695422518,
      535.3896113631188,
      -1059.9300056013042,
      -1217.902294504329,
      -9420.677403877839,
      823.9931841543453,
      1609.3996477325554,
      3104.1539719527354,
      9882.659890758978,
      9579.629935872608,
      2913.45886939778,
      10053.072531349384,
      -0.16385643184185028,
      0.013518424906831663,
      1881.3253788277802,
      -9313.29785198679,
      989.7785411571253,
      568.7825052100966,
      -1321.8650262089322,
      -534.0085109531519,
      1056.3212054775931,
      1213.1764697811404,
      9349.70208927809,
      -823.8607626119413,
      -1593.1898389852108,
      -3079.282999372115,
      -9807.861693790788,
      -9507.2322543533,
      -2891.6501084041206,
      -9977.268381098731,
      0.36938074826109324,
      -0.12386290729045861,
      -1866.7078774354843,
      9244.110493726672,
      -992.237649185273,
      -574.1819217098829,
      1331.9839610886338,
      536.1715822551748,
      -1059.435444951567,
      -1217.186497317641,
      -9411.40555371489,
      824.1138132680801,
      1608.4468893375815,
      3100.5135681042257,
      9873.696689930504,
      9570.169564054368,
      2909.9168585775515,
      10042.515491468117,
      -0.36995679361296147,
      0.3721488776854799,
      1879.6657009026057,
      -9304.372758190539,
      -991.4350959508356,
      -570.3774417657858,
      1325.9773168608658,
      535.1722600510839,
      -1057.4825988694945,
      -1214.7784689617383,
      -9374.0660558022,
      824.454633763607,
      1599.4985208656776,
      3088.419086148374,
      9834.782066549518,
      9533.005516656436,
      2898.505593231562,
      10003.087708082929,
      -0.26262139582946153,
      0.31607770919799805,
      1872.0095415906226,
      -9267.79498094887,
      -992.5601287603553,
      -571.2071737029432,
      1328.8214217479617,
      536.3347691784641,
      -1058.7399770585246,
      -1216.1041041204066,
      -9389.333442859297,
      824.5605449453863,
      1604.0141886886404,
      3093.418941196367,
      9851.27886002468,
      9548.821774058513,
      2902.8102708465676,
      10019.279684002491,
      -0.13966761229625696,
      -0.1073509803432713,
      1875.3705736636964,
      -9284.366621518475,
      990.6612800758613,
      572.5740261918091,
      -1328.1066755046122,
      -534.2941148237661,
      1057.121024885405,
      1215.699899596675,
      9385.957842916141,
      -824.0096955558944,
      -1601.4977157360993,
      -3091.5830342555146,
      -9846.026215960954,
      -9544.163592811186,
      -2902.7632977540634,
      -10015.334466780123,
      -0.6084129810333252,
      -0.18295526178609645,
      -1874.723854512641,
      9278.721646938053,
      989.620479987331,
      572.0991239706514,
      -1327.0365700949333,
      -533.0499595533818,
      1056.9202827981783,
      1215.2884068867547,
      9377.896274650144,
      -823.1892662842527,
      -1597.9277255449106,
      -3088.172178709372,
      -9836.198581958637,
      -9535.330366424445,
      -2901.4067774123055,
      -10006.883456234418,
      -0.4195702373981476,
      -0.4248679578405373,
      -1872.1514936110943,
      9269.595279227635,
      -991.616475521779,
      -568.8225181765081,
      1325.0066374335508,
      535.3403920831953,
      -1057.654105086463,
      -1214.5155926925763,
      -9364.38040786871,
      825.7381514392341,
      1599.1279177730776,
      3085.2165285903234,
      9825.604331352393,
      9523.766952954284,
      2894.926442474975,
      9993.497192633582,
      0.4344820380210874,
      -0.36267414689064026,
      1870.1675217447132,
      -9260.062593611765,
      989.4205042441523,
      575.0086814218214,
      -1330.6734089135696,
      -533.4230273023791,
      1057.6215579915072,
      1216.5430677798033,
      9403.981556299177,
      -822.4449342250795,
      -1603.393990066908,
      -3096.5973247233446,
      -9863.089887234893,
      -9560.465780503679,
      -2909.6151061559935,
      -10033.994815469212,
      -0.018101734449153868,
      -0.23147804571895608,
      -1878.334713658292,
      9294.578545815428,
      991.4375064914168,
      575.992253054482,
      -1333.5321976038017,
      -535.237561613512,
      1059.698027879033,
      1218.4541932245097,
      9422.98404623892,
      -823.8311117377674,
      -1609.647248913878,
      -3103.950060691015,
      -9884.504001719284,
      -9581.543989883958,
      -2914.4016023340228,
      -10054.865652588618,
      0.09023464323103365,
      0.2502528429031372,
      -1881.7666637153943,
      9315.384938479692,
      -993.2013730082911,
      -574.4438736828783,
      1332.7919349057101,
      537.0241025115675,
      -1060.2481863640332,
      -1218.4854942503307,
      -9418.216179746556,
      824.2928699286476,
      1611.36332240394,
      3104.1448897985206,
      9882.625825770425,
      9578.11766077243,
      2910.852637753687,
      10050.138808743855,
      -0.18624508380889893,
      0.04364974138118946,
      1881.1431334359004,
      -9313.180128366192,
      -990.544715320098,
      -572.4646587957393,
      1327.0969485704345,
      534.4280581440001,
      -1057.3976067128783,
      -1215.3810253476852,
      -9381.469684527176,
      823.5937975176336,
      1599.863649788466,
      3089.5950248645117,
      9841.236983856492,
      9540.27136759512,
      2901.9096291843034,
      10011.692264436408,
      -0.22184263124733494,
      -0.12267335297284238,
      1873.1196560156345,
      -9274.313584007092,
      990.3605255811151,
      569.0786660380576,
      -1323.7314882816477,
      -533.8145138410375,
      1055.5177656976393,
      1213.8169498925308,
      9356.577705000063,
      -824.3534483074504,
      -1594.3774482655372,
      -3080.9598704759496,
      -9814.921039451408,
      -9514.490856871613,
      -2894.5101636784616,
      -9984.08601158551,
      0.332306798180395,
      0.06841542571783066,
      -1868.4309987188863,
      9249.58942989627,
      -990.2081109387086,
      -572.1371490430937,
      1327.3163186990344,
      533.3569841646498,
      -1057.7283719388104,
      -1215.0869455984139,
      -9382.859453464334,
      822.905480637796,
      1599.3461959196059,
      3089.9571211066477,
      9841.649798788883,
      9539.808705975209,
      2902.283679534682,
      10012.162175815805,
      0.016450502371764715,
      0.15035436673130412,
      1874.0018043964922,
      -9274.816890363007,
      -990.6730233669635,
      -569.8572656882028,
      1324.5730266330386,
      534.8384461548708,
      -1056.0784932371434,
      -1213.8328041796492,
      -9365.068549145952,
      824.6809671073597,
      1596.4672847259062,
      3084.9109765856597,
      9825.079264244532,
      9524.136862052657,
      2896.363160431002,
      9994.377774081891,
      -0.35544366428046226,
      0.2573361098766327,
      1870.2185935516,
      -9258.592274662818,
      991.4867464694141,
      576.2031185396896,
      -1333.313260891142,
      -535.0762836835104,
      1059.8847322166675,
      1218.5155541099405,
      9423.433308482698,
      -822.6600399754532,
      -1608.1689403469331,
      -3103.931896531,
      -9884.533210113883,
      -9580.68240185656,
      -2914.935951254609,
      -10055.000816282207,
      0.3470729589462279,
      0.2639525530972048,
      -1882.1528635541033,
      9314.641079394754,
      -989.3725281572182,
      -571.2783207093121,
      1325.8911975167691,
      533.1920738007303,
      -1056.256545666983,
      -1214.413026246957,
      -9371.267535308194,
      823.4703628511757,
      1596.4215764357298,
      3085.9668913846162,
      9829.15063805598,
      9528.179603707487,
      2899.5111045852277,
      9999.881623983598,
      -0.35300660133361805,
      0.28507566452026367,
      1870.8363237377303,
      -9263.528893344306
    ],
    "b1": [
      10035.986259565598,
      -10048.723362708868,
      -10046.488209431216,
      10052.725586433753,
      -9977.106357782688,
      10042.351022820469,
      10003.170598601679,
      10019.359617934817,
      -10015.65021794084,
      -10006.835844870386,
      9993.290087964335,
      -10034.168466960635,
      -10054.917755454195,
      10050.017153462873,
      10011.628026405655,
      -9984.502379107282,
      10011.964156732458,
      9993.996353427756,
      -10054.728729314449,
      10000.281343512295
    ],
    "w2": [
      36.412300354459894,
      -36.63697562296444,
      -36.422032512670135,
      36.80970884091954,
      -36.60760374790182,
      36.659511541575505,
      36.42141721613499,
      36.979672381803674,
      -36.619298803430326,
      -36.2225341610095,
      37.02126752290291,
      -36.55080679526067,
      -36.64622949389476,
      37.168013513922034,
      36.0200523456116,
      -36.27672333400225,
      36.330992292110096,
      36.483666010208815,
      -36.6082631661255,
      36.253099604830155,
      -36.448246635866184,
      36.83765252499104,
      36.553022627515695,
      -36.82215805956085,
      36.20477333284235,
      -37.07526151411845,
      -36.79302643105934,
      -36.83471301687517,
      36.28312444771514,
      36.325475510468834,
      -36.55269425260884,
      36.05629709316278,
      36.88962968458149,
      -37.20861706944496,
      -36.77330890845969,
      36.22936364134166,
      -36.410533826478414,
      -36.29254725120674,
      36.646036820911036,
      -36.20461704666365,
      41.43958049699472,
      -41.32041851288027,
      -41.43419050224324,
      41.30177342332451,
      -40.525630019139356,
      41.26462389358031,
      40.54530670972913,
      40.45011262606393,
      -41.2582663052421,
      -41.02226498840572,
      40.32584166530204,
      -41.507721032394684,
      -41.2789022643656,
      40.88606879365639,
      41.22904434345284,
      -40.953545147908166,
      40.96311521419222,
      40.74553505327202,
      -41.520004038693024,
      41.18682680942869,
      -41.41829310363913,
      41.3020638232737,
      41.58285616289363,
      -41.28084791553716,
      40.93733007408148,
      -41.003285335734155,
      -41.20182895449414,
      -41.15463212129672,
      41.06473736222735,
      41.409801515469525,
      -40.849378464770886,
      41.48525425467424,
      41.4400832229847,
      -40.95241117859566,
      -41.092088238941294,
      40.970047162042476,
      -41.411405046500114,
      -41.17341993415716,
      41.448045835220675,
      -41.15073023372976
    ],
    "b2": [
      36.40271783797785,
      -36.44988653759607,
      41.366628554280254,
      -41.422722522346106
    ]
  },
  "best": {
    "version": 1,
    "generation": 5,
    "fitness": 28.546559334281394,
    "w1": [
      -0.3994062542915344,
      -0.7651268243789673,
      0.027291148900985718,
      0.2632771134376526,
      -0.5696856379508972,
      -1.0257360935211182,
      -2.4400763511657715,
      1.7589471340179443,
      -0.5726681351661682,
      -0.05611296743154526,
      0.18609847128391266,
      1.977664828300476,
      1.1056756973266602,
      2.3877525329589844,
      -0.3164556324481964,
      -0.04775293171405792,
      0.11506146937608719,
      -0.31928345561027527,
      0.41629576683044434,
      0.5707927346229553,
      0.20740234851837158,
      0.1835007220506668,
      0.585716724395752,
      0.17859700322151184,
      1.5125523805618286,
      -1.3438777923583984,
      0.9239645004272461,
      0.1378546953201294,
      0.19513633847236633,
      -1.350600242614746,
      -0.7154653668403625,
      -1.705404281616211,
      -0.18228289484977722,
      0.08067061007022858,
      -0.23639798164367676,
      0.3812035322189331,
      0.3404809534549713,
      0.9443739056587219,
      -0.0724421963095665,
      0.3536253869533539,
      -0.17346492409706116,
      0.5327463746070862,
      2.525367259979248,
      -1.5392717123031616,
      0.5737177133560181,
      -0.4241286814212799,
      0.34573718905448914,
      -1.897196888923645,
      -1.1173779964447021,
      -2.454632520675659,
      0.020663268864154816,
      0.3411136865615845,
      -0.8943453431129456,
      -0.20799264311790466,
      -0.5914196372032166,
      -0.6758168339729309,
      -0.01452596765011549,
      -0.5235717296600342,
      -0.17328453063964844,
      -0.014098551124334335,
      -1.2323319911956787,
      1.4019337892532349,
      -0.7317596077919006,
      0.6160705089569092,
      -0.3419733941555023,
      1.19796621799469,
      1.0799022912979126,
      1.941423773765564,
      -0.16385643184185028,
      -0.011687973514199257,
      -0.0360308438539505,
      0.11482211947441101,
      -0.3280123472213745,
      0.44787418842315674,
      0.4011639654636383,
      -0.29282888770103455,
      0.5095741152763367,
      0.14946070313453674,
      0.8278957009315491,
      0.08648776262998581,
      0.3316192626953125,
      0.12818408012390137,
      0.8438039422035217,
      0.08133652061223984,
      -0.21666742861270905,
      -0.5728370547294617,
      0.3937201201915741,
      -0.12386290729045868,
      -0.18814803659915924,
      0.378500759601593,
      -0.122168630361557,
      -0.8199781179428101,
      0.302386611700058,
      0.0789140909910202,
      0.020081983879208565,
      0.22849883139133453,
      -1.1966185569763184,
      0.7685020565986633,
      0.1094309538602829,
      -0.16236111521720886,
      0.4520258605480194,
      0.8965368866920471,
      0.6727986931800842,
      1.2037599086761475,
      -0.33482426404953003,
      0.38458892703056335,
      0.2686537206172943,
      -0.2433357834815979,
      -0.1896751970052719,
      -0.37865495681762695,
      -0.07360304147005081,
      0.16604188084602356,
      -0.047524601221084595,
      0.13196666538715363,
      -0.7956483960151672,
      0.36519190669059753,
      -0.40615811944007874,
      0.3751595616340637,
      0.24685324728488922,
      0.7625869512557983,
      0.25584277510643005,
      0.6448165774345398,
      -0.3804982900619507,
      0.31607770919799805,
      0.3043707609176636,
      0.041897933930158615,
      -0.0480947382748127,
      0.02185891382396221,
      0.2883450388908386,
      0.2392721325159073,
      -0.05852622166275978,
      0.1551152467727661,
      -0.09117774665355682,
      -0.19776104390621185,
      -0.1235552579164505,
      -0.4050866663455963,
      -0.339387983083725,
      -0.1285354644060135,
      0.2583138644695282,
      -0.04594196006655693,
      -0.16186587512493134,
      -0.14081250131130219,
      0.3600705862045288,
      -0.38950079679489136,
      0.4675583243370056,
      0.9954923987388611,
      -0.42523807287216187,
      -0.10124769061803818,
      -0.20893554389476776,
      0.47495806217193604,
      1.6065361499786377,
      -1.6186366081237793,
      -0.23774266242980957,
      -0.2858012318611145,
      -0.43995773792266846,
      -1.7342876195907593,
      -0.3807825744152069,
      -1.4101427793502808,
      -0.6084129810333252,
      -0.04399770498275757,
      -0.7383806705474854,
      0.5947549939155579,
      0.32456037402153015,
      0.9751483798027039,
      -0.7125570774078369,
      0.3784295320510864,
      0.2784693241119385,
      0.7685738801956177,
      2.1493515968322754,
      -1.3428335189819336,
      0.9067649245262146,
      -0.005968289449810982,
      0.313984215259552,
      -1.8145368099212646,
      -1.204524040222168,
      -1.9925405979156494,
      -0.4195702373981476,
      -0.44232988357543945,
      0.02298126555979252,
      0.03252558037638664,
      0.47062036395072937,
      0.0008800419745966792,
      0.20897194743156433,
      -0.2688475549221039,
      -0.2417793720960617,
      0.046465277671813965,
      0.25650259852409363,
      0.321302592754364,
      0.3886432349681854,
      -0.18749694526195526,
      -0.18463380634784698,
      -0.5301935076713562,
      -0.12907128036022186,
      0.1588553935289383,
      0.43448203802108765,
      -0.36267414689064026,
      0.31488037109375,
      -0.29018735885620117,
      0.3625762462615967,
      1.0390729904174805,
      -0.48843133449554443,
      -0.08145701885223389,
      -0.022286122664809227,
      0.5805952548980713,
      2.8283135890960693,
      -1.9788508415222168,
      0.43404650688171387,
      -0.04503921419382095,
      -0.14534831047058105,
      -2.0990309715270996,
      -1.1813420057296753,
      -2.31000018119812,
      0.09047763794660568,
      -0.18138760328292847,
      -0.7904905080795288,
      0.24174632132053375,
      0.04445222020149231,
      1.1022322177886963,
      -0.17307789623737335,
      0.31594735383987427,
      0.002606079913675785,
      0.5076795816421509,
      1.5713142156600952,
      -1.7387832403182983,
      0.5121618509292603,
      0.2867869436740875,
      0.3740190267562866,
      -1.4309723377227783,
      -1.0418583154678345,
      -1.6690109968185425,
      0.04825489968061447,
      0.2502528429031372,
      -0.026178615167737007,
      0.37206047773361206,
      0.1802382618188858,
      -0.49190306663513184,
      -0.19432805478572845,
      -0.053844064474105835,
      0.2816537320613861,
      -0.16460150480270386,
      -0.010068635456264019,
      -0.15233662724494934,
      0.39944374561309814,
      0.2981308400630951,
      0.4393652677536011,
      -0.20345130562782288,
      -0.30000025033950806,
      0.2142476588487625,
      -0.18624508380889893,
      0.017597053200006485,
      0.08837942034006119,
      -0.2087855488061905,
      -0.5439894199371338,
      -1.1600924730300903,
      0.12109817564487457,
      0.44704246520996094,
      -0.3694704473018646,
      -0.47547218203544617,
      -1.3574228286743164,
      1.2985355854034424,
      -0.3872162401676178,
      -0.27144375443458557,
      -0.13495606184005737,
      1.997359037399292,
      0.6930831074714661,
      2.062978982925415,
      -0.3115842044353485,
      -0.07872191816568375,
      -0.024484749883413315,
      -0.2011047750711441,
      0.7525861263275146,
      0.2889418601989746,
      -0.5453870892524719,
      -0.38118869066238403,
      -0.17521043121814728,
      0.5764999389648438,
      1.6433244943618774,
      -1.277115821838379,
      0.2906423509120941,
      0.32126784324645996,
      0.037555892020463943,
      -1.3600506782531738,
      -1.0091078281402588,
      -1.0418967008590698,
      0.3547966778278351,
      0.06841542571783066,
      -0.5647748112678528,
      0.29758700728416443,
      -0.6751107573509216,
      -0.44719424843788147,
      0.209178164601326,
      -0.16552235186100006,
      -0.6964843273162842,
      -0.2707652151584625,
      -2.1384549140930176,
      1.0210469961166382,
      -0.6817641854286194,
      0.06318582594394684,
      -0.058014191687107086,
      1.2195364236831665,
      0.5230585932731628,
      1.9522161483764648,
      0.007845924235880375,
      0.16164326667785645,
      0.7414644956588745,
      -0.2938985228538513,
      -0.32708311080932617,
      -0.48978790640830994,
      -0.03312945365905762,
      0.6392363905906677,
      0.40532469749450684,
      0.2273963838815689,
      -0.9200951457023621,
      1.246115803718567,
      -0.7579906582832336,
      0.28355973958969116,
      0.3300584554672241,
      1.5605859756469727,
      0.4982398748397827,
      1.5571900606155396,
      -0.4290953576564789,
      0.2573361098766327,
      0.43880248069763184,
      -0.14573657512664795,
      0.8728733062744141,
      1.0261507034301758,
      -0.05628909543156624,
      -0.17960168421268463,
      0.5742394328117371,
      0.7803587913513184,
      2.5511467456817627,
      -1.430766224861145,
      1.2028419971466064,
      -0.14541871845722198,
      -0.3343532681465149,
      -1.5988013744354248,
      -1.321529507637024,
      -2.3917455673217773,
      0.347072958946228,
      0.25480130314826965,
      -0.4904164671897888,
      0.25432106852531433,
      -0.27366524934768677,
      -0.6672435402870178,
      0.5750869512557983,
      0.02514675073325634,
      -0.054028674960136414,
      -0.35160642862319946,
      -2.039630651473999,
      1.5980918407440186,
      -0.7089014649391174,
      0.13142913579940796,
      -0.45974838733673096,
      1.3951431512832642,
      1.1510244607925415,
      1.8172225952148438,
      -0.35300660133361816,
      0.28507566452026367,
      -0.017108812928199768,
      -0.4462277293205261
    ],
    "b1": [
      2.2568483352661133,
      -1.6524220705032349,
      -2.2271509170532227,
      1.5751274824142456,
      -0.41015493869781494,
      1.1597343683242798,
      0.78263920545578,
      0.05407709255814552,
      -1.7210179567337036,
      -1.9446985721588135,
      -0.060709428042173386,
      -2.473588228225708,
      -1.6444655656814575,
      0.11289023607969284,
      2.0389044284820557,
      -1.4018104076385498,
      1.814719319343567,
      1.2520055770874023,
      -2.1201274394989014,
      2.26900053024292
    ],
    "w2": [
      -0.6934899687767029,
      0.4938284158706665,
      0.8971662521362305,
      -0.3524320721626282,
      0.15138128399848938,
      -0.3612721264362335,
      -0.6338327527046204,
      0.11141952127218246,
      0.4134312570095062,
      0.9414479732513428,
      0.14334537088871002,
      0.548052191734314,
      0.4797624945640564,
      0.42101114988327026,
      -1.1070499420166016,
      0.8208234310150146,
      -0.6604495048522949,
      -0.6810213923454285,
      0.5495132207870483,
      -0.8190319538116455,
      0.48306265473365784,
      -0.05304813012480736,
      -0.4191417396068573,
      0.10720919817686081,
      -0.4834662973880768,
      -0.28318193554878235,
      0.050266388803720474,
      -0.08554960787296295,
      -0.6059390902519226,
      -0.6053386926651001,
      0.1565587818622589,
      -0.7876685857772827,
      -0.09279804676771164,
      -0.5450547337532043,
      0.13480620086193085,
      -0.6300139427185059,
      0.4267284870147705,
      0.6378585696220398,
      -0.2931648790836334,
      0.6709885597229004,
      1.150865912437439,
      -1.0148097276687622,
      -1.1891450881958008,
      1.053492546081543,
      0.2354196012020111,
      0.8889941573143005,
      0.17230117321014404,
      -0.16852793097496033,
      -0.921829879283905,
      -0.7725739479064941,
      -0.3725583553314209,
      -1.1716676950454712,
      -0.9814938902854919,
      0.08228915184736252,
      0.9316682815551758,
      -0.6462266445159912,
      0.5214474201202393,
      0.5361721515655518,
      -1.288611650466919,
      0.8147151470184326,
      -1.1685105562210083,
      1.0344973802566528,
      1.3169808387756348,
      -1.1353461742401123,
      0.2266768366098404,
      -0.6589767336845398,
      -0.8003031015396118,
      -0.5585968494415283,
      0.8028956055641174,
      1.2056491374969482,
      -0.1651608645915985,
      1.1848561763763428,
      1.1812201738357544,
      -0.15729111433029175,
      -0.8436658978462219,
      0.6536636352539062,
      -0.9984987378120422,
      -0.9710839986801147,
      1.3229771852493286,
      -0.8493071794509888
    ],
    "b2": [
      -0.7917055487632751,
      0.49916091561317444,
      1.1365119218826294,
      -1.2629605531692505
    ]
  },
  "totalMatches": 8,
  "totalGoalEvents": 37,
  "totalSyncs": 45,
  "updatedAt": "2026-06-30T23:06:43.889Z"
}