{
  "active": {
    "version": 1,
    "generation": 191,
    "fitness": 4.742763874001192,
    "w1": [
      2765.795564436439,
      -899.9950712171933,
      4105.4660727014725,
      -340.67926746892374,
      -926.1027990763655,
      6730.3099534711255,
      -3512.618528847259,
      1529.0061802894859,
      -2736.370984961459,
      7336.839699596851,
      3879.665721813248,
      15483.162409363715,
      4518.245679548219,
      -185.91093726691963,
      -0.30429989191455,
      14100.4057259882,
      4474.921279985643,
      6657.887865488684,
      15665.682489741228,
      16398.685075527763,
      -59.81755223459139,
      2761.346178501505,
      -900.3810353681148,
      4104.150594246358,
      -342.86999715280945,
      -928.1334252275922,
      6720.48614709866,
      -3501.4036785897206,
      1529.2802964993566,
      -2731.301008408006,
      7324.7240010839005,
      3876.943461406955,
      15458.362705910782,
      4511.544098015831,
      -187.9260306063358,
      -0.11895464222398906,
      14080.444650930576,
      4470.605088346814,
      6642.861376678783,
      15638.805595207023,
      16374.040730339333,
      -58.17910318080963,
      -2754.450519382064,
      895.5467829758003,
      -4091.7172829249384,
      340.0347993590779,
      919.2344534531636,
      -6704.7337469209115,
      3497.9449397995104,
      -1526.7875923124882,
      2721.5706050131057,
      -7306.172160442154,
      -3860.6398331953783,
      -15416.120583591422,
      -4496.7448970085015,
      192.8117699088877,
      -0.21046055992478627,
      -14043.074371470742,
      -4456.394594724222,
      -6637.376671692854,
      -15596.0917194786,
      -16328.549728592778,
      57.966457704009294,
      2756.0163153863987,
      -900.0302649802103,
      4095.680908194295,
      -339.63713401656577,
      -922.4394443931917,
      6711.610030084214,
      -3501.6458435149175,
      1527.7588015465515,
      -2725.092989767443,
      7316.446550843884,
      3863.4862506845316,
      15436.732314710991,
      4502.911382588617,
      -192.71682527302198,
      0.06633602241962339,
      14060.44142664054,
      4460.834217245272,
      6647.65758462348,
      15614.765825857408,
      16349.694459171751,
      -56.90430251360072,
      2759.9544344440988,
      -898.2287429411772,
      4102.895231142959,
      -341.8392680962577,
      -923.5349162476431,
      6717.623371118157,
      -3497.465723793215,
      1529.9502777081589,
      -2729.3452411045446,
      7323.817091969443,
      3877.33744673471,
      15458.616979945362,
      4512.146245033966,
      -186.443274052221,
      0.31793864270790156,
      14079.278653830048,
      4469.710394580339,
      6642.457456009603,
      15637.703226992133,
      16372.619645097391,
      -58.60084427161345,
      2777.3447198831127,
      -939.0545602134881,
      4120.551896533052,
      -354.51434180526115,
      -936.7627748810642,
      6758.763728286759,
      -3565.9446363588345,
      1524.422405028536,
      -2727.071774443587,
      7382.624088522311,
      3889.471708620569,
      15573.436402919662,
      4520.685053372244,
      -202.7521961265562,
      0.21730333922513334,
      14165.700378918324,
      4488.038437877418,
      6733.854235740045,
      15744.137537317243,
      16495.403180971407,
      -50.67086804123582,
      -2752.6572015890724,
      891.9919505269717,
      -4089.8168010493805,
      339.85063324073184,
      919.3556664037582,
      -6700.724167855334,
      3491.741450162703,
      -1525.4498844467494,
      2720.0399879098054,
      -7300.051277413158,
      -3861.286029769735,
      -15404.697089819563,
      -4493.6264829878355,
      189.72853659218995,
      -0.1133277879856153,
      -14031.715686190462,
      -4453.67456472967,
      -6629.671397729351,
      -15583.74125517273,
      -16317.462401447036,
      57.951341839890404,
      -2761.7080736258195,
      898.4017481843896,
      -4110.4283895089075,
      344.11361382579605,
      925.397764844638,
      -6726.344864929687,
      3495.082849775989,
      -1533.5709877001204,
      2738.7381725635187,
      -7336.387119936955,
      -3893.0428425013424,
      -15488.665633114331,
      -4525.80221973117,
      184.21454168974105,
      0.2776781608871258,
      -14110.152909779063,
      -4480.1410147471015,
      -6643.725824323396,
      -15669.767334058732,
      -16403.853742287676,
      59.85697086970056,
      -2779.482506887701,
      955.6827540963292,
      -4124.704078981619,
      359.09405675268937,
      943.3150456136564,
      -6769.284283050796,
      3595.8518798837754,
      -1528.8205946799503,
      2702.3489106294737,
      -7404.342843502281,
      -3891.8154401972683,
      -15632.699857464011,
      -4529.734825749852,
      203.15526842474006,
      0.27685624011146387,
      -14195.159112224866,
      -4492.400803770318,
      -6761.322922145223,
      -15790.095790459593,
      -16556.033473986165,
      49.587954983193924,
      -2758.950901425905,
      898.042305989601,
      -4100.015134409581,
      342.5773029162852,
      921.513654157666,
      -6712.632727824126,
      3497.8919470364262,
      -1527.2127642057724,
      2725.3769378548945,
      -7318.967364056474,
      -3871.5067098814598,
      -15446.8264302162,
      -4507.53452332628,
      190.23826023146475,
      -0.13853546368989111,
      -14068.062072362754,
      -4466.374676796549,
      -6641.329189724883,
      -15626.893702896956,
      -16360.753061055066,
      58.303204332130264,
      2753.4297548106433,
      -898.1000999810631,
      4090.688966350882,
      -340.0831688613136,
      -920.0615614876948,
      6705.191907459839,
      -3503.41649785039,
      1527.2509165240156,
      -2725.843181468419,
      7306.114724931815,
      3857.36756448309,
      15415.80236754162,
      4495.529407162701,
      -192.06559445070914,
      0.3318217814272502,
      14042.139829426073,
      4456.098995770304,
      6641.310384181411,
      15593.5222053887,
      16327.739783290843,
      -56.86264124875666,
      2757.3943591376333,
      -897.2577778318476,
      4093.7594075423217,
      -339.89323096787325,
      -920.733726740412,
      6706.659980384269,
      -3501.5351487377557,
      1524.4407987580785,
      -2721.215819740682,
      7310.993501628559,
      3860.0451921926547,
      15422.584711293379,
      4497.652152043671,
      -196.60622396047674,
      0.11664484160135055,
      14049.51175541503,
      4459.199712905246,
      6642.751475652599,
      15603.855003695704,
      16336.314851183195,
      -57.976443772317126,
      2749.040825022122,
      -890.1472435236469,
      4086.365476433075,
      -338.69032859414983,
      -918.6555540045177,
      6692.654560390257,
      -3487.8270054480154,
      1524.300285820815,
      -2721.9032289502575,
      7285.566918640663,
      3857.8103430148067,
      15379.138181757879,
      4485.314758096768,
      -187.77847444686302,
      -0.21838444912174662,
      14007.060474741398,
      4448.4785503890025,
      6616.274653810164,
      15556.19973173105,
      16289.391149132813,
      -58.346062399699925,
      2777.4818370426397,
      -952.6264667731789,
      4120.6087513239745,
      -357.3308231653688,
      -942.5264485099797,
      6770.220951245945,
      -3585.3041260850923,
      1528.473899772438,
      -2710.219136585487,
      7396.413048016845,
      3888.3068554289603,
      15612.838146149481,
      4525.9759194589815,
      -200.1037857388663,
      -0.257005066712231,
      14183.424255123939,
      4489.675624268842,
      6751.688145386527,
      15772.130094417413,
      16534.647880407738,
      -48.72858121051361,
      -2760.5176387034603,
      907.4315131532401,
      -4102.374939443359,
      343.11253886425266,
      924.7880272483756,
      -6721.695225350649,
      3508.1236738547586,
      -1528.7445980204611,
      2728.7138139721355,
      -7329.262821800792,
      -3870.307582550756,
      -15465.677658647895,
      -4510.905743595041,
      191.3077001651778,
      -0.357605997551348,
      -14082.57918512746,
      -4469.399312033582,
      -6657.897966081094,
      -15641.919690488396,
      -16380.857953498122,
      56.16251708510646,
      2762.8147250050747,
      -901.4931557326936,
      4108.906503729257,
      -345.1078819670469,
      -928.1567550092111,
      6728.882952738687,
      -3502.971151497868,
      1532.358924106172,
      -2735.9319052157284,
      7340.821084221941,
      3886.1771367764436,
      15492.062167485727,
      4523.635901229751,
      -183.54959903171115,
      0.4158472826710826,
      14107.937892677633,
      4477.941681975592,
      6656.288928608254,
      15669.98969891508,
      16407.722251282852,
      -58.217701120560754,
      2781.9797098978834,
      -951.8866094692029,
      4127.420138268437,
      -358.86845523717466,
      -939.8481183612153,
      6771.31755484807,
      -3598.884994380968,
      1524.6771979349392,
      -2693.057506421357,
      7403.054630582826,
      3901.0071698927127,
      15638.949929468627,
      4528.849420062454,
      -195.5055734321477,
      -0.14455540747185475,
      14191.575013692485,
      4493.762763467025,
      6761.136809088068,
      15806.496469361662,
      16566.065332042235,
      -55.971355515755086,
      -2780.0254852613893,
      950.7462808902239,
      -4121.735898215702,
      357.04850146335275,
      941.3621369824667,
      -6769.230558009358,
      3586.2683584391416,
      -1524.1733373880493,
      2708.256707779884,
      -7397.542050623983,
      -3888.0040603858747,
      -15611.732438228712,
      -4525.205597122496,
      205.68734541874866,
      0.11145459176322707,
      -14185.50681798974,
      -4490.565577658948,
      -6751.9937057485195,
      -15773.979251072828,
      -16534.119497272095,
      50.251095889048926,
      -2777.9719864948333,
      937.1648122820408,
      -4123.886199988687,
      354.0284810619313,
      934.0475473428825,
      -6751.667525578104,
      3562.3104047041697,
      -1524.0177081469405,
      2729.061953469679,
      -7378.8492769295535,
      -3888.117728645598,
      -15562.114564156946,
      -4518.298748907372,
      205.7055898149431,
      -0.14252123670000136,
      -14158.828450433804,
      -4488.4134670787835,
      -6728.719281534054,
      -15736.91812359655,
      -16484.158078433138,
      48.57001280657296,
      2758.3100145840244,
      -903.4249670498107,
      4104.444746939207,
      -345.24852323733995,
      -927.2963034217506,
      6722.004822972089,
      -3500.5689161418386,
      1534.8791225743505,
      -2733.3001690307756,
      7329.672403402892,
      3878.0100582860678,
      15469.131044852355,
      4516.217169450583,
      -182.89629257780004,
      -0.44665915869053774,
      14085.948850956287,
      4471.535114391908,
      6649.636657897805,
      15644.601755552512,
      16383.367582363717,
      -56.057090871539245,
      -2776.493369476277,
      954.1988229544761,
      -4120.300979320065,
      357.8420721806582,
      941.6326940351888,
      -6763.766412637177,
      3587.517782095184,
      -1527.6414623778137,
      2700.4431739250017,
      -7394.694132352096,
      -3886.173811851844,
      -15611.64803613042,
      -4524.065554924603,
      204.47926133592182,
      0.07834002613170835,
      -14180.334682753613,
      -4487.997711318521,
      -6748.384410708511,
      -15767.796986892157,
      -16533.50679338819,
      48.24182045669639,
      -2748.964225675009,
      895.9988173939767,
      -4088.577580245137,
      339.3447112890536,
      923.2394368585968,
      -6698.415629827367,
      3492.171173674667,
      -1528.880615046608,
      2722.4958994124027,
      -7296.520934007639,
      -3858.982020139511,
      -15399.531662175159,
      -4492.511778743499,
      188.98829947902263,
      -0.20499249606437495,
      -14029.159313947102,
      -4452.581953064458,
      -6630.193795022856,
      -15576.342577485932,
      -16310.564310329686,
      56.48869939434175,
      2778.9185843542828,
      -937.6220692259194,
      4125.989593744384,
      -353.91721996209986,
      -935.976496091694,
      6759.241453586908,
      -3565.618422061258,
      1526.7188843188355,
      -2732.6133634427683,
      7385.347951681748,
      3891.543086519787,
      15577.26425222809,
      4523.078737474099,
      -201.8982540801048,
      -0.0851768344365649,
      14169.923441139988,
      4490.952320078185,
      6734.21376938071,
      15750.843163767651,
      16499.267161347652,
      -49.00012792107099,
      -2760.7387640007096,
      895.5887641581108,
      -4098.270269697717,
      338.943117484346,
      922.760049377246,
      -6715.001269411759,
      3499.9363957433225,
      -1522.7116548666472,
      2724.9773512128972,
      -7318.986455093046,
      -3869.2923672566485,
      -15445.747764531625,
      -4506.452875323726,
      192.3623021858314,
      0.23968718831457836,
      -14068.57263934963,
      -4465.249002105418,
      -6647.0532121126735,
      -15627.964726880771,
      -16359.473073851088,
      60.58603227389119,
      2759.4974337957497,
      -906.1554533817342,
      4101.541990905611,
      -341.6507340762347,
      -926.9613818636745,
      6720.029177343132,
      -3507.184844143957,
      1528.8637610803446,
      -2729.551900941827,
      7324.759586660574,
      3869.067060940782,
      15456.821538047225,
      4507.608433434294,
      -191.20332949395203,
      0.14842627593068475,
      14076.052660173693,
      4467.663919526542,
      6651.719026987623,
      15634.781983871006,
      16371.510602074235,
      -56.52811842491393,
      -2759.305895787461,
      898.8915263967097,
      -4100.843056007358,
      343.16247140137966,
      920.985271417777,
      -6712.607614069727,
      3499.591616889786,
      -1527.8465813099963,
      2726.297796879771,
      -7320.4521476717955,
      -3872.611786119677,
      -15448.584142272808,
      -4507.889209899163,
      189.7651654180478,
      0.4177308796975624,
      -14070.32002566934,
      -4466.475303745536,
      -6642.717653428043,
      -15628.792555138158,
      -16362.698811999837,
      58.51158502430491,
      2761.6222127449096,
      -898.7576862976739,
      4097.967651552028,
      -339.9586153241121,
      -924.6160940194235,
      6720.293744392157,
      -3502.602095829141,
      1524.9357621233746,
      -2725.5066468607765,
      7323.585029269413,
      3867.937202421912,
      15455.464132815356,
      4507.4576767867775,
      -191.10925879064746,
      -0.36608463736580416,
      14075.201735353085,
      4466.066004442966,
      6650.109245484837,
      15636.006434848592,
      16369.601022397437,
      -61.04875433649719,
      -2784.0810707292558,
      919.76905696883,
      -4122.2263783866965,
      352.2627779629216,
      936.6834167408238,
      -6767.206520961045,
      3541.882793104692,
      -1530.3011644982162,
      2728.7699925814068,
      -7385.76713492312,
      -3902.930147825574,
      -15580.176367924452,
      -4538.091816029406,
      187.15785176586925,
      0.1914895120989624,
      -14175.056551396703,
      -4496.014386220187,
      -6698.404941827055,
      -15760.866909915372,
      -16502.672621141057,
      59.411923998311806,
      2760.877035564793,
      -896.7559924573915,
      4109.654421393664,
      -344.94210437882265,
      -923.1130185696653,
      6718.986003080796,
      -3498.7455235762463,
      1533.8442518164309,
      -2740.9442178806307,
      7328.020327942722,
      3889.794770266478,
      15467.58061949477,
      4520.209156749399,
      -182.86077374147848,
      -0.29977875571333773,
      14093.560799468842,
      4476.641803975692,
      6640.698053801785,
      15649.262566151425,
      16382.933912650218,
      -56.2626099553251,
      2760.1390299364452,
      -899.8591744636606,
      4098.861278419761,
      -341.58906714079524,
      -923.1707110167506,
      6716.891233146646,
      -3507.887639652293,
      1527.1700021947213,
      -2728.6021848263254,
      7323.152963308689,
      3866.589797268352,
      15449.115907274074,
      4504.9463476464225,
      -194.16168138156632,
      0.028292053610596904,
      14072.553932069524,
      4465.096435072073,
      6651.917519447863,
      15629.808581789453,
      16364.157028683032,
      -57.23095916526221,
      -2780.185403028913,
      951.430146129553,
      -4125.403466161413,
      357.1989608578994,
      938.2029498514249,
      -6766.075350597806,
      3596.6397353109533,
      -1522.2614216423049,
      2694.972482308199,
      -7401.084899835899,
      -3897.954961607175,
      -15631.393751561667,
      -4527.859671663593,
      198.46589409636027,
      0.1599975049941367,
      -14188.776307079392,
      -4492.367164941468,
      -6763.199017752981,
      -15799.30522638255,
      -16558.2952755936,
      53.6977690305018,
      2761.9520694882613,
      -898.3349732086615,
      4096.779473799025,
      -339.20695790574354,
      -924.6136337524661,
      6720.373034748748,
      -3505.7277806115667,
      1527.8631573416162,
      -2725.4098622240463,
      7324.148291264435,
      3867.0235983587627,
      15452.256624207443,
      4506.040491277559,
      -193.03235872286135,
      -0.03662165652109504,
      14074.916766791952,
      4465.905407993158,
      6648.416250085124,
      15634.123804136841,
      16368.059037472234,
      -60.4712148096634
    ],
    "b1": [
      13914.053936303673,
      13891.618371743905,
      -13850.318639476502,
      13867.560605874427,
      13893.165755426788,
      13963.35245946978,
      -13841.68926636845,
      -13926.189116956788,
      -13992.1737999371,
      -13878.022337400835,
      13850.134900855503,
      13852.611284986428,
      13819.013291737427,
      13983.781288755334,
      -13891.525015234629,
      13923.179377421526,
      13996.547904434781,
      -13980.18172575358,
      -13953.271694484478,
      13902.623085256459,
      -13975.48834823102,
      -13839.752106858461,
      13968.044957609334,
      -13876.169198237354,
      13885.075142778725,
      -13880.178176176918,
      13883.41452849708,
      -13987.980640339345,
      13910.268655018892,
      13878.99371193126,
      -13989.8455749965,
      13882.047050252704
    ],
    "w2": [
      -23.99466153879246,
      -23.482584727877747,
      23.829087873552684,
      -23.71491985052363,
      -23.925600992414456,
      -23.575888758036943,
      24.16005599138807,
      23.43482114777538,
      23.600774365232844,
      23.749016596129238,
      -23.961440134752817,
      -24.117140879965618,
      -24.356399950429886,
      -23.959808946708122,
      23.536888215534855,
      -23.794690340780235,
      -24.412402263733966,
      24.489858059343256,
      23.891658960409295,
      -23.6951011200251,
      24.25591400630534,
      23.71090327367943,
      -24.30442095110224,
      23.715107505750076,
      -24.285974025446848,
      24.140796819118602,
      -23.86676764426365,
      24.113743632473465,
      -23.68361406384123,
      -23.630166806667866,
      24.224635006826038,
      -23.996061000307,
      -23.98978073727608,
      -24.431693684601225,
      23.733267532169958,
      -23.539122955863014,
      -24.08068081303921,
      -24.246744880776873,
      23.989766693152063,
      23.727228988142976,
      24.436690401817625,
      23.956381548256235,
      -23.532770515862314,
      -23.97978167935488,
      -23.771305887503917,
      -24.339462670778108,
      23.744859684931214,
      -24.41238495020618,
      -24.60301387719137,
      24.454888739794686,
      24.013082521328673,
      -24.19951766772531,
      24.42833840112095,
      23.795428467731178,
      -24.391246935577673,
      23.473146095754238,
      -24.042155948395916,
      24.069890925293194,
      -23.863865557625054,
      23.914234055374532,
      -23.63994855364901,
      -23.884774185243117,
      24.3899594632236,
      -23.798675746357283,
      23.830798865174202,
      23.47295395734366,
      -24.200374642835374,
      23.7420293552019,
      24.268878638804622,
      24.106588275750966,
      -23.677910148336682,
      -23.695848983556147,
      -23.843748905906413,
      -24.07828559777178,
      24.008449414627023,
      24.304218067927057,
      23.701709126041784,
      24.07442007833706,
      -23.64337302188676,
      23.38370033508203,
      24.00081035879454,
      -23.627295786056816,
      -24.248203525850958,
      23.36524881200171,
      -23.834837786917035,
      -23.43278330387587,
      24.0053542959708,
      -23.753740654260785,
      24.332215163158562,
      -24.310731823693143,
      23.629144876607082,
      -23.948383350584223,
      23.962446176110358,
      23.73213272144975,
      -24.362897755864317,
      24.41317260166507,
      -24.400368707424295,
      -23.614248261034486,
      24.06443986758841,
      -23.701148423118173,
      -24.32457457081584,
      -24.206311089422385,
      24.084220619145217,
      24.118050848732516,
      23.68976807694802,
      24.360049402625023,
      -23.883944066603725,
      -23.579528778989417,
      -23.839902226055926,
      -23.938102814459267,
      24.20695234534061,
      -24.104381145272395,
      -24.2660775337636,
      24.317328131781736,
      24.26051047448116,
      -23.35106080944686,
      24.109257596915484,
      23.438516218495906,
      -23.949344386079368,
      24.283451910159553,
      -23.93197556593333,
      23.854392465453074,
      -24.24437225733538,
      23.826446477479614,
      -23.3149054462379,
      -23.623235291565933,
      23.925486397554305,
      -23.589739908332973,
      -23.670276874722862,
      -23.960548914909307,
      24.028964758011206,
      -23.420806583284477,
      -23.768075986532274,
      -24.346576001445055,
      23.714443368545748,
      24.140706564579947,
      24.400995927115353,
      23.991666868178985,
      -23.886903639623437,
      -24.02182136136094,
      -23.274062229866363,
      -24.325348408922842,
      24.26221704476214,
      -24.20800355683953,
      -24.44652512716369,
      24.071103962182995,
      24.14012956166001,
      -24.543357626853236,
      24.499087083981586,
      24.146390212701718,
      -24.142142322735346,
      23.54687009630596,
      -23.645209075796096,
      23.79801772993019,
      -23.60039035419388,
      24.356441834847413,
      -23.776315885163367,
      -23.837361353595426,
      24.44233010951101,
      -23.77753766181546,
      -25.201861098497155,
      -24.449331409240475,
      24.82555547390179,
      -24.44339343164835,
      -24.604439715779954,
      -24.711968204885846,
      24.611377534080184,
      24.777239707284117,
      24.83151236756666,
      24.43814768908998,
      -24.111875009154833,
      -24.778253047512763,
      -24.9378940400752,
      -24.75834705781347,
      24.56242774153081,
      -24.81913963873221,
      -25.26223657410287,
      25.233128753425444,
      24.310138976662635,
      -24.32169247319197,
      25.004273090900398,
      25.127142744000686,
      -25.062013770395936,
      25.548999061807073,
      -24.554840287126638,
      24.52154025291322,
      -25.35862896354326,
      25.215081234842774,
      -24.266739616273835,
      -24.649255124658257,
      24.972551888808425,
      -25.404225916762634,
      -24.096271981313173,
      -23.90219805394262,
      24.022194369529494,
      -24.21134377359417,
      -23.67743957875887,
      -24.27345955549349,
      23.37840139693259,
      23.935371275671713,
      24.595775530005128,
      23.436608111021936,
      -23.864593152044677,
      -23.26185306691699,
      -23.348166578099622,
      -24.41423813418082,
      23.820397501557608,
      -24.118168171283372,
      -24.591175568751183,
      24.228876325733122,
      24.453259029700494,
      -23.9024864296891,
      24.44911702187015,
      24.035633761067448,
      -24.245911201350097,
      23.771651335771384,
      -24.05264129593215,
      24.196707375073984,
      -24.07917405181739,
      24.367423863760546,
      -24.1611715187228,
      -24.01809410001172,
      24.360552380768343,
      -23.46895335076711,
      24.05755001201262,
      24.24297736899757,
      -23.409037312389014,
      23.87204077854017,
      23.684913690724386,
      24.327229771329677,
      -23.660448141452182,
      -24.131526248654097,
      -24.218264296781673,
      -24.289132505899847,
      23.54853410360112,
      23.398279779757512,
      23.367121004005984,
      24.12823477177549,
      -23.706566677053345,
      23.709562514563068,
      24.46196200806817,
      -24.23997250686225,
      -24.277826211333263,
      24.53967635619513,
      -24.36060244360414,
      -23.58998201014839,
      23.97775815472488,
      -23.90028953444263,
      23.7218062771862,
      -23.944929781733624,
      24.101092555140227,
      -24.262484612796197,
      24.304978844026806,
      23.980282395979856,
      -24.348653988972565,
      23.43777569996394,
      23.94775291244817,
      24.123942028202126,
      -23.52831619616791,
      23.929482908858226,
      23.67506256452027,
      23.738011454413254,
      -23.41926238840905,
      -24.105221678201058,
      -24.424334539273058,
      -23.44713957622411,
      23.762154869942254,
      23.918276398247773,
      23.939214982083666,
      24.61562511488029,
      -23.919980997719325,
      24.060362581153207,
      23.83336896546277,
      -23.814533561202815,
      -24.0797205984007,
      24.199357141133532,
      -24.64278102648066,
      -23.62578919175129,
      23.866642370439155,
      -23.686028151718887,
      24.16919554267992,
      -23.472209658503225,
      23.52308108103045,
      -24.295075539079114,
      24.070767764654892,
      23.67312494994258,
      -24.01700463643837,
      24.030953792589134,
      23.645737624974164,
      24.112737951566636,
      -23.27743595854078,
      23.867716023796437,
      23.526307705200328,
      24.512997823884934,
      -23.416267065226428,
      -24.443267608362614,
      -24.599690008534804,
      -23.818472423187835,
      23.39599452016546,
      23.44781974296683,
      23.3502830824774,
      24.258416893719406,
      -24.220591816829085,
      24.112288018752146,
      24.199897395489167,
      -24.02781427840713,
      -23.84369821135799,
      24.096387586847246,
      -23.785010572851867,
      -23.89292848417398,
      23.741754854323858,
      -23.842993231400047,
      23.66671104338326,
      -23.735356411127327,
      23.451670104315802,
      -23.887963980111678,
      24.488233587615674,
      23.790512962228178,
      -24.448903589059423,
      23.655678981507858,
      -23.656709733802614,
      -23.578247123402587,
      23.631931787195953,
      -24.263439345451232,
      -23.655977445367967,
      -24.170293098200155,
      23.980771041984546,
      23.81674825151035,
      24.31002952033702,
      23.6019283494184,
      -24.103819807801976,
      -23.54489548175924,
      -23.52764766552714,
      -23.84990708936638,
      23.666928215426978,
      -23.36064615048082,
      -24.070335794129594,
      24.33011840918263,
      23.72280576128665,
      -23.70041024327549,
      23.757333646066385,
      23.500599516904575,
      -24.20557014598635,
      24.039503364499257,
      -23.631089370219385,
      23.66338768764871,
      -24.401808750109538,
      24.373706653161236,
      -23.325991928001873,
      -24.46625383513982,
      24.152482842243057,
      -23.95030667014331,
      -23.73609600404839,
      -24.304556811875813,
      23.602555960405844,
      -23.990858279077685,
      -24.285783872781934,
      -23.83279586215835,
      23.458725222743656,
      24.043489980998345,
      24.6342980551393,
      24.015242460758724,
      -23.9126107049862,
      -23.893980763111255,
      -23.349940616457772,
      -24.419540970416147,
      24.13457914682473,
      -24.463898888470247,
      -24.490733660523016,
      24.119966706296342,
      24.51700784848013,
      -23.879013348002232,
      23.774117413260665,
      23.918925187920344,
      -24.38957597114873,
      23.638188942429327,
      -23.73477382471838,
      23.433998702360547,
      -23.387574310292266,
      24.21062944443121,
      -24.427086795240548,
      -23.859884666849815,
      24.50059188929711,
      -23.935609321296266
    ],
    "b2": [
      -28.654936872019842,
      -28.70926444841171,
      28.609535808716437,
      -28.66002322252185,
      -28.788774456761793,
      -28.525812210925814,
      -28.70025024906995,
      28.701752259071142,
      28.618815574079417,
      28.58963739349689,
      -28.71359338581682,
      -28.695134197175598
    ]
  },
  "best": {
    "version": 1,
    "generation": 5,
    "fitness": 28.546559334281394,
    "w1": [
      -0.3994062542915344,
      -0.7651268243789673,
      0.027291148900985718,
      0.2632771134376526,
      -0.5696856379508972,
      -1.0257360935211182,
      -2.4400763511657715,
      1.7589471340179443,
      -0.5726681351661682,
      -0.05611296743154526,
      0.18609847128391266,
      1.977664828300476,
      1.1056756973266602,
      2.3877525329589844,
      -0.3164556324481964,
      -0.04775293171405792,
      0.11506146937608719,
      -0.31928345561027527,
      0.41629576683044434,
      0.5707927346229553,
      0.20740234851837158,
      0.1835007220506668,
      0.585716724395752,
      0.17859700322151184,
      1.5125523805618286,
      -1.3438777923583984,
      0.9239645004272461,
      0.1378546953201294,
      0.19513633847236633,
      -1.350600242614746,
      -0.7154653668403625,
      -1.705404281616211,
      -0.18228289484977722,
      0.08067061007022858,
      -0.23639798164367676,
      0.3812035322189331,
      0.3404809534549713,
      0.9443739056587219,
      -0.0724421963095665,
      0.3536253869533539,
      -0.17346492409706116,
      0.5327463746070862,
      2.525367259979248,
      -1.5392717123031616,
      0.5737177133560181,
      -0.4241286814212799,
      0.34573718905448914,
      -1.897196888923645,
      -1.1173779964447021,
      -2.454632520675659,
      0.020663268864154816,
      0.3411136865615845,
      -0.8943453431129456,
      -0.20799264311790466,
      -0.5914196372032166,
      -0.6758168339729309,
      -0.01452596765011549,
      -0.5235717296600342,
      -0.17328453063964844,
      -0.014098551124334335,
      -1.2323319911956787,
      1.4019337892532349,
      -0.7317596077919006,
      0.6160705089569092,
      -0.3419733941555023,
      1.19796621799469,
      1.0799022912979126,
      1.941423773765564,
      -0.16385643184185028,
      -0.011687973514199257,
      -0.0360308438539505,
      0.11482211947441101,
      -0.3280123472213745,
      0.44787418842315674,
      0.4011639654636383,
      -0.29282888770103455,
      0.5095741152763367,
      0.14946070313453674,
      0.8278957009315491,
      0.08648776262998581,
      0.3316192626953125,
      0.12818408012390137,
      0.8438039422035217,
      0.08133652061223984,
      -0.21666742861270905,
      -0.5728370547294617,
      0.3937201201915741,
      -0.12386290729045868,
      -0.18814803659915924,
      0.378500759601593,
      -0.122168630361557,
      -0.8199781179428101,
      0.302386611700058,
      0.0789140909910202,
      0.020081983879208565,
      0.22849883139133453,
      -1.1966185569763184,
      0.7685020565986633,
      0.1094309538602829,
      -0.16236111521720886,
      0.4520258605480194,
      0.8965368866920471,
      0.6727986931800842,
      1.2037599086761475,
      -0.33482426404953003,
      0.38458892703056335,
      0.2686537206172943,
      -0.2433357834815979,
      -0.1896751970052719,
      -0.37865495681762695,
      -0.07360304147005081,
      0.16604188084602356,
      -0.047524601221084595,
      0.13196666538715363,
      -0.7956483960151672,
      0.36519190669059753,
      -0.40615811944007874,
      0.3751595616340637,
      0.24685324728488922,
      0.7625869512557983,
      0.25584277510643005,
      0.6448165774345398,
      -0.3804982900619507,
      0.31607770919799805,
      0.3043707609176636,
      0.041897933930158615,
      -0.0480947382748127,
      0.02185891382396221,
      0.2883450388908386,
      0.2392721325159073,
      -0.05852622166275978,
      0.1551152467727661,
      -0.09117774665355682,
      -0.19776104390621185,
      -0.1235552579164505,
      -0.4050866663455963,
      -0.339387983083725,
      -0.1285354644060135,
      0.2583138644695282,
      -0.04594196006655693,
      -0.16186587512493134,
      -0.14081250131130219,
      0.3600705862045288,
      -0.38950079679489136,
      0.4675583243370056,
      0.9954923987388611,
      -0.42523807287216187,
      -0.10124769061803818,
      -0.20893554389476776,
      0.47495806217193604,
      1.6065361499786377,
      -1.6186366081237793,
      -0.23774266242980957,
      -0.2858012318611145,
      -0.43995773792266846,
      -1.7342876195907593,
      -0.3807825744152069,
      -1.4101427793502808,
      -0.6084129810333252,
      -0.04399770498275757,
      -0.7383806705474854,
      0.5947549939155579,
      0.32456037402153015,
      0.9751483798027039,
      -0.7125570774078369,
      0.3784295320510864,
      0.2784693241119385,
      0.7685738801956177,
      2.1493515968322754,
      -1.3428335189819336,
      0.9067649245262146,
      -0.005968289449810982,
      0.313984215259552,
      -1.8145368099212646,
      -1.204524040222168,
      -1.9925405979156494,
      -0.4195702373981476,
      -0.44232988357543945,
      0.02298126555979252,
      0.03252558037638664,
      0.47062036395072937,
      0.0008800419745966792,
      0.20897194743156433,
      -0.2688475549221039,
      -0.2417793720960617,
      0.046465277671813965,
      0.25650259852409363,
      0.321302592754364,
      0.3886432349681854,
      -0.18749694526195526,
      -0.18463380634784698,
      -0.5301935076713562,
      -0.12907128036022186,
      0.1588553935289383,
      0.43448203802108765,
      -0.36267414689064026,
      0.31488037109375,
      -0.29018735885620117,
      0.3625762462615967,
      1.0390729904174805,
      -0.48843133449554443,
      -0.08145701885223389,
      -0.022286122664809227,
      0.5805952548980713,
      2.8283135890960693,
      -1.9788508415222168,
      0.43404650688171387,
      -0.04503921419382095,
      -0.14534831047058105,
      -2.0990309715270996,
      -1.1813420057296753,
      -2.31000018119812,
      0.09047763794660568,
      -0.18138760328292847,
      -0.7904905080795288,
      0.24174632132053375,
      0.04445222020149231,
      1.1022322177886963,
      -0.17307789623737335,
      0.31594735383987427,
      0.002606079913675785,
      0.5076795816421509,
      1.5713142156600952,
      -1.7387832403182983,
      0.5121618509292603,
      0.2867869436740875,
      0.3740190267562866,
      -1.4309723377227783,
      -1.0418583154678345,
      -1.6690109968185425,
      0.04825489968061447,
      0.2502528429031372,
      -0.026178615167737007,
      0.37206047773361206,
      0.1802382618188858,
      -0.49190306663513184,
      -0.19432805478572845,
      -0.053844064474105835,
      0.2816537320613861,
      -0.16460150480270386,
      -0.010068635456264019,
      -0.15233662724494934,
      0.39944374561309814,
      0.2981308400630951,
      0.4393652677536011,
      -0.20345130562782288,
      -0.30000025033950806,
      0.2142476588487625,
      -0.18624508380889893,
      0.017597053200006485,
      0.08837942034006119,
      -0.2087855488061905,
      -0.5439894199371338,
      -1.1600924730300903,
      0.12109817564487457,
      0.44704246520996094,
      -0.3694704473018646,
      -0.47547218203544617,
      -1.3574228286743164,
      1.2985355854034424,
      -0.3872162401676178,
      -0.27144375443458557,
      -0.13495606184005737,
      1.997359037399292,
      0.6930831074714661,
      2.062978982925415,
      -0.3115842044353485,
      -0.07872191816568375,
      -0.024484749883413315,
      -0.2011047750711441,
      0.7525861263275146,
      0.2889418601989746,
      -0.5453870892524719,
      -0.38118869066238403,
      -0.17521043121814728,
      0.5764999389648438,
      1.6433244943618774,
      -1.277115821838379,
      0.2906423509120941,
      0.32126784324645996,
      0.037555892020463943,
      -1.3600506782531738,
      -1.0091078281402588,
      -1.0418967008590698,
      0.3547966778278351,
      0.06841542571783066,
      -0.5647748112678528,
      0.29758700728416443,
      -0.6751107573509216,
      -0.44719424843788147,
      0.209178164601326,
      -0.16552235186100006,
      -0.6964843273162842,
      -0.2707652151584625,
      -2.1384549140930176,
      1.0210469961166382,
      -0.6817641854286194,
      0.06318582594394684,
      -0.058014191687107086,
      1.2195364236831665,
      0.5230585932731628,
      1.9522161483764648,
      0.007845924235880375,
      0.16164326667785645,
      0.7414644956588745,
      -0.2938985228538513,
      -0.32708311080932617,
      -0.48978790640830994,
      -0.03312945365905762,
      0.6392363905906677,
      0.40532469749450684,
      0.2273963838815689,
      -0.9200951457023621,
      1.246115803718567,
      -0.7579906582832336,
      0.28355973958969116,
      0.3300584554672241,
      1.5605859756469727,
      0.4982398748397827,
      1.5571900606155396,
      -0.4290953576564789,
      0.2573361098766327,
      0.43880248069763184,
      -0.14573657512664795,
      0.8728733062744141,
      1.0261507034301758,
      -0.05628909543156624,
      -0.17960168421268463,
      0.5742394328117371,
      0.7803587913513184,
      2.5511467456817627,
      -1.430766224861145,
      1.2028419971466064,
      -0.14541871845722198,
      -0.3343532681465149,
      -1.5988013744354248,
      -1.321529507637024,
      -2.3917455673217773,
      0.347072958946228,
      0.25480130314826965,
      -0.4904164671897888,
      0.25432106852531433,
      -0.27366524934768677,
      -0.6672435402870178,
      0.5750869512557983,
      0.02514675073325634,
      -0.054028674960136414,
      -0.35160642862319946,
      -2.039630651473999,
      1.5980918407440186,
      -0.7089014649391174,
      0.13142913579940796,
      -0.45974838733673096,
      1.3951431512832642,
      1.1510244607925415,
      1.8172225952148438,
      -0.35300660133361816,
      0.28507566452026367,
      -0.017108812928199768,
      -0.4462277293205261
    ],
    "b1": [
      2.2568483352661133,
      -1.6524220705032349,
      -2.2271509170532227,
      1.5751274824142456,
      -0.41015493869781494,
      1.1597343683242798,
      0.78263920545578,
      0.05407709255814552,
      -1.7210179567337036,
      -1.9446985721588135,
      -0.060709428042173386,
      -2.473588228225708,
      -1.6444655656814575,
      0.11289023607969284,
      2.0389044284820557,
      -1.4018104076385498,
      1.814719319343567,
      1.2520055770874023,
      -2.1201274394989014,
      2.26900053024292
    ],
    "w2": [
      -0.6934899687767029,
      0.4938284158706665,
      0.8971662521362305,
      -0.3524320721626282,
      0.15138128399848938,
      -0.3612721264362335,
      -0.6338327527046204,
      0.11141952127218246,
      0.4134312570095062,
      0.9414479732513428,
      0.14334537088871002,
      0.548052191734314,
      0.4797624945640564,
      0.42101114988327026,
      -1.1070499420166016,
      0.8208234310150146,
      -0.6604495048522949,
      -0.6810213923454285,
      0.5495132207870483,
      -0.8190319538116455,
      0.48306265473365784,
      -0.05304813012480736,
      -0.4191417396068573,
      0.10720919817686081,
      -0.4834662973880768,
      -0.28318193554878235,
      0.050266388803720474,
      -0.08554960787296295,
      -0.6059390902519226,
      -0.6053386926651001,
      0.1565587818622589,
      -0.7876685857772827,
      -0.09279804676771164,
      -0.5450547337532043,
      0.13480620086193085,
      -0.6300139427185059,
      0.4267284870147705,
      0.6378585696220398,
      -0.2931648790836334,
      0.6709885597229004,
      1.150865912437439,
      -1.0148097276687622,
      -1.1891450881958008,
      1.053492546081543,
      0.2354196012020111,
      0.8889941573143005,
      0.17230117321014404,
      -0.16852793097496033,
      -0.921829879283905,
      -0.7725739479064941,
      -0.3725583553314209,
      -1.1716676950454712,
      -0.9814938902854919,
      0.08228915184736252,
      0.9316682815551758,
      -0.6462266445159912,
      0.5214474201202393,
      0.5361721515655518,
      -1.288611650466919,
      0.8147151470184326,
      -1.1685105562210083,
      1.0344973802566528,
      1.3169808387756348,
      -1.1353461742401123,
      0.2266768366098404,
      -0.6589767336845398,
      -0.8003031015396118,
      -0.5585968494415283,
      0.8028956055641174,
      1.2056491374969482,
      -0.1651608645915985,
      1.1848561763763428,
      1.1812201738357544,
      -0.15729111433029175,
      -0.8436658978462219,
      0.6536636352539062,
      -0.9984987378120422,
      -0.9710839986801147,
      1.3229771852493286,
      -0.8493071794509888
    ],
    "b2": [
      -0.7917055487632751,
      0.49916091561317444,
      1.1365119218826294,
      -1.2629605531692505
    ]
  },
  "totalMatches": 128,
  "totalGoalEvents": 726,
  "totalSyncs": 857,
  "updatedAt": "2026-07-23T03:12:58.656Z",
  "progressLog": [
    {
      "ts": "2026-07-03T06:58:45.034Z",
      "generation": 116,
      "fitness": 18.154324026731437,
      "botDelta": 1,
      "aerialTouches": 0
    },
    {
      "ts": "2026-07-03T06:58:45.042Z",
      "generation": 117,
      "fitness": 18.78113447134728,
      "botDelta": 1,
      "aerialTouches": 0
    },
    {
      "ts": "2026-07-03T06:58:45.101Z",
      "generation": 118,
      "fitness": 19.34112032456239,
      "botDelta": 1,
      "aerialTouches": 0
    },
    {
      "ts": "2026-07-03T07:09:32.663Z",
      "generation": 120,
      "fitness": 21.675333841812936,
      "botDelta": 1,
      "aerialTouches": 0
    },
    {
      "ts": "2026-07-03T07:09:32.665Z",
      "generation": 121,
      "fitness": 21.827428400033632,
      "botDelta": 1,
      "aerialTouches": 0
    },
    {
      "ts": "2026-07-03T07:09:32.666Z",
      "generation": 122,
      "fitness": 21.89419426082312,
      "botDelta": 1,
      "aerialTouches": 0
    },
    {
      "ts": "2026-07-03T07:19:12.664Z",
      "generation": 124,
      "fitness": 22.549146070020868,
      "botDelta": 1,
      "aerialTouches": 0
    },
    {
      "ts": "2026-07-03T07:19:12.685Z",
      "generation": 125,
      "fitness": 22.598813618426753,
      "botDelta": 1,
      "aerialTouches": 0
    },
    {
      "ts": "2026-07-03T07:19:12.726Z",
      "generation": 126,
      "fitness": 22.64318608335627,
      "botDelta": 1,
      "aerialTouches": 0
    },
    {
      "ts": "2026-07-03T08:27:55.264Z",
      "generation": 127,
      "fitness": 25.098529826071257,
      "botDelta": -3,
      "aerialTouches": 0
    },
    {
      "ts": "2026-07-03T08:27:55.265Z",
      "generation": 128,
      "fitness": 25.59601076889895,
      "botDelta": -3,
      "aerialTouches": 0
    },
    {
      "ts": "2026-07-03T08:27:55.324Z",
      "generation": 129,
      "fitness": 26.040455006579705,
      "botDelta": -3,
      "aerialTouches": 0
    },
    {
      "ts": "2026-07-03T08:53:08.001Z",
      "generation": 131,
      "fitness": 24.59140309607783,
      "botDelta": 1,
      "aerialTouches": 0
    },
    {
      "ts": "2026-07-03T08:53:08.004Z",
      "generation": 132,
      "fitness": 24.35956924534234,
      "botDelta": 1,
      "aerialTouches": 0
    },
    {
      "ts": "2026-07-03T08:53:08.080Z",
      "generation": 133,
      "fitness": 24.152451323451576,
      "botDelta": 1,
      "aerialTouches": 0
    },
    {
      "ts": "2026-07-03T10:03:27.791Z",
      "generation": 135,
      "fitness": 20.886596304529792,
      "botDelta": -1,
      "aerialTouches": 0
    },
    {
      "ts": "2026-07-03T10:03:27.805Z",
      "generation": 136,
      "fitness": 19.64624792772172,
      "botDelta": -1,
      "aerialTouches": 0
    },
    {
      "ts": "2026-07-03T10:03:27.845Z",
      "generation": 137,
      "fitness": 18.538133744180087,
      "botDelta": -1,
      "aerialTouches": 0
    },
    {
      "ts": "2026-07-03T10:19:08.485Z",
      "generation": 138,
      "fitness": 24.70089174717817,
      "botDelta": -2,
      "aerialTouches": 0
    },
    {
      "ts": "2026-07-03T10:19:08.488Z",
      "generation": 139,
      "fitness": 25.326024056644435,
      "botDelta": -2,
      "aerialTouches": 0
    },
    {
      "ts": "2026-07-03T10:19:08.493Z",
      "generation": 140,
      "fitness": 25.6004421373247,
      "botDelta": -2,
      "aerialTouches": 0
    },
    {
      "ts": "2026-07-03T10:35:24.736Z",
      "generation": 142,
      "fitness": 24.360422263996224,
      "botDelta": 1,
      "aerialTouches": 0
    },
    {
      "ts": "2026-07-03T10:35:24.745Z",
      "generation": 143,
      "fitness": 24.16087887849416,
      "botDelta": 1,
      "aerialTouches": 0
    },
    {
      "ts": "2026-07-03T10:35:24.783Z",
      "generation": 144,
      "fitness": 23.982608918343303,
      "botDelta": 1,
      "aerialTouches": 0
    },
    {
      "ts": "2026-07-03T14:39:48.492Z",
      "generation": 146,
      "fitness": 20.180579222989284,
      "botDelta": -1.3333333333333333,
      "aerialTouches": 0
    },
    {
      "ts": "2026-07-03T15:28:07.271Z",
      "generation": 148,
      "fitness": 21.98001718091728,
      "botDelta": 1,
      "aerialTouches": 0
    },
    {
      "ts": "2026-07-03T15:28:07.273Z",
      "generation": 149,
      "fitness": 22.09488981161723,
      "botDelta": 1,
      "aerialTouches": 0
    },
    {
      "ts": "2026-07-03T15:28:07.274Z",
      "generation": 150,
      "fitness": 22.145316139551362,
      "botDelta": 1,
      "aerialTouches": 0
    },
    {
      "ts": "2026-07-03T16:25:56.367Z",
      "generation": 151,
      "fitness": 25.102417642302434,
      "botDelta": -2.2,
      "aerialTouches": 0
    },
    {
      "ts": "2026-07-03T16:43:22.008Z",
      "generation": 154,
      "fitness": 21.989006741826337,
      "botDelta": -0.6,
      "aerialTouches": 0
    },
    {
      "ts": "2026-07-04T12:40:59.868Z",
      "generation": 156,
      "fitness": 23.013185806896633,
      "botDelta": 1,
      "aerialTouches": 0
    },
    {
      "ts": "2026-07-04T12:40:59.919Z",
      "generation": 157,
      "fitness": 22.998410279241035,
      "botDelta": 1,
      "aerialTouches": 0
    },
    {
      "ts": "2026-07-04T21:12:51.098Z",
      "generation": 158,
      "fitness": 25.13426355876082,
      "botDelta": -5,
      "aerialTouches": 0
    },
    {
      "ts": "2026-07-04T21:12:51.109Z",
      "generation": 159,
      "fitness": 25.62027311578558,
      "botDelta": -5,
      "aerialTouches": 0
    },
    {
      "ts": "2026-07-04T21:12:51.183Z",
      "generation": 160,
      "fitness": 26.05446893814142,
      "botDelta": -5,
      "aerialTouches": 0
    },
    {
      "ts": "2026-07-04T21:34:42.792Z",
      "generation": 162,
      "fitness": 22.733452960968613,
      "botDelta": 0,
      "aerialTouches": 0
    },
    {
      "ts": "2026-07-04T21:34:42.798Z",
      "generation": 163,
      "fitness": 21.9933899541997,
      "botDelta": 0,
      "aerialTouches": 0
    },
    {
      "ts": "2026-07-04T21:34:42.888Z",
      "generation": 164,
      "fitness": 21.33222545408927,
      "botDelta": 0,
      "aerialTouches": 0
    },
    {
      "ts": "2026-07-04T22:08:43.249Z",
      "generation": 166,
      "fitness": 23.187634858231657,
      "botDelta": 1,
      "aerialTouches": 0
    },
    {
      "ts": "2026-07-04T22:08:43.254Z",
      "generation": 167,
      "fitness": 23.15726183202158,
      "botDelta": 1,
      "aerialTouches": 0
    },
    {
      "ts": "2026-07-04T22:08:43.339Z",
      "generation": 168,
      "fitness": 23.130126890121556,
      "botDelta": 1,
      "aerialTouches": 0
    },
    {
      "ts": "2026-07-05T00:42:20.088Z",
      "generation": 169,
      "fitness": 24.98388685024326,
      "botDelta": -3,
      "aerialTouches": 0
    },
    {
      "ts": "2026-07-05T00:42:20.095Z",
      "generation": 170,
      "fitness": 25.518170939743158,
      "botDelta": -3,
      "aerialTouches": 0
    },
    {
      "ts": "2026-07-05T00:42:20.097Z",
      "generation": 171,
      "fitness": 25.75270883221546,
      "botDelta": -3,
      "aerialTouches": 0
    },
    {
      "ts": "2026-07-05T00:51:30.464Z",
      "generation": 172,
      "fitness": 25.227660845301912,
      "botDelta": -5,
      "aerialTouches": 0
    },
    {
      "ts": "2026-07-05T00:51:30.472Z",
      "generation": 173,
      "fitness": 25.6836876318121,
      "botDelta": -5,
      "aerialTouches": 0
    },
    {
      "ts": "2026-07-05T00:51:30.524Z",
      "generation": 174,
      "fitness": 26.091097162598338,
      "botDelta": -5,
      "aerialTouches": 0
    },
    {
      "ts": "2026-07-09T21:07:06.808Z",
      "generation": 176,
      "fitness": 23.310576527556336,
      "botDelta": 1,
      "aerialTouches": 0
    },
    {
      "ts": "2026-07-09T21:07:06.811Z",
      "generation": 177,
      "fitness": 23.264991878039815,
      "botDelta": 1,
      "aerialTouches": 0
    },
    {
      "ts": "2026-07-09T21:07:06.879Z",
      "generation": 178,
      "fitness": 23.22426703200017,
      "botDelta": 1,
      "aerialTouches": 0
    },
    {
      "ts": "2026-07-10T22:14:58.224Z",
      "generation": 183,
      "fitness": 2.8220975111030153,
      "botDelta": -1.3333333333333333,
      "aerialTouches": 0
    },
    {
      "ts": "2026-07-11T17:56:01.606Z",
      "generation": 185,
      "fitness": 2.9771056940685723,
      "botDelta": -1,
      "aerialTouches": 0
    },
    {
      "ts": "2026-07-11T17:56:01.612Z",
      "generation": 186,
      "fitness": 2.032488956204192,
      "botDelta": -1,
      "aerialTouches": 0
    },
    {
      "ts": "2026-07-11T17:56:01.679Z",
      "generation": 187,
      "fitness": 1.4868783284137266,
      "botDelta": -1,
      "aerialTouches": 0
    },
    {
      "ts": "2026-07-11T19:33:53.088Z",
      "generation": 189,
      "fitness": 1.816506839981664,
      "botDelta": -1,
      "aerialTouches": 0
    },
    {
      "ts": "2026-07-11T19:33:53.091Z",
      "generation": 190,
      "fitness": 1.2387622410797927,
      "botDelta": -1,
      "aerialTouches": 0
    },
    {
      "ts": "2026-07-11T19:33:53.117Z",
      "generation": 191,
      "fitness": 0.9851462280322452,
      "botDelta": -1,
      "aerialTouches": 0
    }
  ],
  "githubPushedAt": "2026-07-23T03:12:59.558Z",
  "githubPushReason": "goal"
}